{"learner":{"attributes":{"best_iteration":"99","best_ntree_limit":"100","scikit_learn":"{\"use_label_encoder\": false, \"n_estimators\": 100, \"objective\": \"binary:logistic\", \"max_depth\": null, \"max_leaves\": null, \"max_bin\": null, \"grow_policy\": null, \"learning_rate\": null, \"verbosity\": null, \"booster\": null, \"tree_method\": null, \"gamma\": null, \"min_child_weight\": null, \"max_delta_step\": null, \"subsample\": null, \"sampling_method\": null, \"colsample_bytree\": null, \"colsample_bylevel\": null, \"colsample_bynode\": null, \"reg_alpha\": null, \"reg_lambda\": null, \"scale_pos_weight\": null, \"base_score\": null, \"missing\": NaN, \"num_parallel_tree\": null, \"random_state\": null, \"n_jobs\": null, \"monotone_constraints\": null, \"interaction_constraints\": null, \"importance_type\": null, \"gpu_id\": null, \"validate_parameters\": null, \"predictor\": null, \"enable_categorical\": false, \"max_cat_to_onehot\": null, \"eval_metric\": null, \"early_stopping_rounds\": null, \"callbacks\": null, \"classes_\": [0, 1], \"n_classes_\": 2, \"_estimator_type\": \"classifier\"}"},"feature_names":[],"feature_types":[],"gradient_booster":{"model":{"gbtree_model_param":{"num_parallel_tree":"1","num_trees":"100","size_leaf_vector":"0"},"tree_info":[0,0,0,0,0,0,0,0,0,0,0,0,0,0,0,0,0,0,0,0,0,0,0,0,0,0,0,0,0,0,0,0,0,0,0,0,0,0,0,0,0,0,0,0,0,0,0,0,0,0,0,0,0,0,0,0,0,0,0,0,0,0,0,0,0,0,0,0,0,0,0,0,0,0,0,0,0,0,0,0,0,0,0,0,0,0,0,0,0,0,0,0,0,0,0,0,0,0,0,0],"trees":[{"base_weights":[-1.5555556E-2,-3.4974092E-1,1.9692308E0,-5.639576E-1,1.9398496E0,-7.907692E-1,1.9327731E0,-9.163987E-1,1.8666667E0,-1.0359832E0,1.8490566E0,-1.1384083E0,1.8139535E0],"categories":[],"categories_nodes":[],"categories_segments":[],"categories_sizes":[],"default_left":[1,1,0,1,0,1,0,1,0,1,0,0,0],"id":0,"left_children":[1,3,-1,5,-1,7,-1,9,-1,11,-1,-1,-1],"loss_changes":[2.9916766E2,1.9041483E2,0E0,2.018526E2,0E0,1.10212616E2,0E0,1.04765045E2,0E0,8.927164E1,0E0,0E0,0E0],"parents":[2147483647,0,0,1,1,3,3,5,5,7,7,9,9],"right_children":[2,4,-1,6,-1,8,-1,10,-1,12,-1,-1,-1],"split_conditions":[5E-1,5E-1,5.9076923E-1,5E-1,5.819549E-1,5E-1,5.7983196E-1,5E-1,5.6E-1,5E-1,5.54717E-1,-3.415225E-1,5.4418606E-1],"split_indices":[233,4605,0,2639,0,257,0,265,0,1265,0,0,0],"split_type":[0,0,0,0,0,0,0,0,0,0,0,0,0],"sum_hessian":[4.49E2,3.85E2,6.4E1,3.5275E2,3.225E1,3.24E2,2.875E1,3.1E2,1.4E1,2.9775E2,1.225E1,2.88E2,9.75E0],"tree_param":{"num_deleted":"0","num_feature":"5000","num_nodes":"13","size_leaf_vector":"0"}},{"base_weights":[-5.9075403E-4,-2.4713823E-1,1.5278836E0,-4.0028062E-1,1.7065042E0,-5.635621E-1,1.5031885E0,-6.505816E-1,1.8243899E0,-7.359465E-1,1.4468069E0,-8.171948E-1,1.4186095E0],"categories":[],"categories_nodes":[],"categories_segments":[],"categories_sizes":[],"default_left":[1,1,0,1,0,1,0,1,0,1,0,0,0],"id":1,"left_children":[1,3,-1,5,-1,7,-1,9,-1,11,-1,-1,-1],"loss_changes":[1.6203915E2,1.1146115E2,0E0,1.07812775E2,0E0,6.720407E1,0E0,5.6078552E1,0E0,5.2959732E1,0E0,0E0,0E0],"parents":[2147483647,0,0,1,1,3,3,5,5,7,7,9,9],"right_children":[2,4,-1,6,-1,8,-1,10,-1,12,-1,-1,-1],"split_conditions":[5E-1,5E-1,4.583651E-1,5E-1,5.1195127E-1,5E-1,4.5095655E-1,5E-1,5.47317E-1,5E-1,4.340421E-1,-2.4515845E-1,4.2558286E-1],"split_indices":[233,4592,0,2639,0,3909,0,265,0,4605,0,0,0],"split_type":[0,0,0,0,0,0,0,0,0,0,0,0,0],"sum_hessian":[4.2799088E2,3.6926553E2,5.8725323E1,3.4316092E2,2.6104635E1,3.1669815E2,2.6462751E1,3.0626508E2,1.0433065E1,2.9491116E2,1.1353939E1,2.8479233E2,1.0118808E1],"tree_param":{"num_deleted":"0","num_feature":"5000","num_nodes":"13","size_leaf_vector":"0"}},{"base_weights":[1.3835586E-2,-1.7668758E-1,1.3233327E0,-2.7035806E-2,-1.5114019E0,1.3298532E-1,-1.4869107E0,2.749716E-1,-1.4879712E0,3.5722065E-1,-1.3874185E0,4.3078715E-1,-1.4034033E0],"categories":[],"categories_nodes":[],"categories_segments":[],"categories_sizes":[],"default_left":[1,1,0,1,0,1,0,1,0,1,0,0,0],"id":2,"left_children":[1,3,-1,5,-1,7,-1,9,-1,11,-1,-1,-1],"loss_changes":[9.8568665E1,6.8863205E1,0E0,7.289837E1,0E0,6.516969E1,0E0,3.5985474E1,0E0,3.2741814E1,0E0,0E0,0E0],"parents":[2147483647,0,0,1,1,3,3,5,5,7,7,9,9],"right_children":[2,4,-1,6,-1,8,-1,10,-1,12,-1,-1,-1],"split_conditions":[5E-1,5E-1,3.969998E-1,5E-1,-4.5342058E-1,5E-1,-4.4607323E-1,5E-1,-4.4639137E-1,5E-1,-4.1622558E-1,1.2923615E-1,-4.21021E-1],"split_indices":[233,3094,0,1683,0,4638,0,513,0,4500,0,0,0],"split_type":[0,0,0,0,0,0,0,0,0,0,0,0,0],"sum_hessian":[3.931442E2,3.439647E2,4.9179516E1,3.1020404E2,3.3760654E1,2.803797E2,2.982433E1,2.5856158E2,2.1818111E1,2.471201E2,1.1441493E1,2.3793352E2,9.186573E0],"tree_param":{"num_deleted":"0","num_feature":"5000","num_nodes":"13","size_leaf_vector":"0"}},{"base_weights":[1.5958482E-3,-1.464641E-1,1.204968E0,-2.5731152E-1,1.3696908E0,-3.7181866E-1,1.2534909E0,-4.543522E-1,1.4103267E0,-5.282787E-1,1.4915388E0,-5.8393574E-1,1.9818294E0],"categories":[],"categories_nodes":[],"categories_segments":[],"categories_sizes":[],"default_left":[1,1,0,1,0,1,0,1,0,1,0,0,0],"id":3,"left_children":[1,3,-1,5,-1,7,-1,9,-1,11,-1,-1,-1],"loss_changes":[6.585318E1,5.5665382E1,0E0,5.367002E1,0E0,4.280254E1,0E0,4.0306427E1,0E0,3.823477E1,0E0,0E0,0E0],"parents":[2147483647,0,0,1,1,3,3,5,5,7,7,9,9],"right_children":[2,4,-1,6,-1,8,-1,10,-1,12,-1,-1,-1],"split_conditions":[5E-1,5E-1,3.614904E-1,5E-1,4.1090724E-1,5E-1,3.7604728E-1,5E-1,4.2309803E-1,5E-1,4.4746163E-1,-1.7518073E-1,5.945488E-1],"split_indices":[233,4592,0,2639,0,257,0,1265,0,1466,0,0,0],"split_type":[0,0,0,0,0,0,0,0,0,0,0,0,0],"sum_hessian":[3.6761566E2,3.2812256E2,3.9493103E1,3.0654135E2,2.1581223E1,2.856455E2,2.0895832E1,2.7371448E2,1.193103E1,2.6439822E2,9.316257E0,2.5941357E2,4.9846544E0],"tree_param":{"num_deleted":"0","num_feature":"5000","num_nodes":"13","size_leaf_vector":"0"}},{"base_weights":[1.6144453E-2,1.2578665E-1,-1.2484883E0,2.3771964E-1,-1.2148889E0,3.3324465E-1,-1.2258593E0,-1.2422571E0,-3.4839734E-1,3.9302316E-1,-1.3567678E0,4.5304528E-1,-1.3597246E0,5.1072747E-1,-1.0328177E0],"categories":[],"categories_nodes":[],"categories_segments":[],"categories_sizes":[],"default_left":[1,1,0,1,1,1,0,0,0,1,0,1,0,0,0],"id":4,"left_children":[1,3,-1,5,7,9,-1,-1,-1,11,-1,13,-1,-1,-1],"loss_changes":[4.681089E1,4.6889275E1,0E0,4.0595215E1,1.3853455E-1,2.7872623E1,0E0,0E0,0E0,2.8194782E1,0E0,2.2315845E1,0E0,0E0,0E0],"parents":[2147483647,0,0,1,1,3,3,4,4,5,5,9,9,11,11],"right_children":[2,4,-1,6,8,10,-1,-1,-1,12,-1,14,-1,-1,-1],"split_conditions":[5E-1,5E-1,-3.745465E-1,5E-1,5E-1,5E-1,-3.677578E-1,-3.7267715E-1,-1.0451921E-1,5E-1,-4.0703034E-1,5E-1,-4.079174E-1,1.5321824E-1,-3.0984533E-1],"split_indices":[3094,1683,0,4638,2972,3177,0,0,0,3192,0,513,0,0,0],"split_type":[0,0,0,0,0,0,0,0,0,0,0,0,0,0,0],"sum_hessian":[3.3546918E2,3.0953354E2,2.5935661E1,2.8644125E2,2.3092289E1,2.696162E2,1.682503E1,2.1964865E1,1.1274252E0,2.6114648E2,8.469733E0,2.5321669E2,7.9297786E0,2.4438576E2,8.830939E0],"tree_param":{"num_deleted":"0","num_feature":"5000","num_nodes":"15","size_leaf_vector":"0"}},{"base_weights":[-3.981273E-3,-1.14416435E-1,1.1024351E0,-2.0841308E-1,1.1780331E0,-2.9114985E-1,1.1112111E0,-3.521243E-1,1.4178524E0,-4.182946E-1,1.2145325E0,-4.6841908E-1,1.6906338E0],"categories":[],"categories_nodes":[],"categories_segments":[],"categories_sizes":[],"default_left":[1,1,0,1,0,1,0,1,0,1,0,0,0],"id":5,"left_children":[1,3,-1,5,-1,7,-1,9,-1,11,-1,-1,-1],"loss_changes":[3.878921E1,3.5308014E1,0E0,2.9791195E1,0E0,2.7047194E1,0E0,2.6091776E1,0E0,2.5901226E1,0E0,0E0,0E0],"parents":[2147483647,0,0,1,1,3,3,5,5,7,7,9,9],"right_children":[2,4,-1,6,-1,8,-1,10,-1,12,-1,-1,-1],"split_conditions":[5E-1,5E-1,3.3073056E-1,5E-1,3.5340995E-1,5E-1,3.3336332E-1,5E-1,4.2535573E-1,5E-1,3.6435977E-1,-1.4052573E-1,5.0719017E-1],"split_indices":[233,4605,0,2639,0,255,0,265,0,1267,0,0,0],"split_type":[0,0,0,0,0,0,0,0,0,0,0,0,0],"sum_hessian":[3.1542477E2,2.8761365E2,2.7811104E1,2.6889624E2,1.8717411E1,2.5376524E2,1.5131009E1,2.4578981E2,7.975425E0,2.3653249E2,9.257331E0,2.3180098E2,4.731499E0],"tree_param":{"num_deleted":"0","num_feature":"5000","num_nodes":"13","size_leaf_vector":"0"}},{"base_weights":[1.23030115E-2,9.5006295E-2,-1.1177607E0,1.7796776E-1,-1.0812683E0,2.4702346E-1,-1.0907626E0,-1.1112287E0,-2.9645947E-1,2.948554E-1,-1.2256452E0,3.4594357E-1,-1.1510863E0,3.9301452E-1,-1.127659E0],"categories":[],"categories_nodes":[],"categories_segments":[],"categories_sizes":[],"default_left":[1,1,0,1,1,1,0,0,0,1,0,1,0,0,0],"id":6,"left_children":[1,3,-1,5,7,9,-1,-1,-1,11,-1,13,-1,-1,-1],"loss_changes":[2.7132416E1,2.6577202E1,0E0,2.2472496E1,9.2731476E-2,1.7348526E1,0E0,0E0,0E0,1.7711641E1,0E0,1.6198917E1,0E0,0E0,0E0],"parents":[2147483647,0,0,1,1,3,3,4,4,5,5,9,9,11,11],"right_children":[2,4,-1,6,8,10,-1,-1,-1,12,-1,14,-1,-1,-1],"split_conditions":[5E-1,5E-1,-3.3532822E-1,5E-1,5E-1,5E-1,-3.2722878E-1,-3.3336863E-1,-8.893784E-2,5E-1,-3.6769357E-1,5E-1,-3.4532592E-1,1.1790436E-1,-3.382977E-1],"split_indices":[3094,1683,0,4638,3704,3174,0,0,0,4500,0,3192,0,0,0],"split_type":[0,0,0,0,0,0,0,0,0,0,0,0,0,0,0],"sum_hessian":[2.881743E2,2.6937604E2,1.8798254E1,2.5242169E2,1.6954348E1,2.4015556E2,1.2266123E1,1.593028E1,1.0240685E0,2.3337537E2,6.7801933E0,2.261459E2,7.229464E0,2.1985638E2,6.2895293E0],"tree_param":{"num_deleted":"0","num_feature":"5000","num_nodes":"15","size_leaf_vector":"0"}},{"base_weights":[-6.581473E-3,-9.06152E-2,1.0374646E0,-1.6312578E-1,1.1602873E0,-2.1423446E-1,1.2902424E0,-2.788923E-1,1.0230931E0,-3.3076313E-1,1.1618441E0,-3.7727562E-1,1.316036E0],"categories":[],"categories_nodes":[],"categories_segments":[],"categories_sizes":[],"default_left":[1,1,0,1,0,1,0,1,0,1,0,0,0],"id":7,"left_children":[1,3,-1,5,-1,7,-1,9,-1,11,-1,-1,-1],"loss_changes":[2.4106598E1,2.3248476E1,0E0,1.8190702E1,0E0,1.8993053E1,0E0,1.705041E1,0E0,1.7044426E1,0E0,0E0,0E0],"parents":[2147483647,0,0,1,1,3,3,5,5,7,7,9,9],"right_children":[2,4,-1,6,-1,8,-1,10,-1,12,-1,-1,-1],"split_conditions":[5E-1,5E-1,3.112394E-1,5E-1,3.4808618E-1,5E-1,3.8707274E-1,5E-1,3.0692795E-1,5E-1,3.4855324E-1,-1.13182686E-1,3.9481083E-1],"split_indices":[233,4592,0,3909,0,2639,0,1265,0,1466,0,0,0],"split_type":[0,0,0,0,0,0,0,0,0,0,0,0,0],"sum_hessian":[2.7269427E2,2.5322572E2,1.9468555E1,2.4017328E2,1.305244E1,2.3283797E2,7.3353114E0,2.2201114E2,1.0826821E1,2.150395E2,6.971646E0,2.0988245E2,5.1570535E0],"tree_param":{"num_deleted":"0","num_feature":"5000","num_nodes":"13","size_leaf_vector":"0"}},{"base_weights":[9.579024E-3,-6.452476E-2,1.0834993E0,-1.3056052E-1,1.072418E0,-1.8083705E-1,1.1347927E0,-2.3171681E-1,9.71262E-1,-2.6202846E-1,1.7193644E0,-3.0003682E-1,1.3706579E0],"categories":[],"categories_nodes":[],"categories_segments":[],"categories_sizes":[],"default_left":[1,1,0,1,0,1,0,1,0,1,0,0,0],"id":8,"left_children":[1,3,-1,5,-1,7,-1,9,-1,11,-1,-1,-1],"loss_changes":[2.0263805E1,1.8032463E1,0E0,1.4590724E1,0E0,1.3024179E1,0E0,1.2865211E1,0E0,1.3292463E1,0E0,0E0,0E0],"parents":[2147483647,0,0,1,1,3,3,5,5,7,7,9,9],"right_children":[2,4,-1,6,-1,8,-1,10,-1,12,-1,-1,-1],"split_conditions":[5E-1,5E-1,3.2504982E-1,5E-1,3.217254E-1,5E-1,3.4043783E-1,5E-1,2.9137862E-1,5E-1,5.1580936E-1,-9.0011045E-2,4.111974E-1],"split_indices":[265,4605,0,257,0,2639,0,202,0,1267,0,0,0],"split_type":[0,0,0,0,0,0,0,0,0,0,0,0,0],"sum_hessian":[2.527509E2,2.3731534E2,1.5435568E1,2.2512483E2,1.2190506E1,2.1734605E2,7.7787685E0,2.0891853E2,8.427524E0,2.0657492E2,2.343611E0,2.02673E2,3.9019246E0],"tree_param":{"num_deleted":"0","num_feature":"5000","num_nodes":"13","size_leaf_vector":"0"}},{"base_weights":[2.183E-2,8.414294E-2,-1.021616E0,1.4550777E-1,-9.7419035E-1,4.1830006E-1,-9.472502E-2,-1.0113354E0,-2.7720752E-1,4.9731538E-1,-1.1942279E0,-1.6441844E-1,1.1610497E0,6.076524E-1,-6.065848E-1,-2.4527276E-1,9.670437E-1,6.8817645E-1,-8.550373E-1,-9.609525E-1,7.4296564E-1,-3.1344438E-1,9.340631E-1,1.1960478E0,-1.4112521E-2],"categories":[],"categories_nodes":[],"categories_segments":[],"categories_sizes":[],"default_left":[1,1,0,1,1,1,1,0,0,1,0,1,0,1,1,1,1,0,0,0,0,0,0,0,0],"id":9,"left_children":[1,3,-1,5,7,9,11,-1,-1,13,-1,15,-1,17,19,21,23,-1,-1,-1,-1,-1,-1,-1,-1],"loss_changes":[1.5559804E1,1.4786589E1,0E0,1.4064453E1,4.296589E-2,1.3386099E1,1.0221591E1,0E0,0E0,1.2111982E1,0E0,1.0251071E1,0E0,1.0971218E1,5.143181E0,8.570335E0,1.7026553E0,0E0,0E0,0E0,0E0,0E0,0E0,0E0,0E0],"parents":[2147483647,0,0,1,1,3,3,4,4,5,5,6,6,9,9,11,11,13,13,14,14,15,15,16,16],"right_children":[2,4,-1,6,8,10,12,-1,-1,14,-1,16,-1,18,20,22,24,-1,-1,-1,-1,-1,-1,-1,-1],"split_conditions":[5E-1,5E-1,-3.0648482E-1,5E-1,2.5E0,5E-1,5E-1,-3.0340064E-1,-8.316226E-2,5E-1,-3.5826838E-1,5E-1,3.4831494E-1,5E-1,5E-1,5E-1,5E-1,2.0645295E-1,-2.5651118E-1,-2.8828576E-1,2.228897E-1,-9.4033316E-2,2.8021893E-1,3.5881436E-1,-4.2337566E-3],"split_indices":[3094,1683,0,4673,2989,1387,3909,0,0,903,0,726,0,1831,257,265,4327,0,0,0,0,0,0,0,0],"split_type":[0,0,0,0,0,0,0,0,0,0,0,0,0,0,0,0,0,0,0,0,0,0,0,0,0],"sum_hessian":[2.3698521E2,2.2449791E2,1.24873E1,2.130096E2,1.1488319E1,9.93983E1,1.1361129E2,1.0478841E1,1.0094786E0,9.54145E1,3.9838033E0,1.0846096E2,5.1503334E0,8.715293E1,8.26157E0,1.01958244E2,6.5027137E0,8.310722E1,4.0457087E0,6.771454E0,1.490116E0,9.70807E1,4.8775396E0,5.094603E0,1.4081106E0],"tree_param":{"num_deleted":"0","num_feature":"5000","num_nodes":"25","size_leaf_vector":"0"}},{"base_weights":[1.1761806E-2,-4.4534355E-2,9.702133E-1,-9.558657E-2,1.0672809E0,-1.3361509E-1,1.1075175E0,-1.7053474E-1,1.1246204E0,2.6586103E-1,1.2324038E0,-2.0939833E-1,1.0317036E0,-2.3832355E-1,1.5008109E0],"categories":[],"categories_nodes":[],"categories_segments":[],"categories_sizes":[],"default_left":[1,1,0,1,0,1,1,1,0,0,0,1,0,0,0],"id":10,"left_children":[1,3,-1,5,-1,7,9,11,-1,-1,-1,13,-1,-1,-1],"loss_changes":[1.2200817E1,1.2236054E1,0E0,9.541298E0,0E0,9.478324E0,3.4488916E-1,9.330795E0,0E0,0E0,0E0,9.746848E0,0E0,0E0,0E0],"parents":[2147483647,0,0,1,1,3,3,5,5,6,6,7,7,11,11],"right_children":[2,4,-1,6,-1,8,10,12,-1,-1,-1,14,-1,-1,-1],"split_conditions":[5E-1,5E-1,2.91064E-1,5E-1,3.201843E-1,5E-1,5E-1,5E-1,3.3738613E-1,7.975832E-2,3.6972114E-1,5E-1,3.095111E-1,-7.149707E-2,4.5024326E-1],"split_indices":[233,4592,0,1466,0,255,2826,1265,0,0,0,2646,0,0,0],"split_type":[0,0,0,0,0,0,0,0,0,0,0,0,0,0,0],"sum_hessian":[2.2431975E2,2.1277557E2,1.1544175E1,2.043082E2,8.467376E0,1.9890987E2,5.3983364E0,1.9407957E2,4.8302956E0,1.1017884E0,4.2965484E0,1.8880217E2,5.277396E0,1.8650836E2,2.2938192E0],"tree_param":{"num_deleted":"0","num_feature":"5000","num_nodes":"15","size_leaf_vector":"0"}},{"base_weights":[2.3099445E-2,7.162032E-2,-9.646888E-1,1.2532348E-2,9.705626E-1,7.225104E-2,-8.8900775E-1,1.2222192E0,-1.5440919E-1,1.3150443E-1,-8.112722E-1,-1.0192364E0,1.3697977E-1,1.4177455E0,-9.204496E-2,2.671673E-1,-4.9618354E-1,1.8401457E-1,-9.6401817E-1,-9.8383254E-1,4.0309796E-1,-1.0921066E0,-2.1715392E-1,1.5400254E0,2.687677E-1,2.3512854E-1,-8.624072E-1,-1.0318311E0,-2.9660085E-1],"categories":[],"categories_nodes":[],"categories_segments":[],"categories_sizes":[],"default_left":[1,1,0,1,1,1,1,1,1,1,1,1,0,1,0,0,0,1,0,1,0,0,0,0,0,0,0,0,0],"id":11,"left_children":[1,3,-1,5,7,9,11,13,15,17,19,21,-1,23,-1,-1,-1,25,-1,27,-1,-1,-1,-1,-1,-1,-1,-1,-1],"loss_changes":[1.0321898E1,1.0867962E1,0E0,1.0466644E1,3.7616396E0,9.641791E0,1.7534838E0,2.8095627E0,5.929018E-1,1.0045914E1,2.8245926E0,3.9622593E-1,0E0,8.69709E-1,0E0,0E0,0E0,9.003592E0,0E0,3.8191795E-2,0E0,0E0,0E0,0E0,0E0,0E0,0E0,0E0,0E0],"parents":[2147483647,0,0,1,1,3,3,4,4,5,5,6,6,7,7,8,8,9,9,10,10,11,11,13,13,17,17,19,19],"right_children":[2,4,-1,6,8,10,12,14,16,18,20,22,-1,24,-1,-1,-1,26,-1,28,-1,-1,-1,-1,-1,-1,-1,-1,-1],"split_conditions":[5E-1,5E-1,-2.8940666E-1,5E-1,4.5E0,5E-1,5E-1,5E-1,5E-1,5E-1,5E-1,5.5E0,4.1093934E-2,5E-1,-2.7613489E-2,8.0150194E-2,-1.4885508E-1,5E-1,-2.8920546E-1,5E-1,1.2092939E-1,-3.2763198E-1,-6.514618E-2,4.620076E-1,8.063032E-2,7.0538566E-2,-2.587222E-1,-3.0954936E-1,-8.898026E-2],"split_indices":[3094,1312,0,1831,282,2702,918,2273,1094,513,4877,282,0,4798,0,0,0,1683,0,2780,0,0,0,0,0,0,0,0,0],"split_type":[0,0,0,0,0,0,0,0,0,0,0,0,0,0,0,0,0,0,0,0,0,0,0,0,0,0,0,0,0],"sum_hessian":[2.1291946E2,2.0383447E2,9.085003E0,1.9221407E2,1.1620396E1,1.8113539E2,1.1078685E1,9.42547E0,2.1949258E0,1.7054872E2,1.0586673E1,9.836692E0,1.2419924E0,8.136279E0,1.289191E0,1.0804683E0,1.1144576E0,1.6354192E2,7.0067954E0,9.435712E0,1.1509602E0,8.685973E0,1.1507194E0,7.0460587E0,1.0902202E0,1.566647E2,6.8772087E0,8.351018E0,1.0846945E0],"tree_param":{"num_deleted":"0","num_feature":"5000","num_nodes":"29","size_leaf_vector":"0"}},{"base_weights":[7.167544E-3,-3.950753E-2,9.877566E-1,-8.592883E-2,9.864652E-1,-1.1625877E-1,1.36874E0,-1.5804055E-1,9.187152E-1,-2.044815E-1,7.946878E-1,-3.163914E-1,1.3358215E0,-2.3641749E-1,1.3012105E0,1.3071985E0,-2.333124E-1],"categories":[],"categories_nodes":[],"categories_segments":[],"categories_sizes":[],"default_left":[1,1,0,1,0,1,0,1,1,1,1,0,0,0,0,0,0],"id":12,"left_children":[1,3,-1,5,-1,7,-1,9,11,13,15,-1,-1,-1,-1,-1,-1],"loss_changes":[9.519839E0,9.547975E0,0E0,8.586633E0,0E0,8.2763405E0,0E0,8.197079E0,4.2571177E0,8.671934E0,4.8596454E0,0E0,0E0,0E0,0E0,0E0,0E0],"parents":[2147483647,0,0,1,1,3,3,5,5,7,7,8,8,9,9,10,10],"right_children":[2,4,-1,6,-1,8,-1,10,12,14,16,-1,-1,-1,-1,-1,-1],"split_conditions":[5E-1,5E-1,2.96327E-1,5E-1,2.9593956E-1,5E-1,4.10622E-1,5E-1,5E-1,5E-1,1.5E0,-9.4917424E-2,4.0074646E-1,-7.092525E-2,3.903632E-1,3.9215958E-1,-6.999372E-2],"split_indices":[265,4605,0,2647,0,3921,0,3696,2076,1645,2989,0,0,0,0,0,0],"split_type":[0,0,0,0,0,0,0,0,0,0,0,0,0,0,0,0,0],"sum_hessian":[2.061446E2,1.9769426E2,8.450342E0,1.9001315E2,7.6811132E0,1.8703357E2,2.979584E0,1.8059045E2,6.443116E0,1.7294556E2,7.644896E0,1.6875424E0,4.7555737E0,1.7017902E2,2.766542E0,4.920287E0,2.7246087E0],"tree_param":{"num_deleted":"0","num_feature":"5000","num_nodes":"17","size_leaf_vector":"0"}},{"base_weights":[1.766419E-2,5.9279375E-2,-9.623455E-1,9.555782E-2,-1.1380749E0,1.3527586E-1,-9.4610626E-1,1.7398374E-1,-1.0224673E0,2.1783659E-1,-9.04665E-1,2.652924E-1,-8.408213E-1],"categories":[],"categories_nodes":[],"categories_segments":[],"categories_sizes":[],"default_left":[1,1,0,1,0,1,0,1,0,1,0,0,0],"id":13,"left_children":[1,3,-1,5,-1,7,-1,9,-1,11,-1,-1,-1],"loss_changes":[8.194831E0,8.464131E0,0E0,7.8902416E0,0E0,8.316125E0,0E0,8.549644E0,0E0,8.788282E0,0E0,0E0,0E0],"parents":[2147483647,0,0,1,1,3,3,5,5,7,7,9,9],"right_children":[2,4,-1,6,-1,8,-1,10,-1,12,-1,-1,-1],"split_conditions":[5E-1,5E-1,-2.8870365E-1,5E-1,-3.4142247E-1,5E-1,-2.838319E-1,5E-1,-3.067402E-1,5E-1,-2.713995E-1,7.958773E-2,-2.522464E-1],"split_indices":[4638,1676,0,1037,0,3177,0,3094,0,1683,0,0,0],"split_type":[0,0,0,0,0,0,0,0,0,0,0,0,0],"sum_hessian":[1.9853725E2,1.9135121E2,7.186037E0,1.8661713E2,4.7340894E0,1.8060104E2,6.0160766E0,1.7558043E2,5.0206203E0,1.6948788E2,6.092544E0,1.6293356E2,6.5543146E0],"tree_param":{"num_deleted":"0","num_feature":"5000","num_nodes":"13","size_leaf_vector":"0"}},{"base_weights":[-9.818627E-4,-3.872539E-2,9.028832E-1,-7.4797E-2,9.651286E-1,-1.0859795E-1,1.0334224E0,-1.3123216E-2,-5.048549E-1,1.8196839E-1,-2.7497885E-1,-6.06223E-1,7.8010917E-1,3.0636218E-1,-8.262412E-1,-3.2577226E-1,1.2465869E0,-8.163999E-1,-8.592905E-3],"categories":[],"categories_nodes":[],"categories_segments":[],"categories_sizes":[],"default_left":[1,1,0,1,0,1,0,1,1,1,1,1,0,0,0,0,0,0,0],"id":14,"left_children":[1,3,-1,5,-1,7,-1,9,11,13,15,17,-1,-1,-1,-1,-1,-1,-1],"loss_changes":[6.649036E0,6.8458567E0,0E0,6.9111037E0,0E0,6.6910696E0,0E0,7.3905005E0,4.946704E0,1.0655462E1,5.17814E0,4.062413E0,0E0,0E0,0E0,0E0,0E0,0E0,0E0],"parents":[2147483647,0,0,1,1,3,3,5,5,7,7,8,8,9,9,10,10,11,11],"right_children":[2,4,-1,6,-1,8,-1,10,12,14,16,18,-1,-1,-1,-1,-1,-1,-1],"split_conditions":[5E-1,5E-1,2.7086496E-1,5E-1,2.895386E-1,5E-1,3.100267E-1,1.5E0,5E-1,5E-1,5E-1,5E-1,2.3403277E-1,9.1908656E-2,-2.4787237E-1,-9.773168E-2,3.7397608E-1,-2.4491997E-1,-2.5778715E-3],"split_indices":[233,4592,0,3909,0,2418,0,282,257,903,2152,4154,0,0,0,0,0,0,0],"split_type":[0,0,0,0,0,0,0,0,0,0,0,0,0,0,0,0,0,0,0],"sum_hessian":[1.9287543E2,1.8606299E2,6.8124485E0,1.8050246E2,5.560527E0,1.7603534E2,4.4671125E0,1.4268881E2,3.334653E1,8.194328E1,6.0745533E1,3.139784E1,1.9486899E0,7.3563126E1,8.380153E0,5.954372E1,1.2018121E0,2.2957867E1,8.439974E0],"tree_param":{"num_deleted":"0","num_feature":"5000","num_nodes":"19","size_leaf_vector":"0"}},{"base_weights":[4.585007E-3,3.6590356E-2,-1.0659329E0,6.652773E-2,-1.1170932E0,1.04262136E-1,-8.655447E-1,1.4215145E-1,-9.0338796E-1,-2.3234938E-1,-1.0520538E0,1.8869032E-1,-6.9096076E-1,1.0700411E-1,7.3118484E-1,-8.696001E-1,3.1631252E-1],"categories":[],"categories_nodes":[],"categories_segments":[],"categories_sizes":[],"default_left":[1,1,0,1,0,1,1,1,0,0,0,1,1,0,0,0,0],"id":15,"left_children":[1,3,-1,5,-1,7,9,11,-1,-1,-1,13,15,-1,-1,-1,-1],"loss_changes":[6.4399633E0,6.372915E0,0E0,6.3752313E0,0E0,6.7195373E0,5.8937407E-1,6.6147947E0,0E0,0E0,0E0,6.9757876E0,1.9058037E0,0E0,0E0,0E0,0E0],"parents":[2147483647,0,0,1,1,3,3,5,5,6,6,7,7,11,11,12,12],"right_children":[2,4,-1,6,-1,8,10,12,-1,-1,-1,14,16,-1,-1,-1,-1],"split_conditions":[5E-1,5E-1,-3.1977987E-1,5E-1,-3.3512798E-1,5E-1,5E-1,5E-1,-2.710164E-1,-6.9704816E-2,-3.1561616E-1,5E-1,5E-1,3.2101236E-2,2.1935546E-1,-2.6088005E-1,9.489376E-2],"split_indices":[1387,3920,0,3577,0,4638,0,786,0,0,0,3890,2629,0,0,0,0],"split_type":[0,0,0,0,0,0,0,0,0,0,0,0,0,0,0,0,0],"sum_hessian":[1.8582228E2,1.813658E2,4.456486E0,1.77697E2,3.6687932E0,1.7163654E2,6.060466E0,1.662444E2,5.392137E0,1.8899387E0,4.170527E0,1.5818166E2,8.062749E0,1.3852106E2,1.9660591E1,6.964311E0,1.0984378E0],"tree_param":{"num_deleted":"0","num_feature":"5000","num_nodes":"17","size_leaf_vector":"0"}},{"base_weights":[-6.444725E-3,-3.919037E-2,9.14483E-1,-7.232044E-2,9.078128E-1,-1.06525145E-1,8.824572E-1,-1.398114E-1,9.486729E-1,9.102271E-3,-4.0416694E-1,8.310057E-2,-8.894467E-1,-4.5583388E-1,8.2826126E-1],"categories":[],"categories_nodes":[],"categories_segments":[],"categories_sizes":[],"default_left":[1,1,0,1,0,1,0,1,0,1,1,0,0,0,0],"id":16,"left_children":[1,3,-1,5,-1,7,-1,9,-1,11,13,-1,-1,-1,-1],"loss_changes":[5.5730996E0,5.65882E0,0E0,5.7494583E0,0E0,6.0360556E0,0E0,6.4521465E0,0E0,7.1060452E0,4.1374073E0,0E0,0E0,0E0,0E0],"parents":[2147483647,0,0,1,1,3,3,5,5,7,7,9,9,10,10],"right_children":[2,4,-1,6,-1,8,-1,10,-1,12,14,-1,-1,-1,-1],"split_conditions":[5E-1,5E-1,2.7434492E-1,5E-1,2.7234384E-1,5E-1,2.6473716E-1,5E-1,2.8460187E-1,5E-1,5E-1,2.4930174E-2,-2.6683402E-1,-1.3675018E-1,2.4847838E-1],"split_indices":[265,4605,0,2639,0,257,0,4848,0,903,1466,0,0,0,0],"split_type":[0,0,0,0,0,0,0,0,0,0,0,0,0,0,0],"sum_hessian":[1.8261824E2,1.7727237E2,5.345871E0,1.7217268E2,5.099677E0,1.6707567E2,5.097021E0,1.628074E2,4.268262E0,1.0476051E2,5.8046894E1,9.762805E1,7.132457E0,5.6316097E1,1.7307993E0],"tree_param":{"num_deleted":"0","num_feature":"5000","num_nodes":"15","size_leaf_vector":"0"}},{"base_weights":[2.1628626E-3,2.82643E-2,-1.1466699E0,5.6625225E-2,-1.0672919E0,1.0173671E-1,-5.9874564E-1,1.3546535E-1,-8.7282634E-1,-7.844542E-1,2.0843804E-1,1.6757154E-1,-9.532527E-1,-8.755953E-1,-1.5829241E-1,2.0059107E-1,-8.593448E-1,-9.969072E-1,-2.2454125E-1],"categories":[],"categories_nodes":[],"categories_segments":[],"categories_sizes":[],"default_left":[1,1,0,1,0,1,1,1,0,1,0,1,0,1,0,0,0,0,0],"id":17,"left_children":[1,3,-1,5,-1,7,9,11,-1,13,-1,15,-1,17,-1,-1,-1,-1,-1],"loss_changes":[5.301907E0,5.42959E0,0E0,5.068947E0,0E0,5.3557806E0,1.820543E0,5.5732727E0,0E0,3.8623857E-1,0E0,5.302278E0,0E0,3.9278364E-1,0E0,0E0,0E0,0E0,0E0],"parents":[2147483647,0,0,1,1,3,3,5,5,6,6,7,7,9,9,11,11,13,13],"right_children":[2,4,-1,6,-1,8,10,12,-1,14,-1,16,-1,18,-1,-1,-1,-1,-1],"split_conditions":[5E-1,5E-1,-3.4400097E-1,5E-1,-3.2018757E-1,5E-1,5E-1,5E-1,-2.618479E-1,5E-1,6.253141E-2,5E-1,-2.859758E-1,5E-1,-4.7487725E-2,6.0177322E-2,-2.5780344E-1,-2.9907218E-1,-6.7362376E-2],"split_indices":[4745,1680,0,2806,0,513,1882,1387,0,4766,0,3152,0,1579,0,0,0,0,0],"split_type":[0,0,0,0,0,0,0,0,0,0,0,0,0,0,0,0,0,0,0],"sum_hessian":[1.7473082E2,1.7180286E2,2.9279575E0,1.6839197E2,3.4108894E0,1.5833778E2,1.0054184E1,1.5387338E2,4.464403E0,8.196562E0,1.857622E0,1.502875E2,3.5858808E0,6.8073626E0,1.3891988E0,1.463853E2,3.9022143E0,5.2903776E0,1.516985E0],"tree_param":{"num_deleted":"0","num_feature":"5000","num_nodes":"19","size_leaf_vector":"0"}},{"base_weights":[-1.1815373E-2,-5.490229E-2,6.1656886E-1,-7.8220874E-2,1.1890194E0,8.898409E-1,-3.612176E-1,-1.1730997E-1,7.837684E-1,1.0594223E0,-1.6379172E-1,-4.8259786E-1,-5.1460885E-2,-1.4035012E-1,1.2677177E0,1.0434222E0,-2.3753488E-1,1.2303483E0,1.296287E-1,-1.6876814E-1,1.0156617E0,1.180848E0,2.4561289E-1,-1.980363E-1,9.070793E-1],"categories":[],"categories_nodes":[],"categories_segments":[],"categories_sizes":[],"default_left":[1,1,1,1,0,1,1,1,1,1,0,0,0,1,0,1,0,0,0,1,0,0,0,0,0],"id":18,"left_children":[1,3,5,7,-1,9,11,13,15,17,-1,-1,-1,19,-1,21,-1,-1,-1,23,-1,-1,-1,-1,-1],"loss_changes":[4.725812E0,4.8237453E0,3.3145356E0,5.5177364E0,0E0,1.7894034E0,9.39039E-2,5.1214175E0,2.1348305E0,1.0997992E0,0E0,0E0,0E0,5.2068787E0,0E0,3.523221E-1,0E0,0E0,0E0,4.9173055E0,0E0,0E0,0E0,0E0,0E0],"parents":[2147483647,0,0,1,1,2,2,3,3,5,5,6,6,7,7,8,8,9,9,13,13,15,15,19,19],"right_children":[2,4,6,8,-1,10,12,14,16,18,-1,-1,-1,20,-1,22,-1,-1,-1,24,-1,-1,-1,-1,-1],"split_conditions":[5E-1,5E-1,4.5E0,5E-1,3.5670584E-1,5E-1,5E-1,5E-1,5E-1,5E-1,-4.9137518E-2,-1.4477937E-1,-1.5438266E-2,5E-1,3.8031533E-1,1.5E0,-7.126047E-2,3.691045E-1,3.888861E-2,5E-1,3.0469853E-1,3.5425442E-1,7.368387E-2,-5.9410892E-2,2.7212378E-1],"split_indices":[1312,3054,282,3696,0,2273,516,3490,4543,754,0,0,0,2647,0,0,0,0,0,3909,0,0,0,0,0],"split_type":[0,0,0,0,0,0,0,0,0,0,0,0,0,0,0,0,0,0,0,0,0,0,0,0,0],"sum_hessian":[1.7229407E2,1.6209238E2,1.0201686E1,1.6002959E2,2.0628006E0,8.043601E0,2.1580844E0,1.5391388E2,6.115709E0,6.923736E0,1.1198652E0,1.1496112E0,1.0084732E0,1.5227934E2,1.6345235E0,4.858769E0,1.2569401E0,5.5755258E0,1.3482106E0,1.4945923E2,2.82012E0,3.7352452E0,1.1235237E0,1.4629523E2,3.1639996E0],"tree_param":{"num_deleted":"0","num_feature":"5000","num_nodes":"25","size_leaf_vector":"0"}},{"base_weights":[2.8316309E-3,2.8249223E-2,-9.558508E-1,6.0145248E-2,-7.9705036E-1,8.539644E-2,-1.0433491E0,1.1434107E-1,-9.147571E-1,1.4196631E-1,-9.826749E-1,1.767071E-1,-8.01734E-1],"categories":[],"categories_nodes":[],"categories_segments":[],"categories_sizes":[],"default_left":[1,1,0,1,0,1,0,1,0,1,0,0,0],"id":19,"left_children":[1,3,-1,5,-1,7,-1,9,-1,11,-1,-1,-1],"loss_changes":[4.1705427E0,4.4341054E0,0E0,4.5851436E0,0E0,4.697895E0,0E0,4.839694E0,0E0,5.1301746E0,0E0,0E0,0E0],"parents":[2147483647,0,0,1,1,3,3,5,5,7,7,9,9],"right_children":[2,4,-1,6,-1,8,-1,10,-1,12,-1,-1,-1],"split_conditions":[5E-1,5E-1,-2.8675523E-1,5E-1,-2.3911512E-1,5E-1,-3.1300476E-1,5E-1,-2.7442715E-1,5E-1,-2.948025E-1,5.3012133E-2,-2.405202E-1],"split_indices":[1676,1683,0,1302,0,3177,0,3920,0,1037,0,0,0],"split_type":[0,0,0,0,0,0,0,0,0,0,0,0,0],"sum_hessian":[1.6904443E2,1.6562378E2,3.4206579E0,1.6035358E2,5.270192E0,1.5766829E2,2.6853008E0,1.5409444E2,3.5738463E0,1.5115852E2,2.9359097E0,1.4657535E2,4.583184E0],"tree_param":{"num_deleted":"0","num_feature":"5000","num_nodes":"13","size_leaf_vector":"0"}},{"base_weights":[-1.0541655E-2,-3.382745E-2,1.0153215E0,-6.298763E-2,8.374063E-1,-9.150932E-2,8.7687564E-1,-1.4068934E-1,4.473535E-1,-1.713166E-1,8.556305E-1,9.226263E-1,-3.0849087E-1,-1.9316114E-1,1.2349994E0,1.1114604E0,3.31657E-3,1.0598043E0,-3.183084E-2,-6.277173E-1,5.167563E-1],"categories":[],"categories_nodes":[],"categories_segments":[],"categories_sizes":[],"default_left":[1,1,0,1,0,1,0,1,1,1,1,1,1,0,0,0,0,0,0,0,0],"id":20,"left_children":[1,3,-1,5,-1,7,-1,9,11,13,15,17,19,-1,-1,-1,-1,-1,-1,-1,-1],"loss_changes":[4.033252E0,4.2358446E0,0E0,4.3760314E0,0E0,4.2087326E0,0E0,4.544183E0,5.070548E0,4.559368E0,9.698615E-1,1.1374817E0,1.8767359E0,0E0,0E0,0E0,0E0,0E0,0E0,0E0,0E0],"parents":[2147483647,0,0,1,1,3,3,5,5,7,7,8,8,9,9,10,10,11,11,12,12],"right_children":[2,4,-1,6,-1,8,-1,10,12,14,16,18,20,-1,-1,-1,-1,-1,-1,-1,-1],"split_conditions":[5E-1,5E-1,3.0459645E-1,5E-1,2.512219E-1,5E-1,2.6306272E-1,5E-1,5E-1,5E-1,2.5E0,5E-1,2.5E0,-5.7948347E-2,3.7049985E-1,3.3343816E-1,9.94971E-4,3.179413E-1,-9.549253E-3,-1.883152E-1,1.550269E-1],"split_indices":[1267,233,0,4592,0,3704,0,2902,484,3933,4257,4908,2734,0,0,0,0,0,0,0,0],"split_type":[0,0,0,0,0,0,0,0,0,0,0,0,0,0,0,0,0,0,0,0,0],"sum_hessian":[1.6640204E2,1.6365433E2,2.7477207E0,1.5925186E2,4.4024553E0,1.554375E2,3.814369E0,1.4311485E2,1.232265E1,1.3965001E2,3.4648445E0,7.430019E0,4.892631E0,1.3836343E2,1.2865748E0,2.4310822E0,1.0337622E0,6.399837E0,1.0301819E0,3.7005305E0,1.1921004E0],"tree_param":{"num_deleted":"0","num_feature":"5000","num_nodes":"21","size_leaf_vector":"0"}},{"base_weights":[4.1428013E-3,3.264478E-2,-8.44154E-1,5.9702974E-2,-8.3567256E-1,8.333327E-2,-1.0010012E0,1.0776457E-1,-9.7991604E-1,1.3539559E-1,-8.7504345E-1,1.6742204E-1,-7.418621E-1],"categories":[],"categories_nodes":[],"categories_segments":[],"categories_sizes":[],"default_left":[1,1,0,1,0,1,0,1,0,1,0,0,0],"id":21,"left_children":[1,3,-1,5,-1,7,-1,9,-1,11,-1,-1,-1],"loss_changes":[3.9742668E0,3.7830567E0,0E0,3.9690247E0,0E0,4.0687838E0,0E0,4.1930046E0,0E0,4.248748E0,0E0,0E0,0E0],"parents":[2147483647,0,0,1,1,3,3,5,5,7,7,9,9],"right_children":[2,4,-1,6,-1,8,-1,10,-1,12,-1,-1,-1],"split_conditions":[5E-1,5E-1,-2.5324622E-1,5E-1,-2.5070179E-1,5E-1,-3.003004E-1,5E-1,-2.9397482E-1,1.5E0,-2.6251304E-1,5.0226614E-2,-2.2255865E-1],"split_indices":[3094,4638,0,780,0,4745,0,3192,0,4987,0,0,0],"split_type":[0,0,0,0,0,0,0,0,0,0,0,0,0],"sum_hessian":[1.6223465E2,1.5789117E2,4.343478E0,1.5402281E2,3.8683617E0,1.5156764E2,2.455177E0,1.4904161E2,2.526027E0,1.4580464E2,3.2369676E0,1.4144983E2,4.354821E0],"tree_param":{"num_deleted":"0","num_feature":"5000","num_nodes":"13","size_leaf_vector":"0"}},{"base_weights":[-9.513258E-3,-2.6595162E-2,1.3101503E0,2.1402026E-2,-5.2371854E-1,4.966949E-2,-8.0340654E-1,-6.934973E-1,7.836398E-2,2.2690773E-2,9.412643E-1,-8.099832E-1,1.5896393E-1,6.4879894E-1,-6.2309456E-1,6.2185355E-2,-6.377931E-1,1.1533605E0,2.2059746E-1,-9.002283E-1,-1.5639594E-1,4.058881E-2,1.1879905E0,-9.1474485E-1,1.9450106E-1],"categories":[],"categories_nodes":[],"categories_segments":[],"categories_sizes":[],"default_left":[1,1,0,1,1,1,0,1,1,1,1,1,0,0,0,1,1,0,0,0,0,0,0,0,0],"id":22,"left_children":[1,3,-1,5,7,9,-1,11,13,15,17,19,-1,-1,-1,21,23,-1,-1,-1,-1,-1,-1,-1,-1],"loss_changes":[3.6565979E0,3.8191423E0,0E0,3.455595E0,1.4947472E0,3.4084568E0,0E0,1.2303028E0,2.0039892E0,3.6766245E0,3.819089E-1,4.4453144E-1,0E0,0E0,0E0,3.1725657E0,2.0117102E0,0E0,0E0,0E0,0E0,0E0,0E0,0E0,0E0],"parents":[2147483647,0,0,1,1,3,3,4,4,5,5,7,7,8,8,9,9,10,10,11,11,15,15,16,16],"right_children":[2,4,-1,6,8,10,-1,12,14,16,18,20,-1,-1,-1,22,24,-1,-1,-1,-1,-1,-1,-1,-1],"split_conditions":[5E-1,5E-1,3.930451E-1,5E-1,5E-1,5E-1,-2.4102198E-1,5E-1,5E-1,5E-1,5E-1,5E-1,4.768918E-2,1.946397E-1,-1.8692838E-1,5E-1,5E-1,3.4600815E-1,6.617924E-2,-2.700685E-1,-4.6918783E-2,1.2176644E-2,3.5639718E-1,-2.7442348E-1,5.835032E-2],"split_indices":[4503,4680,0,513,1579,1069,0,3704,2872,3927,484,3392,0,0,0,984,4968,0,0,0,0,0,0,0,0],"split_type":[0,0,0,0,0,0,0,0,0,0,0,0,0,0,0,0,0,0,0,0,0,0,0,0,0],"sum_hessian":[1.5966435E2,1.5859137E2,1.0729811E0,1.4550029E2,1.3091083E1,1.4158763E2,3.9126468E0,1.0093131E1,2.9979515E0,1.3842451E2,3.1631298E0,8.923584E0,1.1695471E0,1.6947947E0,1.3031567E0,1.3146898E2,6.9555273E0,1.9799982E0,1.1831316E0,7.509353E0,1.4142306E0,1.30011E2,1.4579736E0,5.144571E0,1.8109562E0],"tree_param":{"num_deleted":"0","num_feature":"5000","num_nodes":"25","size_leaf_vector":"0"}},{"base_weights":[-5.7135266E-3,-3.0799167E-2,8.803772E-1,-5.750895E-2,8.2403004E-1,-8.4593244E-2,8.338387E-1,-1.1231927E-1,8.2771057E-1,-1.3772406E-1,9.1585606E-1,-1.5797052E-1,1.1375327E0],"categories":[],"categories_nodes":[],"categories_segments":[],"categories_sizes":[],"default_left":[1,1,0,1,0,1,0,1,0,1,0,0,0],"id":23,"left_children":[1,3,-1,5,-1,7,-1,9,-1,11,-1,-1,-1],"loss_changes":[3.556614E0,3.5950663E0,0E0,3.730553E0,0E0,3.837668E0,0E0,3.9020658E0,0E0,3.8445392E0,0E0,0E0,0E0],"parents":[2147483647,0,0,1,1,3,3,5,5,7,7,9,9],"right_children":[2,4,-1,6,-1,8,-1,10,-1,12,-1,-1,-1],"split_conditions":[5E-1,5E-1,2.6411316E-1,5E-1,2.4720903E-1,5E-1,2.5015163E-1,5E-1,2.4831317E-1,5E-1,2.7475682E-1,-4.7391158E-2,3.4125984E-1],"split_indices":[1265,2639,0,4605,0,265,0,255,0,2005,0,0,0],"split_type":[0,0,0,0,0,0,0,0,0,0,0,0,0],"sum_hessian":[1.5778506E2,1.5437975E2,3.4053214E0,1.5060666E2,3.7730937E0,1.4704372E2,3.5629435E0,1.4355771E2,3.4860096E0,1.4094128E2,2.6164138E0,1.3960106E2,1.3402321E0],"tree_param":{"num_deleted":"0","num_feature":"5000","num_nodes":"13","size_leaf_vector":"0"}},{"base_weights":[8.572301E-3,4.2278677E-2,-6.017762E-1,-4.188849E-3,6.343179E-1,-8.0386525E-1,1.3698998E-1,3.0046126E-2,-1.0341856E0,1.091461E0,-8.431188E-1,-9.1192347E-1,-3.2392058E-1,1.1365951E-1,-3.2752833E-1,1.3458089E0,-3.1310815E-1,1.559267E-1,-6.33322E-1,-4.0508905E-1,6.570497E-1,1.8876496E-1,-8.3627695E-1,-8.848676E-1,2.0614146E-1,9.426696E-2,-5.8110344E-1],"categories":[],"categories_nodes":[],"categories_segments":[],"categories_sizes":[],"default_left":[1,1,1,1,1,1,0,1,0,1,0,0,0,1,1,0,0,1,1,1,0,0,0,0,0,0,0],"id":24,"left_children":[1,3,5,7,9,11,-1,13,-1,15,-1,-1,-1,17,19,-1,-1,21,23,25,-1,-1,-1,-1,-1,-1,-1],"loss_changes":[3.1864178E0,4.034134E0,1.3204439E0,4.8574214E0,8.127592E0,4.229021E-2,0E0,4.0268235E0,0E0,3.4885244E0,0E0,0E0,0E0,3.5368156E0,2.217053E0,0E0,0E0,3.5419803E0,1.4555533E0,2.190611E0,0E0,0E0,0E0,0E0,0E0,0E0,0E0],"parents":[2147483647,0,0,1,1,2,2,3,3,4,4,5,5,7,7,9,9,13,13,14,14,17,17,18,18,19,19],"right_children":[2,4,6,8,10,12,-1,14,-1,16,-1,-1,-1,18,20,-1,-1,22,24,26,-1,-1,-1,-1,-1,-1,-1],"split_conditions":[5E-1,5E-1,1.5E0,5E-1,5E-1,5E-1,4.1096997E-2,5E-1,-3.102557E-1,5E-1,-2.5293565E-1,-2.7357706E-1,-9.717618E-2,5E-1,5E-1,4.0374267E-1,-9.393245E-2,5E-1,1.5E0,5E-1,1.9711493E-1,5.662949E-2,-2.508831E-1,-2.6546028E-1,6.1842438E-2,2.8280089E-2,-1.7433104E-1],"split_indices":[2702,1074,4848,3791,662,2226,0,736,0,1075,0,0,0,1831,726,0,0,1387,4673,2826,0,0,0,0,0,0,0],"split_type":[0,0,0,0,0,0,0,0,0,0,0,0,0,0,0,0,0,0,0,0,0,0,0,0,0,0,0],"sum_hessian":[1.526495E2,1.4554268E2,7.1068354E0,1.3587143E2,9.671249E0,5.5111456E0,1.5956894E0,1.3244022E2,3.4312115E0,7.5854373E0,2.0858116E0,3.7636995E0,1.7474463E0,1.07893166E2,2.4547049E1,6.4578466E0,1.1275908E0,1.0286397E2,5.029197E0,2.3300133E1,1.2469155E0,1.0035243E2,2.5115407E0,3.8280368E0,1.2011602E0,6.1935E0,1.7106632E1],"tree_param":{"num_deleted":"0","num_feature":"5000","num_nodes":"27","size_leaf_vector":"0"}},{"base_weights":[-2.1102089E-3,-2.6675016E-2,8.202514E-1,-5.0612893E-2,1.0577662E0,1.0858228E0,-2.3273433E-2,-8.124155E-2,6.218271E-1,-1.0151525E-1,9.979663E-1,8.549809E-1,-2.8902444E-1,-1.2259767E-1,9.605869E-1,1.1255405E0,-1.1125631E-1,-1.4330044E-1,9.93624E-1],"categories":[],"categories_nodes":[],"categories_segments":[],"categories_sizes":[],"default_left":[1,1,1,1,0,0,0,1,1,1,0,1,0,1,0,0,0,0,0],"id":25,"left_children":[1,3,5,7,-1,-1,-1,9,11,13,-1,15,-1,17,-1,-1,-1,-1,-1],"loss_changes":[3.06974E0,3.8816893E0,1.0126419E0,3.0418174E0,0E0,0E0,0E0,3.1599522E0,1.6153388E0,3.2106087E0,0E0,1.5322886E0,0E0,3.2926598E0,0E0,0E0,0E0,0E0,0E0],"parents":[2147483647,0,0,1,1,2,2,3,3,7,7,8,8,9,9,11,11,13,13],"right_children":[2,4,6,8,-1,-1,-1,10,12,14,-1,16,-1,18,-1,-1,-1,-1,-1],"split_conditions":[5E-1,5E-1,5E-1,5E-1,3.1732988E-1,3.2574686E-1,-6.98203E-3,5E-1,5E-1,5E-1,2.993899E-1,5E-1,-8.670734E-2,5E-1,2.881761E-1,3.3766216E-1,-3.3376895E-2,-4.2990133E-2,2.980872E-1],"split_indices":[2433,1645,1810,1445,0,0,0,2646,4766,3054,0,3160,0,3490,0,0,0,0,0],"split_type":[0,0,0,0,0,0,0,0,0,0,0,0,0,0,0,0,0,0,0],"sum_hessian":[1.4987553E2,1.4646794E2,3.407589E0,1.4423738E2,2.2305577E0,2.3731823E0,1.0344065E0,1.3879468E2,5.442709E0,1.3712462E2,1.6700504E0,4.3822966E0,1.0604124E0,1.3532307E2,1.8015531E0,3.2948298E0,1.0874667E0,1.3371466E2,1.6084106E0],"tree_param":{"num_deleted":"0","num_feature":"5000","num_nodes":"19","size_leaf_vector":"0"}},{"base_weights":[1.0453963E-2,-1.5335886E-2,8.082693E-1,-4.318299E-2,7.243547E-1,9.689195E-1,1.1051067E-1,-6.896842E-3,-7.1620345E-1,1.3090609E0,-5.558557E-1,2.4344116E-2,-8.756956E-1,-8.8706565E-1,1.1309247E-2,1.291739E-1,-2.1672302E-1,3.4464082E-1,-8.271512E-2,-3.3268353E-1,1.0047313E0],"categories":[],"categories_nodes":[],"categories_segments":[],"categories_sizes":[],"default_left":[1,1,1,1,1,0,0,1,1,0,0,1,0,0,0,1,1,0,0,0,0],"id":26,"left_children":[1,3,5,7,9,-1,-1,11,13,-1,-1,15,-1,-1,-1,17,19,-1,-1,-1,-1],"loss_changes":[3.0753994E0,3.0218594E0,4.175427E-1,3.4351063E0,4.7127438E0,0E0,0E0,3.6764364E0,9.045768E-1,0E0,0E0,3.3376036E0,0E0,0E0,0E0,4.2242155E0,6.009003E0,0E0,0E0,0E0,0E0],"parents":[2147483647,0,0,1,1,2,2,3,3,4,4,7,7,8,8,11,11,15,15,16,16],"right_children":[2,4,6,8,10,-1,-1,12,14,-1,-1,16,-1,-1,-1,18,20,-1,-1,-1,-1],"split_conditions":[5E-1,5E-1,5E-1,5E-1,5E-1,2.9067588E-1,3.3153202E-2,5E-1,5E-1,3.927183E-1,-1.6675672E-1,5E-1,-2.627087E-1,-2.6611972E-1,3.3927744E-3,5E-1,5E-1,1.0339225E-1,-2.4814537E-2,-9.9805064E-2,3.014194E-1],"split_indices":[1466,1088,2601,3721,444,0,0,1303,1882,0,0,2226,0,0,0,4673,726,0,0,0,0],"split_type":[0,0,0,0,0,0,0,0,0,0,0,0,0,0,0,0,0,0,0,0,0],"sum_hessian":[1.4786629E2,1.4418616E2,3.6801245E0,1.398624E2,4.3237743E0,2.6755059E0,1.0046186E0,1.3366599E2,6.196404E0,2.952674E0,1.3711007E0,1.299646E2,3.701391E0,4.8403063E0,1.3560976E0,9.090016E1,3.9064434E1,4.475893E1,4.614123E1,3.6341896E1,2.7225373E0],"tree_param":{"num_deleted":"0","num_feature":"5000","num_nodes":"21","size_leaf_vector":"0"}},{"base_weights":[8.914848E-3,3.4391645E-2,-7.5046736E-1,6.0998205E-2,-6.9645137E-1,4.060092E-2,1.1431012E0,-8.062981E-1,-1.2838976E-1,1.2350608E-1,-2.3190403E-1,8.110432E-2,1.1565089E0,-3.2600045E-1,4.765456E-1,1.15710706E-1,-7.668198E-1,-3.9076006E-1,6.6778606E-1,8.4829634E-1,-3.537815E-1],"categories":[],"categories_nodes":[],"categories_segments":[],"categories_sizes":[],"default_left":[1,1,0,1,1,1,0,0,0,1,1,1,0,1,1,0,0,0,0,0,0],"id":27,"left_children":[1,3,-1,5,7,9,-1,-1,-1,11,13,15,-1,17,19,-1,-1,-1,-1,-1,-1],"loss_changes":[2.8559756E0,2.8133276E0,0E0,3.008549E0,2.1383715E-1,3.1211607E0,0E0,0E0,0E0,4.531908E0,2.3071012E0,3.0969887E0,0E0,2.1329322E0,1.5936875E0,0E0,0E0,0E0,0E0,0E0,0E0],"parents":[2147483647,0,0,1,1,3,3,4,4,5,5,9,9,10,10,11,11,13,13,14,14],"right_children":[2,4,-1,6,8,10,-1,-1,-1,12,14,16,-1,18,20,-1,-1,-1,-1,-1,-1],"split_conditions":[5E-1,5E-1,-2.2514021E-1,5E-1,3.5E0,1.5E0,3.4293038E-1,-2.4188943E-1,-3.851693E-2,5E-1,5E-1,5E-1,3.4695268E-1,5E-1,5E-1,3.4713212E-2,-2.3004594E-1,-1.1722802E-1,2.0033583E-1,2.5448892E-1,-1.0613445E-1],"split_indices":[1683,3577,0,897,2826,2989,0,0,0,1416,1312,3791,0,577,2418,0,0,0,0,0,0],"split_type":[0,0,0,0,0,0,0,0,0,0,0,0,0,0,0,0,0,0,0,0,0],"sum_hessian":[1.4528731E2,1.4149495E2,3.7923555E0,1.3740906E2,4.085881E0,1.358852E2,1.5238708E0,3.0723853E0,1.0134959E0,1.04607E2,3.1278189E1,1.0151848E2,3.0885243E0,2.8087448E1,3.190741E0,9.836735E1,3.1511357E0,2.6938791E1,1.1486567E0,2.1890342E0,1.001707E0],"tree_param":{"num_deleted":"0","num_feature":"5000","num_nodes":"21","size_leaf_vector":"0"}},{"base_weights":[6.8614E-3,-1.5359683E-2,8.301856E-1,3.0002201E-2,-6.1669964E-1,6.2644176E-2,-6.267607E-1,-9.4577336E-1,4.0150473E-1,8.429249E-2,-8.724766E-1,-6.895789E-1,-1.5033466E-1,-2.0232178E-1,8.240083E-1,1.165305E-1,-5.8236206E-1,-8.0750847E-1,-2.2149807E-1,6.347293E-2,6.709218E-1,9.091052E-2,-8.6950296E-1],"categories":[],"categories_nodes":[],"categories_segments":[],"categories_sizes":[],"default_left":[1,1,0,1,1,1,1,0,1,1,0,1,0,0,0,1,1,0,0,0,0,0,0],"id":28,"left_children":[1,3,-1,5,7,9,11,-1,13,15,-1,17,-1,-1,-1,19,21,-1,-1,-1,-1,-1,-1],"loss_changes":[2.6473942E0,3.870279E0,0E0,2.874529E0,3.7139552E0,2.6425023E0,8.646178E-2,0E0,9.658813E-1,2.753063E0,0E0,1.1557722E-1,0E0,0E0,0E0,3.4875197E0,1.2254505E0,0E0,0E0,0E0,0E0,0E0,0E0],"parents":[2147483647,0,0,1,1,3,3,4,4,5,5,6,6,8,8,9,9,11,11,15,15,16,16],"right_children":[2,4,-1,6,8,10,12,-1,14,16,-1,18,-1,-1,-1,20,22,-1,-1,-1,-1,-1,-1],"split_conditions":[5E-1,5E-1,2.4905568E-1,5E-1,1.5E0,5E-1,1.5E0,-2.8373203E-1,5E-1,5E-1,-2.6174298E-1,5E-1,-4.51004E-2,-6.069654E-2,2.472025E-1,5E-1,5E-1,-2.4225254E-1,-6.6449426E-2,1.904188E-2,2.0127656E-1,2.7273156E-2,-2.608509E-1],"split_indices":[257,903,0,2702,4673,4745,4848,0,3519,3418,0,2226,0,0,0,3704,4673,0,0,0,0,0,0],"split_type":[0,0,0,0,0,0,0,0,0,0,0,0,0,0,0,0,0,0,0,0,0,0,0],"sum_hessian":[1.4300769E2,1.4020497E2,2.8027136E0,1.3125398E2,8.950994E0,1.25901146E2,5.3528347E0,6.8184676E0,2.1325262E0,1.2394172E2,1.9594265E0,4.333986E0,1.0188487E0,1.0924182E0,1.040108E0,1.1901176E2,4.929958E0,2.8825908E0,1.4513952E0,1.09633835E2,9.377927E0,1.6782593E0,3.2516987E0],"tree_param":{"num_deleted":"0","num_feature":"5000","num_nodes":"23","size_leaf_vector":"0"}},{"base_weights":[-2.7777243E-4,3.1808134E-2,-5.705826E-1,5.8836774E-3,9.044898E-1,-8.2997006E-1,3.2214907E-1,4.1122086E-2,-5.7440174E-1,-1.066551E0,-2.2221267E-2,6.415E-2,-8.01302E-1,1.04575925E-1,-7.234788E-1,9.145722E-2,-6.724083E-1,-8.407645E-1,-5.2720424E-2,1.1383503E-1,-7.999262E-1],"categories":[],"categories_nodes":[],"categories_segments":[],"categories_sizes":[],"default_left":[1,1,1,1,0,1,0,1,1,0,0,1,0,0,1,1,0,0,0,0,0],"id":29,"left_children":[1,3,5,7,-1,9,-1,11,13,-1,-1,15,-1,-1,17,19,-1,-1,-1,-1,-1],"loss_changes":[2.6025972E0,3.0412145E0,2.0216181E0,2.7183495E0,0E0,1.1514931E0,0E0,2.4796298E0,8.460717E-1,0E0,0E0,2.5307407E0,0E0,0E0,4.5659137E-1,2.4699214E0,0E0,0E0,0E0,0E0,0E0],"parents":[2147483647,0,0,1,1,2,2,3,3,5,5,7,7,8,8,11,11,14,14,15,15],"right_children":[2,4,6,8,-1,10,-1,12,14,-1,-1,16,-1,-1,18,20,-1,-1,-1,-1,-1],"split_conditions":[5E-1,5E-1,5E-1,5E-1,2.7134696E-1,3.5E0,9.664472E-2,5E-1,5E-1,-3.199653E-1,-6.6663804E-3,5E-1,-2.4039061E-1,3.1372778E-2,5.5E0,5E-1,-2.0172249E-1,-2.5222936E-1,-1.5816128E-2,3.415051E-2,-2.3997788E-1],"split_indices":[650,1466,1626,857,0,4257,0,1387,2826,0,0,2765,0,0,3979,4571,0,0,0,0,0],"split_type":[0,0,0,0,0,0,0,0,0,0,0,0,0,0,0,0,0,0,0,0,0],"sum_hessian":[1.4023633E2,1.3366068E2,6.5756536E0,1.3078232E2,2.8783634E0,5.1496897E0,1.4259639E0,1.24171036E2,6.6112757E0,3.73527E0,1.4144197E0,1.21766365E2,2.4046686E0,1.2439889E0,5.3672867E0,1.182579E2,3.5084715E0,4.352734E0,1.0145527E0,1.16212715E2,2.0451775E0],"tree_param":{"num_deleted":"0","num_feature":"5000","num_nodes":"21","size_leaf_vector":"0"}},{"base_weights":[-7.5820796E-3,-2.4193475E-2,1.0645709E0,-4.0328823E-2,1.039643E0,-6.2332515E-2,7.7107984E-1,-8.512118E-2,7.5269014E-1,-1.0775672E-1,7.8406394E-1,-1.3209891E-1,7.5574523E-1],"categories":[],"categories_nodes":[],"categories_segments":[],"categories_sizes":[],"default_left":[1,1,0,1,0,1,0,1,0,1,0,0,0],"id":30,"left_children":[1,3,-1,5,-1,7,-1,9,-1,11,-1,-1,-1],"loss_changes":[2.509664E0,2.4161956E0,0E0,2.49787E0,0E0,2.562472E0,0E0,2.6767082E0,0E0,2.8174596E0,0E0,0E0,0E0],"parents":[2147483647,0,0,1,1,3,3,5,5,7,7,9,9],"right_children":[2,4,-1,6,-1,8,-1,10,-1,12,-1,-1,-1],"split_conditions":[5E-1,5E-1,3.1937128E-1,5E-1,3.1189293E-1,5E-1,2.3132396E-1,5E-1,2.2580706E-1,5E-1,2.352192E-1,-3.9629675E-2,2.2672358E-1],"split_indices":[895,4503,0,4605,0,233,0,1265,0,2639,0,0,0],"split_type":[0,0,0,0,0,0,0,0,0,0,0,0,0],"sum_hessian":[1.384674E2,1.3731732E2,1.1500905E0,1.3621344E2,1.1038761E0,1.3351596E2,2.6974914E0,1.307555E2,2.760465E0,1.2829054E2,2.4649496E0,1.2559697E2,2.6935697E0],"tree_param":{"num_deleted":"0","num_feature":"5000","num_nodes":"13","size_leaf_vector":"0"}},{"base_weights":[7.24715E-3,2.9688528E-2,-7.6386184E-1,-1.6261393E-1,1.3208902E-1,-2.179805E-1,7.8649616E-1,2.9454392E-1,-1.5831432E-1,-2.7576876E-1,7.3471737E-1,1.8547906E-1,8.6999214E-1,-3.243296E-1,3.8857475E-1,-3.2819268E-1,8.9159876E-1,1.2146752E-1,1.073984E0,1.096013E0,-2.0862292E-1,-5.150217E-1,3.2829833E-1,6.188599E-1,-3.5486537E-1,-3.864866E-1,6.798223E-1,2.0299837E-1,-5.197196E-1,1.3174822E0,-1.4887521E-2,-6.347042E-1,7.205896E-1,7.075978E-1,-3.5722604E-1,7.60497E-1,-4.800158E-2],"categories":[],"categories_nodes":[],"categories_segments":[],"categories_sizes":[],"default_left":[1,1,0,1,1,1,0,1,1,1,0,1,1,1,1,1,0,1,0,1,0,1,1,1,0,0,0,0,0,0,0,0,0,0,0,0,0],"id":31,"left_children":[1,3,-1,5,7,9,-1,11,13,15,-1,17,19,21,23,25,-1,27,-1,29,-1,31,33,35,-1,-1,-1,-1,-1,-1,-1,-1,-1,-1,-1,-1,-1],"loss_changes":[2.3784854E0,2.6454043E0,0E0,2.628017E0,4.1746964E0,2.677574E0,0E0,3.382197E0,3.0349815E0,2.9309082E0,0E0,2.6413817E0,2.3557386E0,3.2957478E0,1.5748743E0,2.7300577E0,0E0,2.5409765E0,0E0,1.8337011E0,0E0,3.3901377E0,1.8887317E0,6.417928E-1,0E0,0E0,0E0,0E0,0E0,0E0,0E0,0E0,0E0,0E0,0E0,0E0,0E0],"parents":[2147483647,0,0,1,1,3,3,4,4,5,5,7,7,8,8,9,9,11,11,12,12,13,13,14,14,15,15,17,17,19,19,21,21,22,22,23,23],"right_children":[2,4,-1,6,8,10,-1,12,14,16,-1,18,20,22,24,26,-1,28,-1,30,-1,32,34,36,-1,-1,-1,-1,-1,-1,-1,-1,-1,-1,-1,-1,-1],"split_conditions":[5E-1,5E-1,-2.2915857E-1,5E-1,2.5E0,5E-1,2.3594886E-1,5E-1,5E-1,5E-1,2.2041522E-1,5E-1,1.5E0,5E-1,1.5E0,5E-1,2.6747963E-1,5E-1,3.2219523E-1,5E-1,-6.258688E-2,5E-1,1.5E0,5E-1,-1.0645962E-1,-1.1594598E-1,2.0394671E-1,6.0899515E-2,-1.5591589E-1,3.952447E-1,-4.4662566E-3,-1.9041125E-1,2.1617688E-1,2.1227935E-1,-1.0716782E-1,2.281491E-1,-1.4400475E-2],"split_indices":[3094,2076,0,1604,3979,478,0,754,3890,3645,0,2475,1546,2780,4968,2001,0,590,0,1626,0,571,0,4400,0,0,0,0,0,0,0,0,0,0,0,0,0],"split_type":[0,0,0,0,0,0,0,0,0,0,0,0,0,0,0,0,0,0,0,0,0,0,0,0,0,0,0,0,0,0,0,0,0,0,0,0,0],"sum_hessian":[1.3513647E2,1.3224916E2,2.887313E0,4.574832E1,8.650084E1,4.3954556E1,1.7937679E0,5.5461044E1,3.1039793E1,4.211076E1,1.8437935E0,4.7735954E1,7.7250896E0,2.4123688E1,6.9161043E0,4.09889E1,1.1218612E0,4.55883E1,2.1476574E0,6.3734255E0,1.3516638E0,1.8831997E1,5.291692E0,5.408394E0,1.5077105E0,3.9330963E1,1.6579385E0,4.1051723E1,4.536574E0,5.158973E0,1.2144523E0,1.761237E1,1.2196271E0,3.3860157E0,1.9056759E0,4.3451085E0,1.0632855E0],"tree_param":{"num_deleted":"0","num_feature":"5000","num_nodes":"37","size_leaf_vector":"0"}},{"base_weights":[1.4104755E-2,3.42027E-2,-7.814747E-1,5.4715317E-2,-7.755784E-1,7.458465E-2,-8.078109E-1,9.660579E-2,-7.369228E-1,1.2089416E-1,-6.8052155E-1,1.4535347E-1,-6.630615E-1],"categories":[],"categories_nodes":[],"categories_segments":[],"categories_sizes":[],"default_left":[1,1,0,1,0,1,0,1,0,1,0,0,0],"id":32,"left_children":[1,3,-1,5,-1,7,-1,9,-1,11,-1,-1,-1],"loss_changes":[2.1464384E0,2.2061563E0,0E0,2.2534869E0,0E0,2.323033E0,0E0,2.4145827E0,0E0,2.4102168E0,0E0,0E0,0E0],"parents":[2147483647,0,0,1,1,3,3,5,5,7,7,9,9],"right_children":[2,4,-1,6,-1,8,-1,10,-1,12,-1,-1,-1],"split_conditions":[5E-1,5E-1,-2.3444243E-1,5E-1,-2.3267353E-1,5E-1,-2.4234328E-1,5E-1,-2.2107685E-1,5E-1,-2.0415647E-1,4.3606043E-2,-1.9891846E-1],"split_indices":[3192,3177,0,3920,0,4638,0,1683,0,4661,0,0,0],"split_type":[0,0,0,0,0,0,0,0,0,0,0,0,0],"sum_hessian":[1.3156877E2,1.292604E2,2.3083696E0,1.2697639E2,2.2840152E0,1.25010155E2,1.9662325E0,1.2256517E2,2.4449844E0,1.1966946E2,2.8957188E0,1.1683869E2,2.8307614E0],"tree_param":{"num_deleted":"0","num_feature":"5000","num_nodes":"13","size_leaf_vector":"0"}},{"base_weights":[-1.9507423E-3,-1.930054E-2,9.158999E-1,-3.9652087E-2,7.918687E-1,-5.94238E-2,8.332264E-1,-8.550305E-2,6.0681087E-1,-1.07759535E-1,7.3823535E-1,-1.7161813E-1,8.726477E-1,-1.35439E-1,5.825066E-1],"categories":[],"categories_nodes":[],"categories_segments":[],"categories_sizes":[],"default_left":[1,1,0,1,0,1,0,1,1,1,0,0,0,0,0],"id":33,"left_children":[1,3,-1,5,-1,7,-1,9,11,13,-1,-1,-1,-1,-1],"loss_changes":[2.0997283E0,2.1659338E0,0E0,2.2428105E0,0E0,2.2273088E0,0E0,2.3046007E0,1.151315E0,2.3533878E0,0E0,0E0,0E0,0E0,0E0],"parents":[2147483647,0,0,1,1,3,3,5,5,7,7,8,8,9,9],"right_children":[2,4,-1,6,-1,8,-1,10,12,14,-1,-1,-1,-1,-1],"split_conditions":[5E-1,5E-1,2.7476996E-1,5E-1,2.3756061E-1,5E-1,2.4996792E-1,5E-1,5E-1,5E-1,2.2147061E-1,-5.148544E-2,2.6179433E-1,-4.06317E-2,1.7475198E-1],"split_indices":[2005,3909,0,1267,0,3921,0,265,2076,1088,0,0,0,0,0],"split_type":[0,0,0,0,0,0,0,0,0,0,0,0,0,0,0],"sum_hessian":[1.2974496E2,1.2829875E2,1.446213E0,1.2608647E2,2.2122846E0,1.24205E2,1.881466E0,1.2036507E2,3.839937E0,1.18044815E2,2.3202553E0,1.0677506E0,2.7721863E0,1.1426654E2,3.7782671E0],"tree_param":{"num_deleted":"0","num_feature":"5000","num_nodes":"15","size_leaf_vector":"0"}},{"base_weights":[1.0139395E-2,-6.292682E-3,9.314594E-1,2.674127E-2,-6.477033E-1,5.2709617E-2,-7.532451E-1,-8.161404E-1,1.0475688E-1,7.5949244E-2,-7.395142E-1,9.7779356E-2,-7.069981E-1,1.2131833E-1,-6.5894794E-1],"categories":[],"categories_nodes":[],"categories_segments":[],"categories_sizes":[],"default_left":[1,1,0,1,1,1,0,0,0,1,0,1,0,0,0],"id":34,"left_children":[1,3,-1,5,7,9,-1,-1,-1,11,-1,13,-1,-1,-1],"loss_changes":[1.9470922E0,2.7076418E0,0E0,2.5049987E0,8.787334E-1,2.2420306E0,0E0,0E0,0E0,2.056045E0,0E0,2.1101246E0,0E0,0E0,0E0],"parents":[2147483647,0,0,1,1,3,3,4,4,5,5,9,9,11,11],"right_children":[2,4,-1,6,8,10,-1,-1,-1,12,-1,14,-1,-1,-1],"split_conditions":[5E-1,5E-1,2.7943784E-1,1.5E0,5E-1,5E-1,-2.2597355E-1,-2.4484213E-1,3.1427063E-2,5E-1,-2.2185425E-1,5E-1,-2.1209945E-1,3.63955E-2,-1.9768439E-1],"split_indices":[2366,3927,0,4987,2015,513,0,0,0,3446,0,3241,0,0,0],"split_type":[0,0,0,0,0,0,0,0,0,0,0,0,0,0,0],"sum_hessian":[1.2722544E2,1.25971855E2,1.2535838E0,1.2071319E2,5.2586665E0,1.1772612E2,2.9870725E0,4.227678E0,1.0309887E0,1.1524944E2,2.4766738E0,1.129746E2,2.27484E0,1.1038075E2,2.5938547E0],"tree_param":{"num_deleted":"0","num_feature":"5000","num_nodes":"15","size_leaf_vector":"0"}},{"base_weights":[-2.4404019E-4,-1.9770587E-2,7.5983363E-1,1.3238046E-2,-5.1897854E-1,4.4238605E-2,-5.848065E-1,-8.4648234E-1,3.2024154E-1,9.573585E-2,-3.5441065E-1,-8.3258307E-1,1.545527E-1,1.3170661E-1,-5.385218E-1,-5.690772E-1,1.280897E-1,-9.9007034E-1,-2.648971E-1,8.224064E-2,7.6515555E-1,-7.2072726E-1,6.387632E-2,2.6911592E-2,-7.2023094E-1,3.9536208E-1,-3.435777E-1],"categories":[],"categories_nodes":[],"categories_segments":[],"categories_sizes":[],"default_left":[1,1,0,1,1,1,1,0,0,1,1,1,0,1,1,1,1,0,0,0,0,0,0,0,0,0,0],"id":35,"left_children":[1,3,-1,5,7,9,11,-1,-1,13,15,17,-1,19,21,23,25,-1,-1,-1,-1,-1,-1,-1,-1,-1,-1],"loss_changes":[1.9004419E0,2.06381E0,0E0,2.2146943E0,2.4057798E0,2.3572903E0,1.2074482E0,0E0,0E0,2.3755102E0,1.435937E0,1.4604783E-1,0E0,2.9575346E0,6.6265E-1,8.564093E-1,7.495569E-1,0E0,0E0,0E0,0E0,0E0,0E0,0E0,0E0,0E0,0E0],"parents":[2147483647,0,0,1,1,3,3,4,4,5,5,6,6,9,9,10,10,11,11,13,13,14,14,15,15,16,16],"right_children":[2,4,-1,6,8,10,12,-1,-1,14,16,18,-1,20,22,24,26,-1,-1,-1,-1,-1,-1,-1,-1,-1,-1],"split_conditions":[5E-1,5E-1,2.279501E-1,5E-1,1.5E0,1.5E0,5E-1,-2.5394472E-1,9.6072465E-2,1.5E0,5E-1,1.5E0,4.6365812E-2,5E-1,5E-1,5E-1,3.5E0,-2.9702112E-1,-7.946914E-2,2.4672193E-2,2.2954668E-1,-2.1621819E-1,1.9162897E-2,8.073478E-3,-2.160693E-1,1.1860863E-1,-1.0307332E-1],"split_indices":[257,903,0,3947,4673,3519,3704,0,0,444,267,2826,0,4168,2418,3979,2076,0,0,0,0,0,0,0,0,0,0],"split_type":[0,0,0,0,0,0,0,0,0,0,0,0,0,0,0,0,0,0,0,0,0,0,0,0,0,0,0],"sum_hessian":[1.2603534E2,1.2382816E2,2.2071812E0,1.1706131E2,6.7668476E0,1.121727E2,4.888616E0,4.8611436E0,1.9057043E0,1.0001294E2,1.2159756E1,3.5671077E0,1.3215084E0,9.539513E1,4.617815E0,8.291429E0,3.8683279E0,2.2099721E0,1.3571357E0,8.953331E1,5.8618183E0,3.394624E0,1.223191E0,1.8437209E0,6.447707E0,2.572428E0,1.2958997E0],"tree_param":{"num_deleted":"0","num_feature":"5000","num_nodes":"27","size_leaf_vector":"0"}},{"base_weights":[-4.735835E-3,-2.4844104E-2,7.459943E-1,-4.191748E-2,8.826964E-1,-7.164665E-2,4.940094E-1,-8.883928E-2,9.102425E-1,7.6023716E-1,-9.4347514E-2,-1.0945881E-1,7.0634514E-1,-1.311201E-1,6.944632E-1],"categories":[],"categories_nodes":[],"categories_segments":[],"categories_sizes":[],"default_left":[1,1,0,1,0,1,1,1,0,0,0,1,0,0,0],"id":36,"left_children":[1,3,-1,5,-1,7,9,11,-1,-1,-1,13,-1,-1,-1],"loss_changes":[1.9016991E0,1.9344993E0,0E0,1.965699E0,0E0,2.033347E0,1.0889496E0,1.9560161E0,0E0,0E0,0E0,2.051008E0,0E0,0E0,0E0],"parents":[2147483647,0,0,1,1,3,3,5,5,6,6,7,7,11,11],"right_children":[2,4,-1,6,-1,8,10,12,-1,-1,-1,14,-1,-1,-1],"split_conditions":[5E-1,5E-1,2.237983E-1,5E-1,2.6480892E-1,5E-1,5E-1,5E-1,2.7307275E-1,2.2807115E-1,-2.8304255E-2,5E-1,2.1190356E-1,-3.9336033E-2,2.0833896E-1],"split_indices":[4592,984,0,571,0,1960,1957,2647,0,0,0,233,0,0,0],"split_type":[0,0,0,0,0,0,0,0,0,0,0,0,0,0,0],"sum_hessian":[1.2374694E2,1.2146053E2,2.2864077E0,1.20153915E2,1.306619E0,1.1465977E2,5.4941454E0,1.1358053E2,1.0792435E0,3.5814335E0,1.9127119E0,1.11550316E2,2.0302083E0,1.0943845E2,2.1118672E0],"tree_param":{"num_deleted":"0","num_feature":"5000","num_nodes":"15","size_leaf_vector":"0"}},{"base_weights":[8.4374165E-3,2.8363373E-2,-7.1717304E-1,4.851299E-2,-6.91969E-1,2.1529002E-2,7.646386E-1,1.34318E-3,8.413735E-1,8.96676E-1,2.1940596E-1,-2.0387502E-2,7.2725415E-1,-4.152375E-2,8.869938E-1,8.779714E-1,2.401939E-1],"categories":[],"categories_nodes":[],"categories_segments":[],"categories_sizes":[],"default_left":[1,1,0,1,0,1,1,1,0,0,0,1,1,0,0,0,0],"id":37,"left_children":[1,3,-1,5,-1,7,9,11,-1,-1,-1,13,15,-1,-1,-1,-1],"loss_changes":[1.7938704E0,1.780338E0,0E0,2.263892E0,0E0,1.8979051E0,1.09666586E-1,1.7972678E0,0E0,0E0,0E0,2.1595855E0,3.2211065E-2,0E0,0E0,0E0,0E0],"parents":[2147483647,0,0,1,1,3,3,5,5,6,6,7,7,11,11,12,12],"right_children":[2,4,-1,6,-1,8,10,12,-1,-1,-1,14,16,-1,-1,-1,-1],"split_conditions":[5E-1,5E-1,-2.1515192E-1,5E-1,-2.075907E-1,5E-1,5E-1,5E-1,2.5241205E-1,2.6900283E-1,6.582179E-2,5E-1,2.5E0,-1.2457126E-2,2.6609817E-1,2.6339144E-1,7.205817E-2],"split_indices":[3094,3152,0,3649,0,2590,4848,2433,0,0,0,1646,282,0,0,0,0],"split_type":[0,0,0,0,0,0,0,0,0,0,0,0,0,0,0,0,0],"sum_hessian":[1.21663574E2,1.193471E2,2.3164744E0,1.1700676E2,2.3403394E0,1.1375063E2,3.2561207E0,1.1199479E2,1.7558444E0,2.102411E0,1.1537097E0,1.0968326E2,2.311535E0,1.08119E2,1.5642514E0,1.1523541E0,1.1591808E0],"tree_param":{"num_deleted":"0","num_feature":"5000","num_nodes":"17","size_leaf_vector":"0"}},{"base_weights":[1.21781835E-2,-4.1871676E-3,8.928982E-1,-2.2716753E-2,7.24007E-1,-3.7879255E-2,8.636094E-1,1.7984822E-2,-3.1292617E-1,1.2797937E-1,-1.6690317E-1,-5.8890814E-1,6.0010706E-3,3.36309E-1,-1.0853017E-1,-6.270755E-2,-7.088046E-1,-7.514039E-1,-1.4404929E-1,4.5442387E-1,-3.2849526E-1],"categories":[],"categories_nodes":[],"categories_segments":[],"categories_sizes":[],"default_left":[1,1,0,1,0,1,0,1,1,1,1,1,1,0,0,0,0,0,0,0,0],"id":38,"left_children":[1,3,-1,5,-1,7,-1,9,11,13,15,17,19,-1,-1,-1,-1,-1,-1,-1,-1],"loss_changes":[1.748972E0,1.6338881E0,0E0,1.6167105E0,0E0,1.800933E0,0E0,2.0156238E0,1.7444896E0,3.0938258E0,2.0454125E0,6.590047E-1,1.6740943E0,0E0,0E0,0E0,0E0,0E0,0E0,0E0,0E0],"parents":[2147483647,0,0,1,1,3,3,5,5,7,7,8,8,9,9,10,10,11,11,12,12],"right_children":[2,4,-1,6,-1,8,-1,10,12,14,16,18,20,-1,-1,-1,-1,-1,-1,-1,-1],"split_conditions":[5E-1,5E-1,2.6786947E-1,5E-1,2.1720211E-1,5E-1,2.5908282E-1,1.5E0,2.5E0,5E-1,5E-1,5E-1,1.5E0,1.008927E-1,-3.2559052E-2,-1.8812265E-2,-2.1264139E-1,-2.2542119E-1,-4.3214787E-2,1.3632716E-1,-9.854858E-2],"split_indices":[3211,1265,0,895,0,2418,0,282,282,0,2536,444,2826,0,0,0,0,0,0,0,0],"split_type":[0,0,0,0,0,0,0,0,0,0,0,0,0,0,0,0,0,0,0,0,0],"sum_hessian":[1.2008499E2,1.1887139E2,1.213597E0,1.1686642E2,2.004972E0,1.1584196E2,1.0244616E0,9.706246E1,1.8779497E1,6.1050045E1,3.6012417E1,9.613756E0,9.165741E0,3.2234386E1,2.8815657E1,3.1140505E1,4.87191E0,6.536905E0,3.0768514E0,3.762814E0,5.402927E0],"tree_param":{"num_deleted":"0","num_feature":"5000","num_nodes":"21","size_leaf_vector":"0"}},{"base_weights":[1.0871058E-2,2.8985512E-2,-7.8516585E-1,4.846702E-2,-7.4044836E-1,6.850088E-2,-7.2060907E-1,8.827874E-2,-7.376434E-1,1.069044E-1,-7.5351346E-1,1.3751197E-1,-4.469654E-1],"categories":[],"categories_nodes":[],"categories_segments":[],"categories_sizes":[],"default_left":[1,1,0,1,0,1,0,1,0,1,0,0,0],"id":39,"left_children":[1,3,-1,5,-1,7,-1,9,-1,11,-1,-1,-1],"loss_changes":[1.7468622E0,1.8027178E0,0E0,1.8350568E0,0E0,1.8806096E0,0E0,1.8371346E0,0E0,1.9344718E0,0E0,0E0,0E0],"parents":[2147483647,0,0,1,1,3,3,5,5,7,7,9,9],"right_children":[2,4,-1,6,-1,8,-1,10,-1,12,-1,-1,-1],"split_conditions":[5E-1,5E-1,-2.3554976E-1,5E-1,-2.2213452E-1,5E-1,-2.1618272E-1,5E-1,-2.2129303E-1,5E-1,-2.2605404E-1,4.1253593E-2,-1.3408962E-1],"split_indices":[4745,1387,0,3793,0,1676,0,780,0,650,0,0,0],"split_type":[0,0,0,0,0,0,0,0,0,0,0,0,0],"sum_hessian":[1.1856525E2,1.16869385E2,1.6958681E0,1.1489728E2,1.9721066E0,1.1286808E2,2.029198E0,1.1103446E2,1.8336157E0,1.0948498E2,1.5494821E0,1.0446389E2,5.0210867E0],"tree_param":{"num_deleted":"0","num_feature":"5000","num_nodes":"13","size_leaf_vector":"0"}},{"base_weights":[-3.931601E-3,-3.5692852E-2,3.9885032E-1,-1.0425221E-2,-8.03545E-1,8.573053E-1,-7.471693E-1,1.6138164E-2,-7.4840856E-1,2.027456E-1,1.0699295E0,-3.3840124E-2,3.4698647E-1,-5.6327578E-2,8.4660196E-1,5.019964E-1,-4.714193E-1,-2.4195783E-2,-7.5108486E-1,2.2181673E-1,8.858636E-1],"categories":[],"categories_nodes":[],"categories_segments":[],"categories_sizes":[],"default_left":[1,1,1,1,0,1,0,1,0,0,0,1,1,1,0,1,0,0,0,0,0],"id":40,"left_children":[1,3,5,7,-1,9,-1,11,-1,-1,-1,13,15,17,-1,19,-1,-1,-1,-1,-1],"loss_changes":[1.531938E0,2.1429577E0,5.239588E0,2.1363695E0,0E0,7.180476E-1,0E0,1.7574939E0,0E0,0E0,0E0,1.8817227E0,2.005663E0,2.0191813E0,0E0,1.1165164E0,0E0,0E0,0E0,0E0,0E0],"parents":[2147483647,0,0,1,1,2,2,3,3,5,5,7,7,11,11,12,12,13,13,15,15],"right_children":[2,4,6,8,-1,10,-1,12,-1,-1,-1,14,16,18,-1,20,-1,-1,-1,-1,-1],"split_conditions":[5E-1,5E-1,5E-1,5E-1,-2.410635E-1,5E-1,-2.241508E-1,5E-1,-2.2452258E-1,6.0823683E-2,3.2097885E-1,5E-1,5E-1,5E-1,2.539806E-1,5E-1,-1.414258E-1,-7.258735E-3,-2.2532547E-1,6.6545025E-2,2.6575908E-1],"split_indices":[1074,3791,662,3577,0,1984,0,3890,0,0,0,3419,646,2172,0,1957,0,0,0,0,0],"split_type":[0,0,0,0,0,0,0,0,0,0,0,0,0,0,0,0,0,0,0,0,0],"sum_hessian":[1.1763664E2,1.0988322E2,7.753425E0,1.07363785E2,2.5194318E0,5.7179413E0,2.0354838E0,1.0457769E2,2.7860959E0,1.8809646E0,3.8369768E0,9.16332E1,1.29444895E1,9.0263794E1,1.3694124E0,1.1208217E1,1.7362726E0,8.72628E1,3.0009868E0,7.391271E0,3.816945E0],"tree_param":{"num_deleted":"0","num_feature":"5000","num_nodes":"21","size_leaf_vector":"0"}},{"base_weights":[-4.083181E-3,-2.2748714E-2,7.0227504E-1,-3.9321303E-2,7.8290296E-1,-5.782418E-2,7.029374E-1,-7.739739E-2,6.825006E-1,-2.4319803E-3,-3.3927032E-1,3.552609E-2,-6.0490626E-1,-4.7514817E-1,1.9060299E-1],"categories":[],"categories_nodes":[],"categories_segments":[],"categories_sizes":[],"default_left":[1,1,0,1,0,1,0,1,0,1,1,0,0,0,0],"id":41,"left_children":[1,3,-1,5,-1,7,-1,9,-1,11,13,-1,-1,-1,-1],"loss_changes":[1.5528716E0,1.5600325E0,0E0,1.5950401E0,0E0,1.6663514E0,0E0,2.146468E0,0E0,1.9892187E0,1.8427141E0,0E0,0E0,0E0,0E0],"parents":[2147483647,0,0,1,1,3,3,5,5,7,7,9,9,10,10],"right_children":[2,4,-1,6,-1,8,-1,10,-1,12,14,-1,-1,-1,-1],"split_conditions":[5E-1,5E-1,2.1068253E-1,5E-1,2.348709E-1,5E-1,2.1088123E-1,1.5E0,2.047502E-1,5E-1,5E-1,1.0657827E-2,-1.8147188E-1,-1.4254446E-1,5.71809E-2],"split_indices":[4605,2005,0,257,0,2639,0,0,0,903,4181,0,0,0,0],"split_type":[0,0,0,0,0,0,0,0,0,0,0,0,0,0,0],"sum_hessian":[1.155679E2,1.1353552E2,2.0323846E0,1.1217914E2,1.3563783E0,1.1035044E2,1.8286965E0,1.0838046E2,1.969982E0,8.5044395E1,2.3336063E1,8.088912E1,4.1552753E0,1.8655443E1,4.6806216E0],"tree_param":{"num_deleted":"0","num_feature":"5000","num_nodes":"15","size_leaf_vector":"0"}},{"base_weights":[2.3320396E-3,2.0713206E-2,-6.872125E-1,-8.487314E-4,7.9363304E-1,2.772445E-2,-5.4733425E-1,4.957079E-2,-6.6420734E-1,-6.706497E-1,-3.675918E-2,1.6598437E-2,5.51995E-1,4.062357E-2,-5.76094E-1,9.786825E-1,-4.2309385E-2],"categories":[],"categories_nodes":[],"categories_segments":[],"categories_sizes":[],"default_left":[1,1,0,1,0,1,1,1,0,0,0,1,1,0,0,0,0],"id":42,"left_children":[1,3,-1,5,-1,7,9,11,-1,-1,-1,13,15,-1,-1,-1,-1],"loss_changes":[1.4611571E0,1.8699857E0,0E0,1.7346855E0,0E0,1.6292022E0,3.2288456E-1,1.702101E0,0E0,0E0,0E0,1.4184252E0,1.6467508E0,0E0,0E0,0E0,0E0],"parents":[2147483647,0,0,1,1,3,3,5,5,6,6,7,7,11,11,12,12],"right_children":[2,4,-1,6,-1,8,10,12,-1,-1,-1,14,16,-1,-1,-1,-1],"split_conditions":[5E-1,5E-1,-2.0616376E-1,5E-1,2.3808992E-1,5E-1,5E-1,5E-1,-1.9926222E-1,-2.0119493E-1,-1.1027754E-2,5E-1,5E-1,1.2187072E-2,-1.728282E-1,2.9360476E-1,-1.2692816E-2],"split_indices":[4437,1466,0,2806,0,2769,1626,4877,0,0,0,2702,3519,0,0,0,0],"split_type":[0,0,0,0,0,0,0,0,0,0,0,0,0,0,0,0,0],"sum_hessian":[1.1315895E2,1.1116557E2,1.9933761E0,1.0912038E2,2.0451999E0,1.0460057E2,4.5198083E0,1.0229904E2,2.3015258E0,3.3880093E0,1.1317991E0,9.696838E1,5.330662E0,9.4086006E1,2.8823724E0,2.7264245E0,2.604237E0],"tree_param":{"num_deleted":"0","num_feature":"5000","num_nodes":"17","size_leaf_vector":"0"}},{"base_weights":[-1.0422501E-3,-1.8190483E-2,7.0604503E-1,7.779914E-3,-5.5950755E-1,-2.3320373E-2,4.276163E-1,-7.4418414E-1,7.422789E-2,-4.7449138E-2,6.8655026E-1,7.369031E-1,-5.4279166E-1,-7.858466E-2,4.2462412E-1,8.6046875E-1,1.7145686E-1,1.7946364E-1,9.2757124E-1,-1.1700161E-1,3.8969085E-1,7.864227E-1,-4.4252935E-1],"categories":[],"categories_nodes":[],"categories_segments":[],"categories_sizes":[],"default_left":[1,1,0,1,1,1,1,0,0,1,1,1,0,1,1,0,0,0,0,0,0,0,0],"id":43,"left_children":[1,3,-1,5,7,9,11,-1,-1,13,15,17,-1,19,21,-1,-1,-1,-1,-1,-1,-1,-1],"loss_changes":[1.3832985E0,1.5693587E0,0E0,1.409857E0,6.5330374E-1,1.7585455E0,2.634788E0,0E0,0E0,1.4795287E0,1.5500736E-1,4.787495E-1,0E0,1.7212639E0,2.3069582E0,0E0,0E0,0E0,0E0,0E0,0E0,0E0,0E0],"parents":[2147483647,0,0,1,1,3,3,4,4,5,5,6,6,9,9,10,10,11,11,13,13,14,14],"right_children":[2,4,-1,6,8,10,12,-1,-1,14,16,18,-1,20,22,-1,-1,-1,-1,-1,-1,-1,-1],"split_conditions":[5E-1,5E-1,2.1181352E-1,5E-1,1.5E0,5E-1,5E-1,-2.2325525E-1,2.2268368E-2,5E-1,1.5E0,5E-1,-1.628375E-1,5E-1,5E-1,2.5814062E-1,5.143706E-2,5.3839095E-2,2.7827138E-1,-3.5100482E-2,1.1690726E-1,2.3592682E-1,-1.3275881E-1],"split_indices":[3909,786,0,1074,4673,2514,662,0,0,2928,3979,1984,0,3704,4205,0,0,0,0,0,0,0,0],"split_type":[0,0,0,0,0,0,0,0,0,0,0,0,0,0,0,0,0,0,0,0,0,0,0],"sum_hessian":[1.1202447E2,1.1032319E2,1.7012763E0,1.06213104E2,4.110085E0,9.97671E1,6.446009E0,3.04768E0,1.0624051E0,9.738993E1,2.3771617E0,5.0705557E0,1.3754536E0,9.214599E1,5.2439427E0,1.2758635E0,1.1012983E0,1.7870762E0,3.2834797E0,8.585284E1,6.2931533E0,3.7658377E0,1.4781052E0],"tree_param":{"num_deleted":"0","num_feature":"5000","num_nodes":"23","size_leaf_vector":"0"}},{"base_weights":[5.523124E-3,2.8424306E-2,-5.3673786E-1,5.3020637E-3,6.6940796E-1,-2.4367288E-2,-7.3529917E-1,-2.6059322E-2,4.8109144E-1,-7.5140454E-2,3.425504E-1,6.66366E-1,-1.5920928E-1,-1.0381677E-1,6.117112E-1,6.323449E-1,-2.9811946E-1,8.5259753E-1,2.870236E-1,-1.2519373E-1,7.804104E-1,8.6143607E-1,9.15891E-2,7.6000607E-1,-1.3123024E-1,-6.783463E-1,4.563826E-1],"categories":[],"categories_nodes":[],"categories_segments":[],"categories_sizes":[],"default_left":[1,1,1,1,0,0,0,1,1,1,1,1,0,1,1,1,1,0,0,0,0,0,0,0,0,0,0],"id":44,"left_children":[1,3,5,7,-1,-1,-1,9,11,13,15,17,-1,19,21,23,25,-1,-1,-1,-1,-1,-1,-1,-1,-1,-1],"loss_changes":[1.395462E0,1.591009E0,4.4538486E-1,1.5770471E0,0E0,0E0,0E0,1.822522E0,8.8136435E-1,1.8059433E0,2.3886113E0,1.269772E-1,0E0,1.7190175E0,4.0045273E-1,9.2632556E-1,1.5633435E0,0E0,0E0,0E0,0E0,0E0,0E0,0E0,0E0,0E0,0E0],"parents":[2147483647,0,0,1,1,2,2,3,3,7,7,8,8,9,9,10,10,11,11,13,13,14,14,15,15,16,16],"right_children":[2,4,6,8,-1,-1,-1,10,12,14,16,18,-1,20,22,24,26,-1,-1,-1,-1,-1,-1,-1,-1,-1,-1],"split_conditions":[5E-1,5E-1,5E-1,5E-1,2.008224E-1,-7.3101865E-3,-2.2058976E-1,5E-1,5E-1,5E-1,5E-1,5E-1,-4.7762785E-2,1.5E0,1.5E0,5E-1,5E-1,2.5577927E-1,8.610708E-2,-3.755812E-2,2.3412313E-1,2.5843084E-1,2.7476732E-2,2.2800183E-1,-3.9369073E-2,-2.0350389E-1,1.3691479E-1],"split_indices":[3418,3696,4673,1312,0,0,0,4766,4798,1445,3955,1546,0,892,282,3160,3160,0,0,0,0,0,0,0,0,0,0],"split_type":[0,0,0,0,0,0,0,0,0,0,0,0,0,0,0,0,0,0,0,0,0,0,0,0,0,0,0],"sum_hessian":[1.1014182E2,1.06587906E2,3.5539205E0,1.0384999E2,2.7379153E0,1.3061725E0,2.247748E0,9.831485E1,5.5351386E0,8.7464874E1,1.0849975E1,4.261378E0,1.2737608E0,8.477437E1,2.6905105E0,7.479681E0,3.3702936E0,2.0214262E0,2.2399516E0,8.3611404E1,1.1629642E0,1.374403E0,1.3161075E0,6.412292E0,1.0673889E0,2.3080838E0,1.0622098E0],"tree_param":{"num_deleted":"0","num_feature":"5000","num_nodes":"27","size_leaf_vector":"0"}},{"base_weights":[1.2014186E-2,3.0678418E-2,-6.3278955E-1,4.754807E-2,-7.07289E-1,6.462568E-2,-7.018726E-1,8.249059E-2,-6.8689394E-1,1.0172908E-1,-6.499135E-1,1.2015633E-1,-7.016132E-1],"categories":[],"categories_nodes":[],"categories_segments":[],"categories_sizes":[],"default_left":[1,1,0,1,0,1,0,1,0,1,0,0,0],"id":45,"left_children":[1,3,-1,5,-1,7,-1,9,-1,11,-1,-1,-1],"loss_changes":[1.3341652E0,1.3672777E0,0E0,1.3977516E0,0E0,1.4560487E0,0E0,1.5132434E0,0E0,1.5785491E0,0E0,0E0,0E0],"parents":[2147483647,0,0,1,1,3,3,5,5,7,7,9,9],"right_children":[2,4,-1,6,-1,8,-1,10,-1,12,-1,-1,-1],"split_conditions":[5E-1,5E-1,-1.8983687E-1,5E-1,-2.1218671E-1,5E-1,-2.1056178E-1,5E-1,-2.0606819E-1,5E-1,-1.9497405E-1,3.60469E-2,-2.1048397E-1],"split_indices":[1683,4745,0,3920,0,4571,0,833,0,1302,0,0,0],"split_type":[0,0,0,0,0,0,0,0,0,0,0,0,0],"sum_hessian":[1.0824618E2,1.061267E2,2.119479E0,1.0466956E2,1.4571375E0,1.0323093E2,1.438635E0,1.017035E2,1.527431E0,9.993943E1,1.7640657E0,9.852976E1,1.4096693E0],"tree_param":{"num_deleted":"0","num_feature":"5000","num_nodes":"13","size_leaf_vector":"0"}},{"base_weights":[-3.7151873E-3,-1.8633693E-2,7.9426706E-1,-3.5029933E-2,7.0988303E-1,-5.329886E-2,6.459198E-1,7.125506E-2,-1.7535569E-1,-2.7007708E-2,5.200972E-1,-2.111926E-1,8.1705606E-1,-8.232705E-2,7.4268997E-1,1.9453527E-2,7.9693687E-1,-2.888482E-1,3.128717E-1],"categories":[],"categories_nodes":[],"categories_segments":[],"categories_sizes":[],"default_left":[1,1,0,1,0,1,0,1,1,1,1,1,0,0,0,0,0,0,0],"id":46,"left_children":[1,3,-1,5,-1,7,-1,9,11,13,15,17,-1,-1,-1,-1,-1,-1,-1],"loss_changes":[1.3048959E0,1.3072375E0,0E0,1.3524284E0,0E0,1.5951282E0,0E0,2.3178532E0,2.0527768E0,1.9262878E0,1.2916243E0,2.1992362E0,0E0,0E0,0E0,0E0,0E0,0E0,0E0],"parents":[2147483647,0,0,1,1,3,3,5,5,7,7,8,8,9,9,10,10,11,11],"right_children":[2,4,-1,6,-1,8,-1,10,12,14,16,18,-1,-1,-1,-1,-1,-1,-1],"split_conditions":[5E-1,5E-1,2.3828013E-1,5E-1,2.1296492E-1,5E-1,1.9377595E-1,5E-1,5E-1,5E-1,5E-1,5E-1,2.4511683E-1,-2.4698118E-2,2.22807E-1,5.8360584E-3,2.3908107E-1,-8.665446E-2,9.386151E-2],"split_indices":[4503,1267,0,2701,0,4673,0,4154,2005,2860,1984,3322,0,0,0,0,0,0,0],"split_type":[0,0,0,0,0,0,0,0,0,0,0,0,0,0,0,0,0,0,0],"sum_hessian":[1.0736856E2,1.0635684E2,1.0117224E0,1.04946785E2,1.410051E0,1.03102425E2,1.8443655E0,5.123522E1,5.1867203E1,4.280415E1,8.43107E0,5.0819263E1,1.0479382E0,4.076719E1,2.03696E0,3.3831568E0,5.047914E0,4.4651638E1,6.167627E0],"tree_param":{"num_deleted":"0","num_feature":"5000","num_nodes":"19","size_leaf_vector":"0"}},{"base_weights":[1.0062872E-2,2.7415605E-2,-6.530048E-1,4.4427827E-2,-6.661644E-1,1.2814545E-2,4.658266E-1,-1.5419072E-1,1.0621745E-1,7.792015E-1,-5.0962005E-2,-2.5138822E-1,2.3877923E-1,4.026319E-1,1.4848446E-2,1.00941E0,-1.8674829E-3,-3.6237085E-1,3.4521633E-1,-8.74365E-2,-7.28731E-1,-4.024589E-1,4.6889228E-1,4.915527E-1,-3.8745788E-1,1.0095576E-1,-3.204193E-1],"categories":[],"categories_nodes":[],"categories_segments":[],"categories_sizes":[],"default_left":[1,1,0,1,0,1,1,1,1,1,1,1,1,1,1,0,0,0,0,0,0,0,0,0,0,0,0],"id":47,"left_children":[1,3,-1,5,-1,7,9,11,13,15,17,19,21,23,25,-1,-1,-1,-1,-1,-1,-1,-1,-1,-1,-1,-1],"loss_changes":[1.2455833E0,1.2677882E0,0E0,1.3710063E0,0E0,1.532232E0,1.2032832E0,1.4069402E0,1.6979345E0,8.171468E-1,5.755062E-1,2.186923E0,1.296189E0,1.2292166E0,1.4506474E0,0E0,0E0,0E0,0E0,0E0,0E0,0E0,0E0,0E0,0E0,0E0,0E0],"parents":[2147483647,0,0,1,1,3,3,5,5,6,6,7,7,8,8,9,9,10,10,11,11,12,12,13,13,14,14],"right_children":[2,4,-1,6,-1,8,10,12,14,16,18,20,22,24,26,-1,-1,-1,-1,-1,-1,-1,-1,-1,-1,-1,-1],"split_conditions":[5E-1,5E-1,-1.9590145E-1,5E-1,-1.9984932E-1,5E-1,5E-1,1.5E0,5E-1,1.5E0,5E-1,5E-1,5E-1,5E-1,5E-1,3.02823E-1,-5.602449E-4,-1.0871126E-1,1.035649E-1,-2.623095E-2,-2.186193E-1,-1.2073768E-1,1.4066769E-1,1.4746583E-1,-1.16237365E-1,3.028673E-2,-9.61258E-2],"split_indices":[3094,3192,0,1726,0,2076,444,2826,3979,0,484,3519,4257,2273,2418,0,0,0,0,0,0,0,0,0,0,0,0],"split_type":[0,0,0,0,0,0,0,0,0,0,0,0,0,0,0,0,0,0,0,0,0,0,0,0,0,0,0],"sum_hessian":[1.0569884E2,1.0393741E2,1.7614281E0,1.02362595E2,1.5748188E0,9.617776E1,6.1848335E0,3.4263496E1,6.1914265E1,3.5340493E0,2.6507845E0,2.7758076E1,6.505419E0,1.3785482E1,4.812878E1,2.503759E0,1.0302904E0,1.5319538E0,1.1188308E0,2.1542202E1,6.2158737E0,1.520209E0,4.9852095E0,1.273057E1,1.0549126E0,3.8849808E1,9.278974E0],"tree_param":{"num_deleted":"0","num_feature":"5000","num_nodes":"27","size_leaf_vector":"0"}},{"base_weights":[2.8661797E-3,-1.2659322E-2,7.6932025E-1,-3.04623E-2,6.601948E-1,-4.724318E-2,6.954638E-1,-6.392263E-2,6.8828976E-1,-8.152641E-2,6.386469E-1,-9.799126E-2,7.0428526E-1],"categories":[],"categories_nodes":[],"categories_segments":[],"categories_sizes":[],"default_left":[1,1,0,1,0,1,0,1,0,1,0,0,0],"id":48,"left_children":[1,3,-1,5,-1,7,-1,9,-1,11,-1,-1,-1],"loss_changes":[1.2604433E0,1.2659304E0,0E0,1.2787613E0,0E0,1.2818975E0,0E0,1.2836621E0,0E0,1.3373885E0,0E0,0E0,0E0],"parents":[2147483647,0,0,1,1,3,3,5,5,7,7,9,9],"right_children":[2,4,-1,6,-1,8,-1,10,-1,12,-1,-1,-1],"split_conditions":[5E-1,5E-1,2.3079608E-1,5E-1,1.9805846E-1,5E-1,2.0863914E-1,5E-1,2.0648694E-1,5E-1,1.9159408E-1,-2.9397378E-2,2.1128559E-1],"split_indices":[1960,265,0,255,0,897,0,4592,0,983,0,0,0],"split_type":[0,0,0,0,0,0,0,0,0,0,0,0,0],"sum_hessian":[1.0410489E2,1.0300193E2,1.1029519E0,1.01276985E2,1.7249507E0,9.9902504E1,1.3744777E0,9.858013E1,1.3223764E0,9.703281E1,1.5473225E0,9.589877E1,1.1340352E0],"tree_param":{"num_deleted":"0","num_feature":"5000","num_nodes":"13","size_leaf_vector":"0"}},{"base_weights":[1.4625562E-2,3.1253234E-2,-6.6007715E-1,4.933497E-2,-5.964592E-1,6.548088E-2,-6.87788E-1,8.274783E-2,-6.4469224E-1,9.979704E-2,-6.4103204E-1,1.184928E-1,-5.8053637E-1],"categories":[],"categories_nodes":[],"categories_segments":[],"categories_sizes":[],"default_left":[1,1,0,1,0,1,0,1,0,1,0,0,0],"id":49,"left_children":[1,3,-1,5,-1,7,-1,9,-1,11,-1,-1,-1],"loss_changes":[1.1831973E0,1.1881582E0,0E0,1.2370331E0,0E0,1.2663705E0,0E0,1.2666097E0,0E0,1.2908871E0,0E0,0E0,0E0],"parents":[2147483647,0,0,1,1,3,3,5,5,7,7,9,9],"right_children":[2,4,-1,6,-1,8,-1,10,-1,12,-1,-1,-1],"split_conditions":[5E-1,5E-1,-1.9802316E-1,5E-1,-1.7893776E-1,5E-1,-2.0633641E-1,5E-1,-1.9340768E-1,5E-1,-1.9230962E-1,3.554784E-2,-1.7416091E-1],"split_indices":[1387,513,0,1461,0,3177,0,1676,0,1683,0,0,0],"split_type":[0,0,0,0,0,0,0,0,0,0,0,0,0],"sum_hessian":[1.0262736E2,1.0108974E2,1.5376214E0,9.915491E1,1.9348276E0,9.792121E1,1.2336957E0,9.6459404E1,1.4618049E0,9.5081795E1,1.3776096E0,9.3342545E1,1.7392485E0],"tree_param":{"num_deleted":"0","num_feature":"5000","num_nodes":"13","size_leaf_vector":"0"}},{"base_weights":[-1.7268404E-3,-1.8843906E-2,6.457332E-1,3.0927737E-3,-5.5101305E-1,-1.801567E-2,5.211566E-1,-1.16289124E-1,-6.9122916E-1,2.095905E-3,-6.286681E-1,8.8720137E-1,-6.896105E-2,3.630618E-2,-3.6455065E-1,6.109536E-2,-6.372018E-1,-6.2451816E-1,3.2433212E-1],"categories":[],"categories_nodes":[],"categories_segments":[],"categories_sizes":[],"default_left":[1,1,0,1,1,1,1,0,0,1,0,0,0,1,1,0,0,0,0],"id":50,"left_children":[1,3,-1,5,7,9,11,-1,-1,13,-1,-1,-1,15,17,-1,-1,-1,-1],"loss_changes":[1.148885E0,1.1795832E0,0E0,1.079948E0,1.6344142E-1,1.1684147E0,8.9628994E-1,0E0,0E0,1.1797165E0,0E0,0E0,0E0,1.4742717E0,1.6401348E0,0E0,0E0,0E0,0E0],"parents":[2147483647,0,0,1,1,3,3,4,4,5,5,6,6,9,9,13,13,14,14],"right_children":[2,4,-1,6,8,10,12,-1,-1,14,-1,-1,-1,16,18,-1,-1,-1,-1],"split_conditions":[5E-1,5E-1,1.9371997E-1,5E-1,5E-1,5E-1,2.5E0,-3.488674E-2,-2.0736876E-1,5E-1,-1.8860045E-1,2.6616043E-1,-2.0688314E-2,5E-1,5E-1,1.8328609E-2,-1.9116054E-1,-1.8735546E-1,9.729964E-2],"split_indices":[233,3418,0,1730,4673,3577,4257,0,0,4327,0,0,0,179,3160,0,0,0,0],"split_type":[0,0,0,0,0,0,0,0,0,0,0,0,0,0,0,0,0,0,0],"sum_hessian":[1.0156755E2,9.989743E1,1.6701182E0,9.689739E1,3.0000434E0,9.403132E1,2.866069E0,1.1777917E0,1.8222517E0,9.199797E1,2.0333457E0,1.4581561E0,1.407913E0,8.497069E1,7.0272865E0,8.283128E1,2.139406E0,5.1697736E0,1.8575128E0],"tree_param":{"num_deleted":"0","num_feature":"5000","num_nodes":"19","size_leaf_vector":"0"}},{"base_weights":[-4.196222E-3,-2.0519376E-2,6.3439506E-1,-3.711267E-2,6.3908273E-1,-1.7642144E-2,-6.561662E-1,4.093009E-2,-2.0477006E-1,-3.1545733E-3,6.266032E-1,-2.7543402E-1,6.5535915E-1,-3.5988685E-2,7.589199E-1,8.1237286E-1,2.109097E-1,-3.5084066E-1,6.111827E-1],"categories":[],"categories_nodes":[],"categories_segments":[],"categories_sizes":[],"default_left":[1,1,0,1,0,1,0,1,1,1,1,1,0,0,0,0,0,0,0],"id":51,"left_children":[1,3,-1,5,-1,7,-1,9,11,13,15,17,-1,-1,-1,-1,-1,-1,-1],"loss_changes":[1.0703392E0,1.1168332E0,0E0,1.1740828E0,0E0,1.064931E0,0E0,1.919046E0,1.5873475E0,1.780033E0,2.304306E-1,1.69151E0,0E0,0E0,0E0,0E0,0E0,0E0,0E0],"parents":[2147483647,0,0,1,1,3,3,5,5,7,7,8,8,9,9,10,10,11,11],"right_children":[2,4,-1,6,-1,8,-1,10,12,14,16,18,-1,-1,-1,-1,-1,-1,-1],"split_conditions":[5E-1,5E-1,1.9031852E-1,5E-1,1.9172482E-1,5E-1,-1.9684987E-1,5E-1,5E-1,5E-1,5E-1,5E-1,1.9660775E-1,-1.0796606E-2,2.2767597E-1,2.4371187E-1,6.327291E-2,-1.052522E-1,1.8335481E-1],"split_indices":[4605,1265,0,1609,0,444,0,4168,50,1088,2989,141,0,0,0,0,0,0,0],"split_type":[0,0,0,0,0,0,0,0,0,0,0,0,0,0,0,0,0,0,0],"sum_hessian":[1.00433205E2,9.887374E1,1.5594629E0,9.7368034E1,1.5057057E0,9.5396126E1,1.9719082E0,7.3249756E1,2.214637E1,6.904707E1,4.202683E0,2.109323E1,1.0531392E0,6.710847E1,1.9386047E0,2.245106E0,1.9575771E0,1.9996798E1,1.0964323E0],"tree_param":{"num_deleted":"0","num_feature":"5000","num_nodes":"19","size_leaf_vector":"0"}},{"base_weights":[7.3138573E-3,2.4086393E-2,-6.370856E-1,3.8619157E-2,-6.9112206E-1,5.3564604E-2,-6.6643065E-1,7.178509E-2,-5.44342E-1,8.760427E-2,-6.44032E-1,1.0350948E-1,-6.485983E-1],"categories":[],"categories_nodes":[],"categories_segments":[],"categories_sizes":[],"default_left":[1,1,0,1,0,1,0,1,0,1,0,0,0],"id":52,"left_children":[1,3,-1,5,-1,7,-1,9,-1,11,-1,-1,-1],"loss_changes":[1.0928878E0,1.0466611E0,0E0,1.0591196E0,0E0,1.0852784E0,0E0,1.1217138E0,0E0,1.155216E0,0E0,0E0,0E0],"parents":[2147483647,0,0,1,1,3,3,5,5,7,7,9,9],"right_children":[2,4,-1,6,-1,8,-1,10,-1,12,-1,-1,-1],"split_conditions":[5E-1,5E-1,-1.9112569E-1,5E-1,-2.0733662E-1,5E-1,-1.9992921E-1,5E-1,-1.633026E-1,5E-1,-1.932096E-1,3.1052845E-2,-1.945795E-1],"split_indices":[3793,2971,0,3181,0,1037,0,780,0,3831,0,0,0],"split_type":[0,0,0,0,0,0,0,0,0,0,0,0,0],"sum_hessian":[9.8696655E1,9.7131134E1,1.565523E0,9.612393E1,1.007199E0,9.503346E1,1.0904654E0,9.3076996E1,1.9564703E0,9.192316E1,1.1538364E0,9.082044E1,1.1027204E0],"tree_param":{"num_deleted":"0","num_feature":"5000","num_nodes":"13","size_leaf_vector":"0"}},{"base_weights":[-6.9504E-3,-2.3286883E-2,6.22372E-1,3.6033806E-3,-4.051868E-1,2.6919207E-2,-5.747747E-1,-6.005018E-1,2.2609681E-1,4.631565E-2,-6.26547E-1,-1.20525785E-1,-7.0355475E-1,-6.8120015E-1,-1.5728125E-1,-1.182024E-1,1.396451E-1,-1.7849162E-1,5.3443754E-1,2.2065608E-1,-2.0920846E-1],"categories":[],"categories_nodes":[],"categories_segments":[],"categories_sizes":[],"default_left":[1,1,0,1,1,1,1,1,0,1,0,0,0,0,0,1,1,0,0,0,0],"id":53,"left_children":[1,3,-1,5,7,9,11,13,-1,15,-1,-1,-1,-1,-1,17,19,-1,-1,-1,-1],"loss_changes":[1.0339295E0,1.0038878E0,0E0,1.2585984E0,9.285629E-1,1.1642671E0,1.2678409E-1,7.827926E-2,0E0,1.3663979E0,0E0,0E0,0E0,0E0,0E0,1.3687925E0,1.6443926E0,0E0,0E0,0E0,0E0],"parents":[2147483647,0,0,1,1,3,3,4,4,5,5,6,6,7,7,9,9,15,15,16,16],"right_children":[2,4,-1,6,8,10,12,14,-1,16,-1,-1,-1,-1,-1,18,20,-1,-1,-1,-1],"split_conditions":[5E-1,1.5E0,1.867116E-1,5E-1,5E-1,5E-1,5E-1,5E-1,6.782904E-2,5E-1,-1.879641E-1,-3.615774E-2,-2.1106644E-1,-2.0436005E-1,-4.7184378E-2,5E-1,5E-1,-5.354749E-2,1.6033126E-1,6.619683E-2,-6.276254E-2],"split_indices":[2639,484,0,1707,2466,1472,4673,4181,0,2076,0,0,0,0,0,4786,2418,0,0,0,0],"split_type":[0,0,0,0,0,0,0,0,0,0,0,0,0,0,0,0,0,0,0,0,0],"sum_hessian":[9.815815E1,9.661318E1,1.5449698E0,9.118336E1,5.4298205E0,8.856648E1,2.6168728E0,4.1840606E0,1.2457598E0,8.691574E1,1.6507449E0,1.0056223E0,1.6112506E0,3.0853667E0,1.098694E0,3.1363209E1,5.5552532E1,2.9376034E1,1.9871747E0,4.5381496E1,1.0171036E1],"tree_param":{"num_deleted":"0","num_feature":"5000","num_nodes":"21","size_leaf_vector":"0"}},{"base_weights":[-8.777751E-3,-2.445588E-2,6.3637334E-1,-3.7526977E-6,-4.656739E-1,1.726985E-2,-6.2244934E-1,-9.583383E-2,-7.5157195E-1,3.4895875E-2,-6.165108E-1,1.4268175E-1,-2.7516422E-1,1.4476314E-2,7.207672E-1,3.9264634E-2,-5.5199194E-1],"categories":[],"categories_nodes":[],"categories_segments":[],"categories_sizes":[],"default_left":[1,1,0,1,1,1,0,1,0,1,0,0,0,1,0,0,0],"id":54,"left_children":[1,3,-1,5,7,9,-1,11,-1,13,-1,-1,-1,15,-1,-1,-1],"loss_changes":[1.0075636E0,1.0433829E0,0E0,1.0067227E0,4.6492815E-1,1.0392421E0,0E0,1.829881E-1,0E0,1.2442284E0,0E0,0E0,0E0,1.2575768E0,0E0,0E0,0E0],"parents":[2147483647,0,0,1,1,3,3,4,4,5,5,7,7,9,9,13,13],"right_children":[2,4,-1,6,8,10,-1,12,-1,14,-1,-1,-1,16,-1,-1,-1],"split_conditions":[5E-1,5E-1,1.9091201E-1,5E-1,5E-1,5E-1,-1.8673481E-1,5E-1,-2.254716E-1,5E-1,-1.8495324E-1,4.2804524E-2,-8.254927E-2,5E-1,2.1623017E-1,1.1779391E-2,-1.6559759E-1],"split_indices":[3909,2227,0,4638,2496,4437,0,2989,0,1466,0,0,0,786,0,0,0],"split_type":[0,0,0,0,0,0,0,0,0,0,0,0,0,0,0,0,0],"sum_hessian":[9.7074524E1,9.571071E1,1.3638196E0,9.163248E1,4.078227E0,9.010423E1,1.5282443E0,2.3602245E0,1.7180029E0,8.858553E1,1.5187052E0,1.1006655E0,1.2595589E0,8.701602E1,1.5695091E0,8.425956E1,2.756464E0],"tree_param":{"num_deleted":"0","num_feature":"5000","num_nodes":"17","size_leaf_vector":"0"}},{"base_weights":[-1.0608319E-2,-2.8256403E-2,5.5498827E-1,-1.0169986E-2,-6.8673366E-1,1.1435301E-2,-5.7303E-1,3.1242842E-2,-5.3761756E-1,1.0006964E-2,6.261399E-1,-1.8526207E-1,-6.4269435E-1,-4.931368E-2,2.62654E-1],"categories":[],"categories_nodes":[],"categories_segments":[],"categories_sizes":[],"default_left":[1,1,0,1,0,1,0,1,1,1,0,0,0,0,0],"id":55,"left_children":[1,3,-1,5,-1,7,-1,9,11,13,-1,-1,-1,-1,-1],"loss_changes":[9.824512E-1,1.1229304E0,0E0,1.1418059E0,0E0,1.0051887E0,0E0,1.11384E0,1.3136864E-4,1.3112061E0,0E0,0E0,0E0,0E0,0E0],"parents":[2147483647,0,0,1,1,3,3,5,5,7,7,8,8,9,9],"right_children":[2,4,-1,6,-1,8,-1,10,12,14,-1,-1,-1,-1,-1],"split_conditions":[5E-1,5E-1,1.6649649E-1,4.5E0,-2.060201E-1,5E-1,-1.71909E-1,5E-1,5E-1,5E-1,1.8784197E-1,-5.5578623E-2,-1.9280832E-1,-1.4794105E-2,7.879621E-2],"split_indices":[2948,2051,0,2076,0,3446,0,2158,2989,4154,0,0,0,0,0],"split_type":[0,0,0,0,0,0,0,0,0,0,0,0,0,0,0],"sum_hessian":[9.585421E1,9.387511E1,1.9791058E0,9.235387E1,1.521242E0,8.988339E1,2.4704752E0,8.766393E1,2.2194529E0,8.562425E1,2.039684E0,1.1445448E0,1.0749079E0,6.999458E1,1.5629671E1],"tree_param":{"num_deleted":"0","num_feature":"5000","num_nodes":"15","size_leaf_vector":"0"}},{"base_weights":[-1.0091834E-2,-2.5723802E-2,6.216539E-1,-4.128769E-2,6.319052E-1,-1.3977421E-2,-5.059074E-1,1.3341935E-2,-5.1860905E-1,-7.467185E-1,1.16330616E-1,-3.0933753E-2,3.0947763E-1,-8.401198E-1,-6.694686E-2,1.4199419E-2,-4.2588797E-1,6.547378E-1,5.9562463E-2],"categories":[],"categories_nodes":[],"categories_segments":[],"categories_sizes":[],"default_left":[1,1,0,1,0,1,1,1,1,0,0,1,1,0,0,0,0,0,0],"id":56,"left_children":[1,3,-1,5,-1,7,9,11,13,-1,-1,15,17,-1,-1,-1,-1,-1,-1],"loss_changes":[9.649292E-1,9.9568456E-1,0E0,1.1790777E0,0E0,1.2382773E0,8.602358E-1,1.1333159E0,6.135111E-1,0E0,0E0,1.3512992E0,9.3070126E-1,0E0,0E0,0E0,0E0,0E0,0E0],"parents":[2147483647,0,0,1,1,3,3,5,5,6,6,7,7,8,8,11,11,12,12],"right_children":[2,4,-1,6,-1,8,10,12,14,-1,-1,16,18,-1,-1,-1,-1,-1,-1],"split_conditions":[5E-1,5E-1,1.8649618E-1,5E-1,1.8957157E-1,5E-1,1.5E0,5E-1,5E-1,-2.2401556E-1,3.4899186E-2,1.5E0,5E-1,-2.5203595E-1,-2.0084057E-2,4.2598257E-3,-1.277664E-1,1.9642134E-1,1.786874E-2],"split_indices":[257,3490,0,903,0,3947,4673,3890,2826,0,0,3519,0,0,0,0,0,0,0],"split_type":[0,0,0,0,0,0,0,0,0,0,0,0,0,0,0,0,0,0,0],"sum_hessian":[9.509079E1,9.373079E1,1.3600008E0,9.247933E1,1.2514606E0,8.831809E1,4.161239E0,8.470591E1,3.612182E0,2.8559217E0,1.3053176E0,7.4467674E1,1.0238232E1,1.6076977E0,2.0044842E0,6.769582E1,6.7718544E0,3.618878E0,6.6193542E0],"tree_param":{"num_deleted":"0","num_feature":"5000","num_nodes":"19","size_leaf_vector":"0"}},{"base_weights":[-7.7409237E-3,-2.3522839E-2,6.037819E-1,-6.7412406E-3,-6.260514E-1,9.443655E-3,-6.5462786E-1,2.5124649E-2,-6.492322E-1,4.168962E-2,-6.1393654E-1,5.8678474E-2,-5.4685146E-1],"categories":[],"categories_nodes":[],"categories_segments":[],"categories_sizes":[],"default_left":[1,1,0,1,0,1,0,1,0,1,0,0,0],"id":57,"left_children":[1,3,-1,5,-1,7,-1,9,-1,11,-1,-1,-1],"loss_changes":[9.296795E-1,9.405301E-1,0E0,9.699831E-1,0E0,9.5270044E-1,0E0,9.731886E-1,0E0,9.13852E-1,0E0,0E0,0E0],"parents":[2147483647,0,0,1,1,3,3,5,5,7,7,9,9],"right_children":[2,4,-1,6,-1,8,-1,10,-1,12,-1,-1,-1],"split_conditions":[5E-1,5E-1,1.8113457E-1,5E-1,-1.8781544E-1,5E-1,-1.9638836E-1,5E-1,-1.9476967E-1,5E-1,-1.8418097E-1,1.7603543E-2,-1.6405544E-1],"split_indices":[233,513,0,1680,0,4990,0,1387,0,3152,0,0,0],"split_type":[0,0,0,0,0,0,0,0,0,0,0,0,0],"sum_hessian":[9.385822E1,9.243426E1,1.4239693E0,9.091333E1,1.5209258E0,8.965898E1,1.2543526E0,8.85136E1,1.145374E0,8.718838E1,1.3252273E0,8.561724E1,1.5711327E0],"tree_param":{"num_deleted":"0","num_feature":"5000","num_nodes":"13","size_leaf_vector":"0"}},{"base_weights":[-1.391261E-2,9.97872E-4,-6.3507366E-1,-1.5150209E-2,5.6374526E-1,4.818046E-3,-6.6190904E-1,-1.4720092E-2,5.459692E-1,1.6225493E-3,-6.73236E-1,2.5403218E-2,-4.2296624E-1],"categories":[],"categories_nodes":[],"categories_segments":[],"categories_sizes":[],"default_left":[1,1,0,1,0,1,0,1,0,1,0,0,0],"id":58,"left_children":[1,3,-1,5,-1,7,-1,9,-1,11,-1,-1,-1],"loss_changes":[8.70224E-1,8.508181E-1,0E0,1.1793998E0,0E0,9.5264477E-1,0E0,9.395435E-1,0E0,8.799679E-1,0E0,0E0,0E0],"parents":[2147483647,0,0,1,1,3,3,5,5,7,7,9,9],"right_children":[2,4,-1,6,-1,8,-1,10,-1,12,-1,-1,-1],"split_conditions":[5E-1,5E-1,-1.905221E-1,5E-1,1.6912359E-1,5E-1,-1.9857273E-1,5E-1,1.6379076E-1,1.5E0,-2.0197082E-1,7.6209656E-3,-1.2688988E-1],"split_indices":[4745,1126,0,4836,0,3921,0,3793,0,444,0,0,0],"split_type":[0,0,0,0,0,0,0,0,0,0,0,0,0],"sum_hessian":[9.288988E1,9.1687386E1,1.20249E0,9.007574E1,1.6116521E0,8.834082E1,1.7349143E0,8.620134E1,2.139481E0,8.5087234E1,1.1141062E0,8.146467E1,3.622561E0],"tree_param":{"num_deleted":"0","num_feature":"5000","num_nodes":"13","size_leaf_vector":"0"}},{"base_weights":[-1.4440881E-2,-2.9245958E-2,5.8504194E-1,-4.411279E-2,5.8368665E-1,-6.121394E-2,5.210102E-1,-8.8131785E-2,3.9429864E-1,-1.0428138E-1,6.082861E-1,5.7067204E-1,-9.954427E-2,-1.2032389E-1,5.960014E-1,6.677078E-1,1.6702984E-1],"categories":[],"categories_nodes":[],"categories_segments":[],"categories_sizes":[],"default_left":[1,1,0,1,0,1,0,1,1,1,0,1,0,0,0,0,0],"id":59,"left_children":[1,3,-1,5,-1,7,-1,9,11,13,-1,15,-1,-1,-1,-1,-1],"loss_changes":[8.443501E-1,8.632844E-1,0E0,9.081047E-1,0E0,1.1247543E0,0E0,1.0166528E0,5.047499E-1,1.0118779E0,0E0,4.271388E-2,0E0,0E0,0E0,0E0,0E0],"parents":[2147483647,0,0,1,1,3,3,5,5,7,7,8,8,9,9,11,11],"right_children":[2,4,-1,6,-1,8,-1,10,12,14,-1,16,-1,-1,-1,-1,-1],"split_conditions":[5E-1,5E-1,1.7551258E-1,5E-1,1.75106E-1,5E-1,1.5630308E-1,5E-1,5E-1,5E-1,1.8248583E-1,2.5E0,-2.9863283E-2,-3.609717E-2,1.7880042E-1,2.0031235E-1,5.0108954E-2],"split_indices":[265,3419,0,4918,0,1312,0,1267,4766,255,0,282,0,0,0,0,0],"split_type":[0,0,0,0,0,0,0,0,0,0,0,0,0,0,0,0,0],"sum_hessian":[9.220605E1,9.0912056E1,1.2939873E0,8.966523E1,1.2468226E0,8.7897064E1,1.7681665E0,8.375426E1,4.1428127E0,8.268704E1,1.0672126E0,2.937961E0,1.2048514E0,8.164485E1,1.0421923E0,1.8411427E0,1.0968186E0],"tree_param":{"num_deleted":"0","num_feature":"5000","num_nodes":"17","size_leaf_vector":"0"}},{"base_weights":[1.7781096E-3,-1.28088035E-2,5.813455E-1,4.067698E-3,-5.980863E-1,-2.3074936E-2,4.7331548E-1,-4.1576847E-2,6.802592E-1,6.218201E-1,-3.910704E-2,1.2932311E-1,-1.1021865E-1,2.244069E-1,-3.5849908E-1,-1.3937747E-1,5.21215E-1],"categories":[],"categories_nodes":[],"categories_segments":[],"categories_sizes":[],"default_left":[1,1,0,1,0,1,1,1,0,0,0,1,1,0,0,0,0],"id":60,"left_children":[1,3,-1,5,-1,7,9,11,-1,-1,-1,13,15,-1,-1,-1,-1],"loss_changes":[7.852681E-1,8.985625E-1,0E0,1.1467155E0,0E0,1.1376805E0,3.9891303E-1,9.997659E-1,0E0,0E0,0E0,1.2184155E0,1.1861302E0,0E0,0E0,0E0,0E0],"parents":[2147483647,0,0,1,1,3,3,5,5,6,6,7,7,11,11,12,12],"right_children":[2,4,-1,6,-1,8,10,12,-1,-1,-1,14,16,-1,-1,-1,-1],"split_conditions":[5E-1,5E-1,1.7440365E-1,5E-1,-1.794259E-1,5E-1,5E-1,5E-1,2.0407778E-1,1.8654603E-1,-1.1732113E-2,1.5E0,5E-1,6.7322075E-2,-1.0754973E-1,-4.1813243E-2,1.5636452E-1],"split_indices":[4605,4232,0,1312,0,4918,2688,3979,0,0,0,0,2700,0,0,0,0],"split_type":[0,0,0,0,0,0,0,0,0,0,0,0,0,0,0,0,0],"sum_hessian":[9.100528E1,8.972493E1,1.2803533E0,8.817544E1,1.5494926E0,8.425284E1,3.9225993E0,8.3010056E1,1.242777E0,2.8757038E0,1.0468955E0,2.3533596E1,5.9476463E1,2.0146688E1,3.3869069E0,5.759602E1,1.8804448E0],"tree_param":{"num_deleted":"0","num_feature":"5000","num_nodes":"17","size_leaf_vector":"0"}},{"base_weights":[6.3674995E-3,-9.217814E-3,5.5796677E-1,6.601201E-3,-6.206906E-1,-1.2010519E-2,6.752962E-1,-2.6887184E-2,6.2294215E-1,2.6627425E-3,-4.079884E-1,4.1807745E-2,-3.8838217E-1,-5.92124E-1,1.6310428E-1],"categories":[],"categories_nodes":[],"categories_segments":[],"categories_sizes":[],"default_left":[1,1,0,1,0,1,0,1,0,1,1,0,0,0,0],"id":61,"left_children":[1,3,-1,5,-1,7,-1,9,-1,11,13,-1,-1,-1,-1],"loss_changes":[7.8765804E-1,8.698799E-1,0E0,1.1062868E0,0E0,8.369571E-1,0E0,9.6734923E-1,0E0,1.2503476E0,7.4653125E-1,0E0,0E0,0E0,0E0],"parents":[2147483647,0,0,1,1,3,3,5,5,7,7,9,9,10,10],"right_children":[2,4,-1,6,-1,8,-1,10,-1,12,14,-1,-1,-1,-1],"split_conditions":[5E-1,5E-1,1.6739003E-1,5E-1,-1.8620718E-1,5E-1,2.0258887E-1,5E-1,1.8688264E-1,5E-1,3.5E0,1.2542324E-2,-1.1651465E-1,-1.776372E-1,4.8931286E-2],"split_indices":[2647,4437,0,1466,0,1829,0,1916,0,4400,282,0,0,0,0],"split_type":[0,0,0,0,0,0,0,0,0,0,0,0,0,0,0],"sum_hessian":[9.002346E1,8.8506035E1,1.517429E0,8.723835E1,1.2676822E0,8.583145E1,1.4068993E0,8.480223E1,1.0292244E0,7.962153E1,5.1807017E0,7.318821E1,6.433316E0,3.889724E0,1.2909776E0],"tree_param":{"num_deleted":"0","num_feature":"5000","num_nodes":"15","size_leaf_vector":"0"}},{"base_weights":[5.8799074E-3,2.077532E-2,-5.749208E-1,4.9269954E-3,6.503768E-1,-2.2053171E-2,3.4943807E-1,-5.6102898E-2,3.7756303E-1,7.184741E-1,-1.8762259E-1,-9.264599E-2,4.505665E-1,-2.2466762E-1,7.620714E-1,2.0744753E-1,8.869625E-1,-3.776515E-1,8.483702E-2,-1.15804225E-1,5.529415E-1,7.0605713E-1,-1.7632978E-1,-5.100738E-1,2.206527E-1,9.397455E-1,1.8942739E-1],"categories":[],"categories_nodes":[],"categories_segments":[],"categories_sizes":[],"default_left":[1,1,0,1,0,1,1,1,1,1,1,1,1,1,1,0,0,0,0,0,0,0,0,0,0,0,0],"id":62,"left_children":[1,3,-1,5,-1,7,9,11,13,15,17,19,21,23,25,-1,-1,-1,-1,-1,-1,-1,-1,-1,-1,-1,-1],"loss_changes":[7.9168105E-1,8.832647E-1,0E0,8.2257223E-1,0E0,1.1402223E0,1.4084721E0,1.4610212E0,1.6964266E0,1.6179562E-1,2.0860612E-1,1.145373E0,9.7774637E-1,5.369211E-1,2.5416017E-1,0E0,0E0,0E0,0E0,0E0,0E0,0E0,0E0,0E0,0E0,0E0,0E0],"parents":[2147483647,0,0,1,1,3,3,5,5,6,6,7,7,8,8,9,9,10,10,11,11,12,12,13,13,14,14],"right_children":[2,4,-1,6,-1,8,10,12,14,16,18,20,22,24,26,-1,-1,-1,-1,-1,-1,-1,-1,-1,-1,-1,-1],"split_conditions":[5E-1,5E-1,-1.7247623E-1,5E-1,1.9511305E-1,5E-1,1.5E0,5E-1,5E-1,5E-1,1.5E0,5E-1,5E-1,5E-1,2.5E0,6.223426E-2,2.6608875E-1,-1.1329546E-1,2.5451107E-2,-3.4741268E-2,1.6588245E-1,2.1181715E-1,-5.2898936E-2,-1.5302214E-1,6.6195816E-2,2.8192365E-1,5.682822E-2],"split_indices":[3094,2647,0,3728,0,3322,282,4168,3519,2076,2076,3618,444,2688,3979,0,0,0,0,0,0,0,0,0,0,0,0],"split_type":[0,0,0,0,0,0,0,0,0,0,0,0,0,0,0,0,0,0,0,0,0,0,0,0,0,0,0],"sum_hessian":[8.912979E1,8.784122E1,1.288576E0,8.666745E1,1.173767E0,8.124109E1,5.4263577E0,7.565448E1,5.5866127E0,3.0160906E0,2.4102669E0,7.132721E1,4.327266E0,2.3389568E0,3.247656E0,1.301093E0,1.7149978E0,1.1924803E0,1.2177866E0,6.96494E1,1.6778114E0,2.9846163E0,1.34265E0,1.3367951E0,1.0021617E0,1.989355E0,1.258301E0],"tree_param":{"num_deleted":"0","num_feature":"5000","num_nodes":"27","size_leaf_vector":"0"}},{"base_weights":[1.3578729E-2,-5.3390427E-3,4.6636274E-1,-2.0556448E-2,5.769438E-1,7.212643E-1,3.7765412E-3,-3.5941515E-2,5.744328E-1,-5.273904E-2,5.194855E-1,-7.23191E-2,4.5849326E-1,-9.70911E-2,3.608889E-1],"categories":[],"categories_nodes":[],"categories_segments":[],"categories_sizes":[],"default_left":[1,1,1,1,0,0,0,1,0,1,0,1,0,0,0],"id":63,"left_children":[1,3,5,7,-1,-1,-1,9,-1,11,-1,13,-1,-1,-1],"loss_changes":[7.635073E-1,7.762896E-1,4.1875756E-1,7.9908895E-1,0E0,0E0,0E0,8.0957633E-1,0E0,8.5681224E-1,0E0,8.9475596E-1,0E0,0E0,0E0],"parents":[2147483647,0,0,1,1,2,2,3,3,7,7,9,9,11,11],"right_children":[2,4,6,8,-1,-1,-1,10,-1,12,-1,14,-1,-1,-1],"split_conditions":[5E-1,5E-1,2.5E0,5E-1,1.7308316E-1,2.163793E-1,1.1329624E-3,5E-1,1.7232984E-1,5E-1,1.5584564E-1,5E-1,1.3754798E-1,-2.9127331E-2,1.08266674E-1],"split_indices":[1730,4592,4257,1265,0,0,0,3313,0,2514,0,571,0,0,0],"split_type":[0,0,0,0,0,0,0,0,0,0,0,0,0,0,0],"sum_hessian":[8.78451E1,8.527062E1,2.5744839E0,8.403904E1,1.2315829E0,1.2993151E0,1.2751689E0,8.283666E1,1.2023743E0,8.128349E1,1.5531718E0,7.911206E1,2.171431E0,7.5566826E1,3.5452359E0],"tree_param":{"num_deleted":"0","num_feature":"5000","num_nodes":"15","size_leaf_vector":"0"}},{"base_weights":[2.0770608E-2,3.5239812E-2,-5.597151E-1,5.076475E-2,-5.2850974E-1,6.553283E-2,-5.6531775E-1,8.0247894E-2,-5.7134026E-1,9.9983335E-2,-4.2288506E-1,5.976606E-2,3.841893E-1,-1.3872382E-1,-5.2385324E-1],"categories":[],"categories_nodes":[],"categories_segments":[],"categories_sizes":[],"default_left":[1,1,0,1,0,1,0,1,0,1,1,0,0,0,0],"id":64,"left_children":[1,3,-1,5,-1,7,-1,9,-1,11,13,-1,-1,-1,-1],"loss_changes":[7.577373E-1,7.8539205E-1,0E0,8.1277966E-1,0E0,8.34574E-1,0E0,8.6779636E-1,0E0,9.006728E-1,2.284795E-2,0E0,0E0,0E0,0E0],"parents":[2147483647,0,0,1,1,3,3,5,5,7,7,9,9,10,10],"right_children":[2,4,-1,6,-1,8,-1,10,-1,12,14,-1,-1,-1,-1],"split_conditions":[5E-1,5E-1,-1.6791454E-1,5E-1,-1.5855293E-1,5E-1,-1.6959533E-1,5E-1,-1.7140208E-1,5E-1,5E-1,1.7929818E-2,1.15256794E-1,-4.1617148E-2,-1.5715598E-1],"split_indices":[4638,1683,0,3177,0,3920,0,3418,0,3890,3955,0,0,0,0],"split_type":[0,0,0,0,0,0,0,0,0,0,0,0,0,0,0],"sum_hessian":[8.6867424E1,8.567127E1,1.196152E0,8.426079E1,1.4104826E0,8.316097E1,1.099817E0,8.213718E1,1.0237963E0,7.9807976E1,2.329198E0,7.09748E1,8.833175E0,1.2330061E0,1.0961916E0],"tree_param":{"num_deleted":"0","num_feature":"5000","num_nodes":"15","size_leaf_vector":"0"}},{"base_weights":[5.601846E-3,-8.926972E-3,5.7811904E-1,1.0244763E-2,-4.9490145E-1,2.7927546E-2,-5.2124673E-1,1.1160504E-2,6.219726E-1,-9.2953995E-2,1.01494E-1,-2.0408417E-1,2.9759705E-1,2.2983328E-1,-3.1562218E-1],"categories":[],"categories_nodes":[],"categories_segments":[],"categories_sizes":[],"default_left":[1,1,0,1,0,1,0,1,0,1,1,0,0,0,0],"id":65,"left_children":[1,3,-1,5,-1,7,-1,9,-1,11,13,-1,-1,-1,-1],"loss_changes":[7.296907E-1,8.057051E-1,0E0,8.007324E-1,0E0,8.088825E-1,0E0,7.682018E-1,0E0,1.7100755E0,2.4105852E0,0E0,0E0,0E0,0E0],"parents":[2147483647,0,0,1,1,3,3,5,5,7,7,9,9,10,10],"right_children":[2,4,-1,6,-1,8,-1,10,-1,12,14,-1,-1,-1,-1],"split_conditions":[5E-1,5E-1,1.7343572E-1,5E-1,-1.4847045E-1,5E-1,-1.5637402E-1,5E-1,1.8659179E-1,5E-1,5E-1,-6.1225254E-2,8.9279115E-2,6.894998E-2,-9.468666E-2],"split_indices":[257,1392,0,3241,0,1645,0,1984,0,484,1626,0,0,0,0],"split_type":[0,0,0,0,0,0,0,0,0,0,0,0,0,0,0],"sum_hessian":[8.6103874E1,8.493293E1,1.1709429E0,8.265125E1,2.2816799E0,8.090692E1,1.744328E0,7.967681E1,1.2301068E0,3.7001484E1,4.2675327E1,2.9176767E1,7.824719E0,3.2977676E1,9.697653E0],"tree_param":{"num_deleted":"0","num_feature":"5000","num_nodes":"15","size_leaf_vector":"0"}},{"base_weights":[4.4163833E-3,-9.968543E-3,5.911064E-1,-2.5117636E-2,5.519245E-1,-4.496702E-2,4.4008142E-1,6.0564775E-2,-1.511341E-1,6.846736E-1,-3.279394E-2,-2.0355107E-2,4.019974E-1,-3.0664113E-1,7.731003E-2,5.9542134E-2,-7.016937E-1,5.746424E-1,-1.4792484E-1,-3.624825E-1,4.4016662E-1,1.796396E-1,-5.118131E-1],"categories":[],"categories_nodes":[],"categories_segments":[],"categories_sizes":[],"default_left":[1,1,0,1,0,1,1,1,1,0,0,1,1,1,1,0,0,0,0,0,0,0,0],"id":66,"left_children":[1,3,-1,5,-1,7,9,11,13,-1,-1,15,17,19,21,-1,-1,-1,-1,-1,-1,-1,-1],"loss_changes":[7.3234373E-1,7.37406E-1,0E0,7.9290736E-1,0E0,9.1899645E-1,4.294641E-1,1.1530944E0,1.4719663E0,0E0,0E0,1.9172227E0,8.4336424E-1,1.1794949E0,1.1354882E0,0E0,0E0,0E0,0E0,0E0,0E0,0E0,0E0],"parents":[2147483647,0,0,1,1,3,3,5,5,6,6,7,7,8,8,11,11,12,12,13,13,14,14],"right_children":[2,4,-1,6,-1,8,10,12,14,-1,-1,16,18,20,22,-1,-1,-1,-1,-1,-1,-1,-1],"split_conditions":[5E-1,5E-1,1.7733192E-1,5E-1,1.6557737E-1,5E-1,1.5E0,5E-1,1.5E0,2.0540209E-1,-9.8381825E-3,5E-1,5E-1,5E-1,5E-1,1.786264E-2,-2.1050812E-1,1.7239273E-1,-4.4377454E-2,-1.0874475E-1,1.3205E-1,5.389188E-2,-1.5354393E-1],"split_indices":[2005,2590,0,1416,0,4673,2076,1957,4673,0,0,1882,2226,1604,2549,0,0,0,0,0,0,0,0],"split_type":[0,0,0,0,0,0,0,0,0,0,0,0,0,0,0,0,0,0,0,0,0,0,0],"sum_hessian":[8.507759E1,8.4001E1,1.0765936E0,8.272594E1,1.2750599E0,8.020696E1,2.5189793E0,4.043924E1,3.9767723E1,1.3650303E0,1.1539489E0,3.3451565E1,6.987673E0,2.3457426E1,1.6310297E1,3.0757406E1,2.6941602E0,5.283877E0,1.7037958E0,2.2304283E1,1.1531429E0,1.44887085E1,1.821588E0],"tree_param":{"num_deleted":"0","num_feature":"5000","num_nodes":"23","size_leaf_vector":"0"}},{"base_weights":[7.340368E-3,-7.56906E-3,5.629575E-1,1.4575477E-2,-4.2995283E-1,4.0732928E-2,-4.6489307E-1,1.6100092E-2,-5.7611454E-1,5.7884283E-2,-5.124678E-1,-7.8889765E-2,-5.7345563E-1,-7.234244E-1,-1.3311239E-1,3.8007375E-2,6.832431E-1,6.565193E-2,-3.904786E-1],"categories":[],"categories_nodes":[],"categories_segments":[],"categories_sizes":[],"default_left":[1,1,0,1,1,1,1,0,1,1,0,0,0,0,0,1,0,0,0],"id":67,"left_children":[1,3,-1,5,7,9,11,-1,13,15,-1,-1,-1,-1,-1,17,-1,-1,-1],"loss_changes":[7.0631135E-1,7.8747463E-1,0E0,1.0263717E0,2.8266954E-1,7.611133E-1,1.3227624E-1,0E0,1.1159444E-1,9.146396E-1,0E0,0E0,0E0,0E0,0E0,9.069145E-1,0E0,0E0,0E0],"parents":[2147483647,0,0,1,1,3,3,4,4,5,5,6,6,8,8,9,9,15,15],"right_children":[2,4,-1,6,8,10,12,-1,14,16,-1,-1,-1,-1,-1,18,-1,-1,-1],"split_conditions":[5E-1,5E-1,1.6888726E-1,5E-1,5E-1,5E-1,5E-1,4.830028E-3,1.5E0,5E-1,-1.5374035E-1,-2.3666931E-2,-1.7203669E-1,-2.1702732E-1,-3.993372E-2,1.5E0,2.0497294E-1,1.969558E-2,-1.1714359E-1],"split_indices":[2639,650,0,857,0,1778,0,0,282,3990,0,0,0,0,0,2911,0,0,0],"split_type":[0,0,0,0,0,0,0,0,0,0,0,0,0,0,0,0,0,0,0],"sum_hessian":[8.374841E1,8.252044E1,1.227976E0,7.932701E1,3.193427E0,7.609091E1,3.2361014E0,1.0077738E0,2.1856532E0,7.467118E1,1.4197295E0,1.0893834E0,2.146718E0,1.165192E0,1.0204611E0,7.339899E1,1.2721957E0,6.974598E1,3.653008E0],"tree_param":{"num_deleted":"0","num_feature":"5000","num_nodes":"19","size_leaf_vector":"0"}},{"base_weights":[1.0196518E-3,-1.3999538E-2,5.6142163E-1,-2.8467266E-2,5.615068E-1,-5.381628E-2,2.9632816E-1,-7.251302E-2,4.8731768E-1,6.3117325E-1,-1.9313024E-1,-4.764178E-2,-5.662719E-1,1.9885622E-1,7.6846653E-1,-3.2813054E-1,3.1315602E-2,-6.557542E-2,5.9018075E-1],"categories":[],"categories_nodes":[],"categories_segments":[],"categories_sizes":[],"default_left":[1,1,0,1,0,1,1,1,0,1,1,1,0,0,0,0,0,0,0],"id":68,"left_children":[1,3,-1,5,-1,7,9,11,-1,13,15,17,-1,-1,-1,-1,-1,-1,-1],"loss_changes":[7.159567E-1,7.06307E-1,0E0,6.8965364E-1,0E0,8.1184936E-1,1.1179857E0,8.947531E-1,0E0,7.5291276E-2,1.0828337E-1,8.6855847E-1,0E0,0E0,0E0,0E0,0E0,0E0,0E0],"parents":[2147483647,0,0,1,1,3,3,5,5,6,6,7,7,9,9,10,10,11,11],"right_children":[2,4,-1,6,-1,8,10,12,-1,14,16,18,-1,-1,-1,-1,-1,-1,-1],"split_conditions":[5E-1,5E-1,1.684265E-1,5E-1,1.6845205E-1,5E-1,1.5E0,5E-1,1.461953E-1,5E-1,1.5E0,5E-1,-1.6988158E-1,5.965687E-2,2.3053996E-1,-9.8439164E-2,9.394681E-3,-1.9672627E-2,1.7705423E-1],"split_indices":[233,3909,0,3728,0,2902,282,650,0,2076,2076,1466,0,0,0,0,0,0,0],"split_type":[0,0,0,0,0,0,0,0,0,0,0,0,0,0,0,0,0,0,0],"sum_hessian":[8.3129166E1,8.1908966E1,1.2202022E0,8.082757E1,1.0813994E0,7.574989E1,5.0776763E0,7.405714E1,1.6927527E0,2.8431232E0,2.2345529E0,7.154958E1,2.5075524E0,1.2754179E0,1.5677053E0,1.1068459E0,1.1277071E0,7.04655E1,1.0840883E0],"tree_param":{"num_deleted":"0","num_feature":"5000","num_nodes":"19","size_leaf_vector":"0"}},{"base_weights":[9.22928E-3,2.2949655E-2,-5.4499114E-1,3.7719123E-2,-5.140465E-1,5.1861133E-2,-5.3017235E-1,6.60919E-2,-5.204473E-1,3.0587373E-2,3.2517397E-1,-5.011879E-3,4.554717E-1,5.144053E-1,-1.2943128E-1],"categories":[],"categories_nodes":[],"categories_segments":[],"categories_sizes":[],"default_left":[1,1,0,1,0,1,0,1,0,1,1,0,0,0,0],"id":69,"left_children":[1,3,-1,5,-1,7,-1,9,-1,11,13,-1,-1,-1,-1],"loss_changes":[6.444623E-1,6.702105E-1,0E0,6.763624E-1,0E0,6.838455E-1,0E0,7.1393114E-1,0E0,1.0658176E0,8.735578E-1,0E0,0E0,0E0,0E0],"parents":[2147483647,0,0,1,1,3,3,5,5,7,7,9,9,10,10],"right_children":[2,4,-1,6,-1,8,-1,10,-1,12,14,-1,-1,-1,-1],"split_conditions":[5E-1,5E-1,-1.6349734E-1,5E-1,-1.5421395E-1,5E-1,-1.5905172E-1,5E-1,-1.561342E-1,5E-1,5E-1,-1.5035637E-3,1.3664152E-1,1.543216E-1,-3.8829386E-2],"split_indices":[3192,513,0,1680,0,3094,0,4766,0,3322,3955,0,0,0,0],"split_type":[0,0,0,0,0,0,0,0,0,0,0,0,0,0,0],"sum_hessian":[8.210701E1,8.105889E1,1.0481166E0,7.979401E1,1.2648844E0,7.8741806E1,1.0522035E0,7.7694405E1,1.0473975E0,6.9313736E1,8.380672E0,6.4867004E1,4.446727E0,5.8246107E0,2.5560613E0],"tree_param":{"num_deleted":"0","num_feature":"5000","num_nodes":"15","size_leaf_vector":"0"}},{"base_weights":[1.586518E-3,-1.23943705E-2,5.407495E-1,-2.967459E-2,4.2290094E-1,-1.2955897E-2,-5.751301E-1,-3.1167354E-2,4.8546198E-1,-6.849027E-2,2.6599547E-1,-9.347473E-2,5.156077E-1,4.283729E-1,-3.870902E-1],"categories":[],"categories_nodes":[],"categories_segments":[],"categories_sizes":[],"default_left":[1,1,0,1,0,1,0,1,0,1,1,0,0,0,0],"id":70,"left_children":[1,3,-1,5,-1,7,-1,9,-1,11,13,-1,-1,-1,-1],"loss_changes":[6.270031E-1,6.2324375E-1,0E0,7.131769E-1,0E0,7.2036403E-1,0E0,8.5998094E-1,0E0,1.0437951E0,1.0856102E0,0E0,0E0,0E0,0E0],"parents":[2147483647,0,0,1,1,3,3,5,5,7,7,9,9,10,10],"right_children":[2,4,-1,6,-1,8,-1,10,-1,12,14,-1,-1,-1,-1],"split_conditions":[5E-1,5E-1,1.6222486E-1,5E-1,1.2687029E-1,5E-1,-1.7253904E-1,5E-1,1.456386E-1,5E-1,5E-1,-2.804242E-2,1.5468232E-1,1.2851188E-1,-1.1612707E-1],"split_indices":[265,3649,0,2769,0,141,0,4923,0,1088,590,0,0,0,0],"split_type":[0,0,0,0,0,0,0,0,0,0,0,0,0,0,0],"sum_hessian":[8.129009E1,8.0187775E1,1.1023157E0,7.80223E1,2.165476E0,7.6695274E1,1.3270254E0,7.489614E1,1.7991279E0,6.7222664E1,7.6734805E0,6.527071E1,1.9519503E0,6.421079E0,1.2524016E0],"tree_param":{"num_deleted":"0","num_feature":"5000","num_nodes":"15","size_leaf_vector":"0"}},{"base_weights":[6.130518E-3,2.1880638E-2,-4.618761E-1,3.6565144E-2,-5.31131E-1,1.9307107E-2,4.8794502E-1,3.396661E-2,-5.047433E-1,1.876188E-2,5.586716E-1,3.4274437E-2,-5.2948505E-1],"categories":[],"categories_nodes":[],"categories_segments":[],"categories_sizes":[],"default_left":[1,1,0,1,0,1,0,1,0,1,0,0,0],"id":71,"left_children":[1,3,-1,5,-1,7,-1,9,-1,11,-1,-1,-1],"loss_changes":[6.1053365E-1,6.6712034E-1,0E0,6.0311323E-1,0E0,6.069699E-1,0E0,5.928519E-1,0E0,6.520017E-1,0E0,0E0,0E0],"parents":[2147483647,0,0,1,1,3,3,5,5,7,7,9,9],"right_children":[2,4,-1,6,-1,8,-1,10,-1,12,-1,