{"learner":{"attributes":{"best_iteration":"99","best_ntree_limit":"100","scikit_learn":"{\"use_label_encoder\": false, \"n_estimators\": 100, \"objective\": \"binary:logistic\", \"max_depth\": null, \"max_leaves\": null, \"max_bin\": null, \"grow_policy\": null, \"learning_rate\": null, \"verbosity\": null, \"booster\": null, \"tree_method\": null, \"gamma\": null, \"min_child_weight\": null, \"max_delta_step\": null, \"subsample\": null, \"sampling_method\": null, \"colsample_bytree\": null, \"colsample_bylevel\": null, \"colsample_bynode\": null, \"reg_alpha\": null, \"reg_lambda\": null, \"scale_pos_weight\": null, \"base_score\": null, \"missing\": NaN, \"num_parallel_tree\": null, \"random_state\": null, \"n_jobs\": null, \"monotone_constraints\": null, \"interaction_constraints\": null, \"importance_type\": null, \"gpu_id\": null, \"validate_parameters\": null, \"predictor\": null, \"enable_categorical\": false, \"max_cat_to_onehot\": null, \"eval_metric\": null, \"early_stopping_rounds\": null, \"callbacks\": null, \"classes_\": [0, 1], \"n_classes_\": 2, \"_estimator_type\": \"classifier\"}"},"feature_names":[],"feature_types":[],"gradient_booster":{"model":{"gbtree_model_param":{"num_parallel_tree":"1","num_trees":"100","size_leaf_vector":"0"},"tree_info":[0,0,0,0,0,0,0,0,0,0,0,0,0,0,0,0,0,0,0,0,0,0,0,0,0,0,0,0,0,0,0,0,0,0,0,0,0,0,0,0,0,0,0,0,0,0,0,0,0,0,0,0,0,0,0,0,0,0,0,0,0,0,0,0,0,0,0,0,0,0,0,0,0,0,0,0,0,0,0,0,0,0,0,0,0,0,0,0,0,0,0,0,0,0,0,0,0,0,0,0],"trees":[{"base_weights":[9.4147184E-4,2.961944E-1,-6.382134E-1,8.489749E-2,1.1052048E0,-9.717291E-1,3.8554215E-1,2.0382166E-1,-1.0581039E0,1.2764331E0,-3.2786883E-2,-1.1491966E0,1.10091746E-1,7.5578403E-1,-9.026549E-1,2.4615385E-2,1.0588236E0,-1.1764706E0,5.6E-1,1.3939394E0,-1.5873016E-1,5.762712E-1,-5.671642E-1,-1.2497979E0,5.945946E-1,6.122449E-1,-8.8E-1,4.347826E-1,1.4871795E0,-1.3023256E0,3.2258064E-1,-2.6305301E-2,1.3684211E0,1.1743487E0,-2.0408164E-1,-1.2627987E0,5.882353E-1,1.2E0,-1.1111112E0,1.4422535E0,-6E-1,7.058824E-1,-1.030303E0,-4E-1,1.1578947E0,-1.1111112E0,4.6153846E-1,-9.122807E-1,-1.5290611E0,1.4117647E0,-9.090909E-2,8.346457E-1,-6.666667E-1,-5.1282052E-2,-1.6E0,8.5714287E-1,-4.6153846E-1,1.6036036E0,-4E-1,-1.5675676E0,2.5E-1,8.8E-1,-1.2E0,3.8281582E-2,-9.62963E-1,1.5111111E0,-6.666667E-1,1.2564102E0,-5.7142857E-2,1.1428572E0,-6.666667E-1,-1.3194444E0,1.1111112E0,1.2727273E0,-4E-1,1.5E0,-0E0,1.1445087E0,1.7065217E0,-1.25E0,1E0,-9.52381E-2,1.5294118E0,-1.4482758E0,1E0,-9.4736844E-1,8E-1,1.4117647E0,-5E-1,-1.4594594E0,3.3333334E-1,1.25E0,-5.714286E-1,-1.0669371E0,7.4074075E-2,-1.5502249E0,1E0,1.6E0,-0E0,4E-1,-1.3846154E0,9.508197E-1,-1.1111112E0,-1.2E0,1E0,-1.0588236E0,6.1538464E-1,-1.7777778E0,-0E0,1.113924E0,-4E-1,-7.848101E-1,1.25E0,1.7333333E0,-4E-1,-1.7101449E0,2.2222222E-1,1.1111112E0,-5.4545456E-1,1.4E0,-6.666667E-1],"categories":[],"categories_nodes":[],"categories_segments":[],"categories_sizes":[],"default_left":[1,1,1,1,1,1,1,1,1,1,1,1,1,1,1,1,1,1,1,1,1,1,1,1,1,1,1,1,1,1,1,1,1,1,1,1,1,1,0,1,1,1,1,1,1,1,1,1,1,1,1,1,1,1,1,1,1,1,0,1,1,1,0,0,0,0,0,0,0,0,0,0,0,0,0,0,0,0,0,0,0,0,0,0,0,0,0,0,0,0,0,0,0,0,0,0,0,0,0,0,0,0,0,0,0,0,0,0,0,0,0,0,0,0,0,0,0,0,0,0,0],"id":0,"left_children":[1,3,5,7,9,11,13,15,17,19,21,23,25,27,29,31,33,35,37,39,41,43,45,47,49,51,53,55,57,59,61,63,65,67,69,71,73,75,-1,77,79,81,83,85,87,89,91,93,95,97,99,101,103,105,107,109,111,113,-1,115,117,119,-1,-1,-1,-1,-1,-1,-1,-1,-1,-1,-1,-1,-1,-1,-1,-1,-1,-1,-1,-1,-1,-1,-1,-1,-1,-1,-1,-1,-1,-1,-1,-1,-1,-1,-1,-1,-1,-1,-1,-1,-1,-1,-1,-1,-1,-1,-1,-1,-1,-1,-1,-1,-1,-1,-1,-1,-1,-1,-1],"loss_changes":[3.0085498E2,1.863178E2,1.7237433E2,1.1789749E2,4.403064E1,7.3129974E1,6.0061802E1,1.2025296E2,1.631636E1,3.3316986E1,1.0253577E1,5.8064056E1,2.7634958E1,2.2185658E1,1.4253866E1,4.4513874E1,2.008171E1,1.239711E1,8.017777E0,1.835022E1,1.2596045E1,8.838537E0,9.885445E0,2.7753784E1,1.0491547E1,1.1009267E1,1.110564E1,2.6516962E1,7.068054E0,9.244347E0,7.6335487E0,3.7982857E1,7.9040947E0,1.2678787E1,8.394558E0,1.1316124E1,3.3839574E0,1.8000002E0,0E0,1.2013397E1,6.45E0,5.753501E0,8.449322E0,4.8631577E0,4.704335E0,6.147148E0,6.0082417E0,2.1816856E1,1.0528961E1,2.2588234E0,7.5398602E0,8.233437E0,6.533333E0,7.200603E0,2.8444443E0,1.5698372E1,1.3568403E1,7.906311E0,0E0,5.1009254E0,3.3459594E0,5.96E0,0E0,0E0,0E0,0E0,0E0,0E0,0E0,0E0,0E0,0E0,0E0,0E0,0E0,0E0,0E0,0E0,0E0,0E0,0E0,0E0,0E0,0E0,0E0,0E0,0E0,0E0,0E0,0E0,0E0,0E0,0E0,0E0,0E0,0E0,0E0,0E0,0E0,0E0,0E0,0E0,0E0,0E0,0E0,0E0,0E0,0E0,0E0,0E0,0E0,0E0,0E0,0E0,0E0,0E0,0E0,0E0,0E0,0E0,0E0],"parents":[2147483647,0,0,1,1,2,2,3,3,4,4,5,5,6,6,7,7,8,8,9,9,10,10,11,11,12,12,13,13,14,14,15,15,16,16,17,17,18,18,19,19,20,20,21,21,22,22,23,23,24,24,25,25,26,26,27,27,28,28,29,29,30,30,31,31,32,32,33,33,34,34,35,35,36,36,37,37,39,39,40,40,41,41,42,42,43,43,44,44,45,45,46,46,47,47,48,48,49,49,50,50,51,51,52,52,53,53,54,54,55,55,56,56,57,57,59,59,60,60,61,61],"right_children":[2,4,6,8,10,12,14,16,18,20,22,24,26,28,30,32,34,36,38,40,42,44,46,48,50,52,54,56,58,60,62,64,66,68,70,72,74,76,-1,78,80,82,84,86,88,90,92,94,96,98,100,102,104,106,108,110,112,114,-1,116,118,120,-1,-1,-1,-1,-1,-1,-1,-1,-1,-1,-1,-1,-1,-1,-1,-1,-1,-1,-1,-1,-1,-1,-1,-1,-1,-1,-1,-1,-1,-1,-1,-1,-1,-1,-1,-1,-1,-1,-1,-1,-1,-1,-1,-1,-1,-1,-1,-1,-1,-1,-1,-1,-1,-1,-1,-1,-1,-1,-1],"split_conditions":[5E-1,5E-1,1.5E0,1.5E0,1.5E0,1.5E0,4.5E0,5E-1,3.5E0,1.5E0,1.5E0,4.5E0,2.5E0,4.5E0,5.5E0,1.5E0,2.5E0,5E-1,1.5E0,3.5E0,1.5E0,2.5E0,5E-1,1.5E0,1.5E0,5E-1,5E-1,5E-1,5E-1,5.5E0,8.5E0,5E-1,5E-1,5E-1,1.5E0,5E-1,5E-1,2.5E0,-3.3333337E-1,1.5E0,4.5E0,3.5E0,5E-1,5E-1,1E0,2.5E0,5E-1,5E-1,1.5E0,3.5E0,5E-1,5E-1,2.5E0,1.5E0,5E-1,3.5E0,5E-1,5E-1,-1.20000005E-1,5E-1,1.5E0,5E-1,-3.6E-1,1.1484475E-2,-2.888889E-1,4.5333335E-1,-2.0000002E-1,3.7692308E-1,-1.7142858E-2,3.4285718E-1,-2.0000002E-1,-3.9583334E-1,3.3333337E-1,3.818182E-1,-1.20000005E-1,4.5000002E-1,-0E0,3.4335262E-1,5.119566E-1,-3.75E-1,3E-1,-2.857143E-2,4.5882356E-1,-4.3448275E-1,3E-1,-2.8421053E-1,2.4000001E-1,4.2352945E-1,-1.5E-1,-4.3783784E-1,1.0000001E-1,3.75E-1,-1.7142859E-1,-3.2008114E-1,2.2222223E-2,-4.6506748E-1,3E-1,4.8000002E-1,-0E0,1.20000005E-1,-4.1538465E-1,2.8524593E-1,-3.3333337E-1,-3.6E-1,3E-1,-3.176471E-1,1.846154E-1,-5.3333336E-1,-0E0,3.3417723E-1,-1.20000005E-1,-2.3544304E-1,3.75E-1,5.2000004E-1,-1.20000005E-1,-5.1304346E-1,6.666667E-2,3.3333337E-1,-1.6363637E-1,4.2000002E-1,-2.0000002E-1],"split_indices":[2063,2135,2135,2053,2053,1130,2063,2128,1130,1103,1306,2128,2053,2135,2135,1130,1103,1129,988,2167,2527,4341,3728,1306,2527,1686,1321,1314,1026,4970,2063,2053,27,1794,2698,1881,4610,139,0,2135,1357,3460,243,1130,3033,3323,4857,4426,265,163,81,619,2128,127,3892,2053,3816,2536,0,709,47,3041,0,0,0,0,0,0,0,0,0,0,0,0,0,0,0,0,0,0,0,0,0,0,0,0,0,0,0,0,0,0,0,0,0,0,0,0,0,0,0,0,0,0,0,0,0,0,0,0,0,0,0,0,0,0,0,0,0,0,0],"split_type":[0,0,0,0,0,0,0,0,0,0,0,0,0,0,0,0,0,0,0,0,0,0,0,0,0,0,0,0,0,0,0,0,0,0,0,0,0,0,0,0,0,0,0,0,0,0,0,0,0,0,0,0,0,0,0,0,0,0,0,0,0,0,0,0,0,0,0,0,0,0,0,0,0,0,0,0,0,0,0,0,0,0,0,0,0,0,0,0,0,0,0,0,0,0,0,0,0,0,0,0,0,0,0,0,0,0,0,0,0,0,0,0,0,0,0,0,0,0,0,0,0],"sum_hessian":[1.59225E3,1.0895E3,5.0275E2,8.6475E2,2.2475E2,3.7925E2,1.235E2,7.84E2,8.075E1,1.9525E2,2.95E1,3.2575E2,5.35E1,9.625E1,2.725E1,6.49E2,1.35E2,7.55E1,5.25E0,1.805E2,1.475E1,1.375E1,1.575E1,3.0825E2,1.75E1,3.575E1,1.775E1,6.8E1,2.825E1,2.05E1,6.75E0,6.2625E2,2.275E1,1.2375E2,1.125E1,7.225E1,3.25E0,4E0,1.25E0,1.765E2,4E0,7.5E0,7.25E0,5.25E0,8.5E0,1.025E1,5.5E0,1.415E2,1.6675E2,7.5E0,1E1,3.075E1,5E0,8.75E0,9E0,4.625E1,2.175E1,2.675E1,1.5E0,1.75E1,3E0,5.25E0,1.5E0,5.8675E2,3.95E1,2.15E1,1.25E0,1.16E2,7.75E0,2.5E0,8.75E0,7.1E1,1.25E0,1.75E0,1.5E0,3E0,1E0,8.55E1,9.1E1,3E0,1E0,4.25E0,3.25E0,6.25E0,1E0,3.75E0,1.5E0,7.5E0,1E0,8.25E0,2E0,3E0,2.5E0,1.2225E2,1.925E1,1.6575E2,1E0,6.5E0,1E0,7.75E0,2.25E0,2.95E1,1.25E0,4E0,1E0,3.25E0,5.5E0,8E0,1E0,3.85E1,7.75E0,1.875E1,3E0,2.525E1,1.5E0,1.625E1,1.25E0,1.25E0,1.75E0,4E0,1.25E0],"tree_param":{"num_deleted":"0","num_feature":"5000","num_nodes":"121","size_leaf_vector":"0"}},{"base_weights":[1.431542E-3,1.203209E-1,-9.0069276E-1,-6.4433984E-2,6.8434113E-1,-1.0869381E0,1.6363664E-1,3.5966586E-2,-8.496764E-1,8.2140535E-1,-3.0105263E-1,-1.1820852E0,6.556778E-1,3.5772562E-1,-1.3270593E0,-1.05509676E-1,6.3462836E-1,-9.11702E-1,1.3349344E0,8.684397E-1,-9.944681E-1,-6.5639853E-1,7.7393466E-1,-1.220692E0,5.2567244E-1,1.3224894E0,-2.0939723E-1,7.1780986E-1,-7.922188E-1,1.7374203E-2,-9.126765E-1,7.556366E-1,-4.366407E-1,-9.743647E-1,7.980031E-1,6.9324034E-1,1.2340811E0,-1.4587152E0,1.7832403E-1,-9.632972E-1,4.258917E-1,1.1971732E0,-9.648807E-1,-1.2745289E0,6.0835656E-2,1.1817235E0,-5.145637E-1,-8.5257196E-1,8.940761E-1,9.660372E-1,-9.0748346E-1,3.571825E-1,-1.3522966E0,6.765626E-2,-1.0194677E0,-9.6383065E-1,9.2445654E-1,8.522153E-1,-2.976434E-1,-7.4872505E-3,-1.4831504E0,-1.0434629E0,2.0206746E-1,1.436846E0,-5.520792E-1,7.3878765E-1,-1.0892313E0,1.2711153E0,-8.905458E-1,-1.1891687E0,4.752996E-1,9.5784086E-1,-1.113306E0,1.4075695E0,-1.1018304E-1,-1.3557733E0,-4.590356E-1,5.7370347E-1,-1.0732751E0,-1.1027893E0,-2.1074942E-1,1.1791981E0,-8.3937174E-1],"categories":[],"categories_nodes":[],"categories_segments":[],"categories_sizes":[],"default_left":[1,1,1,1,1,1,1,1,1,1,1,1,1,1,0,1,1,1,0,1,1,1,1,1,1,0,1,1,1,1,1,1,1,1,1,1,1,0,0,1,1,1,0,1,1,0,0,1,0,1,0,0,0,0,0,0,0,0,0,0,0,0,0,0,0,0,0,0,0,0,0,0,0,0,0,0,0,0,0,0,0,0,0],"id":1,"left_children":[1,3,5,7,9,11,13,15,17,19,21,23,25,27,-1,29,31,33,-1,35,37,39,41,43,45,-1,47,49,51,53,55,57,59,61,63,65,67,-1,-1,69,71,73,-1,75,77,-1,-1,79,-1,81,-1,-1,-1,-1,-1,-1,-1,-1,-1,-1,-1,-1,-1,-1,-1,-1,-1,-1,-1,-1,-1,-1,-1,-1,-1,-1,-1,-1,-1,-1,-1,-1,-1],"loss_changes":[1.6703383E2,1.4343355E2,3.6125336E1,8.1819115E1,4.6115845E1,2.6386765E1,8.540179E0,7.805276E1,1.715841E1,2.6350235E1,1.6628809E1,1.0322266E1,5.261183E0,1.1108084E1,0E0,7.3972496E1,2.3164162E1,1.3097298E1,0E0,1.7812134E1,4.6160307E0,1.1125039E1,9.208726E0,1.0004532E1,3.3002799E0,0E0,4.044359E0,8.9083605E0,4.6963143E0,3.3856728E1,1.0151016E1,1.6390678E1,8.302622E0,9.264664E0,4.7739687E0,1.6984558E1,8.4587555E0,0E0,0E0,8.831167E0,7.469153E0,2.6987066E0,0E0,8.529251E0,4.5449424E0,0E0,0E0,3.189838E-1,0E0,7.8225327E0,0E0,0E0,0E0,0E0,0E0,0E0,0E0,0E0,0E0,0E0,0E0,0E0,0E0,0E0,0E0,0E0,0E0,0E0,0E0,0E0,0E0,0E0,0E0,0E0,0E0,0E0,0E0,0E0,0E0,0E0,0E0,0E0,0E0],"parents":[2147483647,0,0,1,1,2,2,3,3,4,4,5,5,6,6,7,7,8,8,9,9,10,10,11,11,12,12,13,13,15,15,16,16,17,17,19,19,20,20,21,21,22,22,23,23,24,24,26,26,27,27,28,28,29,29,30,30,31,31,32,32,33,33,34,34,35,35,36,36,39,39,40,40,41,41,43,43,44,44,47,47,49,49],"right_children":[2,4,6,8,10,12,14,16,18,20,22,24,26,28,-1,30,32,34,-1,36,38,40,42,44,46,-1,48,50,52,54,56,58,60,62,64,66,68,-1,-1,70,72,74,-1,76,78,-1,-1,80,-1,82,-1,-1,-1,-1,-1,-1,-1,-1,-1,-1,-1,-1,-1,-1,-1,-1,-1,-1,-1,-1,-1,-1,-1,-1,-1,-1,-1,-1,-1,-1,-1,-1,-1],"split_conditions":[2.5E0,5E-1,3.5E0,1.5E0,2.5E0,5.5E0,1.5E0,5E-1,1.05E1,5E-1,2.5E0,5E-1,5E-1,1.5E0,-3.981178E-1,5E-1,3.5E0,5E-1,4.0048033E-1,2.5E0,5E-1,3.5E0,1.5E0,5E-1,5E-1,3.9674684E-1,1.5E0,2.5E0,3.5E0,1.5E0,1.5E0,5E-1,5E-1,5E-1,1.5E0,3.5E0,5E-1,-4.376146E-1,5.349721E-2,1.5E0,1.25E1,5E-1,-2.8946424E-1,1.5E0,5E-1,3.5451704E-1,-1.5436912E-1,1.5E0,2.6822284E-1,5E-1,-2.7224505E-1,1.0715476E-1,-4.05689E-1,2.029688E-2,-3.058403E-1,-2.891492E-1,2.7733698E-1,2.556646E-1,-8.929302E-2,-2.2461752E-3,-4.4494513E-1,-3.130389E-1,6.062024E-2,4.3105382E-1,-1.6562377E-1,2.2163631E-1,-3.2676938E-1,3.813346E-1,-2.6716375E-1,-3.567506E-1,1.4258988E-1,2.8735226E-1,-3.3399183E-1,4.2227086E-1,-3.3054914E-2,-4.0673202E-1,-1.3771069E-1,1.7211105E-1,-3.2198253E-1,-3.308368E-1,-6.322483E-2,3.5375947E-1,-2.5181153E-1],"split_indices":[2063,2135,2128,2053,2053,2135,1059,2128,4896,1865,1130,1866,1217,1314,0,2063,2527,1071,0,2135,2867,2128,1721,1425,3406,0,511,2033,3460,1103,2905,2069,1798,262,988,2167,2620,0,0,2139,3616,2279,0,4426,4674,0,0,3194,0,4940,0,0,0,0,0,0,0,0,0,0,0,0,0,0,0,0,0,0,0,0,0,0,0,0,0,0,0,0,0,0,0,0,0],"split_type":[0,0,0,0,0,0,0,0,0,0,0,0,0,0,0,0,0,0,0,0,0,0,0,0,0,0,0,0,0,0,0,0,0,0,0,0,0,0,0,0,0,0,0,0,0,0,0,0,0,0,0,0,0,0,0,0,0,0,0,0,0,0,0,0,0,0,0,0,0,0,0,0,0,0,0,0,0,0,0,0,0,0,0],"sum_hessian":[1.5553712E3,1.3750256E3,1.8034557E2,1.0364152E3,3.386105E2,1.5346902E2,2.6876545E1,9.197684E2,1.1664679E2,2.9740863E2,4.1201893E1,1.4582843E2,7.640593E0,2.4452812E1,2.4237342E0,7.446224E2,1.7514604E2,1.1399296E2,2.6538248E0,2.904083E2,7.0003376E0,3.1258522E1,9.943372E0,1.428835E2,2.9449272E0,4.0161405E0,3.6244526E0,1.8907925E1,5.5448866E0,6.470876E2,9.7534775E1,1.5763461E2,1.7511425E1,1.1037759E2,3.6153736E0,1.982916E2,9.211669E1,4.840457E0,2.1598804E0,2.4438566E1,6.819955E0,8.247402E0,1.6959691E0,1.3712822E2,5.755279E0,1.7225459E0,1.2223814E0,2.4334543E0,1.1909983E0,1.6754648E1,2.1532764E0,1.9353633E0,3.609523E0,6.1804974E2,2.903782E1,9.535502E1,2.1797554E0,1.4456944E2,1.3065159E1,1.3132993E1,4.3784328E0,1.0436094E2,6.0166516E0,2.4104917E0,1.2048818E0,1.9392186E2,4.3697405E0,9.0933365E1,1.1833266E0,2.1272062E1,3.1665046E0,5.349025E0,1.4709301E0,7.038091E0,1.2093112E0,1.24101906E2,1.302632E1,4.303354E0,1.4519254E0,1.2341143E0,1.1993401E0,1.5295583E1,1.4590657E0],"tree_param":{"num_deleted":"0","num_feature":"5000","num_nodes":"83","size_leaf_vector":"0"}},{"base_weights":[-1.070159E-3,1.1009054E-1,-6.336651E-1,-2.3002509E-2,5.1579076E-1,-7.449821E-1,1.1911882E-1,1.09545544E-1,-5.6703293E-1,7.9310316E-1,1.18990995E-1,-5.7511073E-1,-1.205942E0,3.9151537E-1,-8.4726346E-1,-2.0849295E-3,5.2763367E-1,-6.334285E-1,7.0172906E-1,9.138659E-1,-1.04385E-1,-2.2614135E-1,5.6882477E-1,-7.140784E-1,3.6232856E-1,-1.2674749E0,4.780044E-1,6.2467307E-1,-6.2207067E-1,-1.2485015E0,7.190575E-1,6.584741E-2,-5.15257E-1,7.32389E-1,-1.0818553E-1,-7.1210366E-1,3.3365148E-1,1.0694755E0,-8.1980234E-1,1.0294219E0,-1.2184844E-2,-4.8798996E-1,9.184709E-1,-3.877348E-1,8.3492273E-1,7.8118217E-1,-5.181645E-1,-8.3655393E-1,2.742004E-1,-7.57674E-1,8.209182E-1,-1.3267069E0,3.9742053E-2,7.891312E-1,-1.0567268E0,-1.299717E0,3.8988152E-1,-1.5716419E0,-1.0957316E-1,-9.926214E-3,7.1515614E-1,-6.534989E-1,1.2976103E0,6.0212535E-1,1.5347271E0,-3.8087177E-1,1.294444E0,-7.714418E-1,6.2975E-1,8.830016E-1,-5.393345E-1,1.4037095E0,-3.462567E-1,7.6611084E-1,1.2544371E0,-7.2973025E-1,5.972999E-1,-7.9275393E-1,8.9006627E-1,1.2793912E0,-3.878487E-1,-5.0459087E-1,1.0917808E0,1.2161989E0,-7.3947436E-1,8.949089E-1,-1.0268545E0,-8.552916E-1,6.421386E-1,-8.753583E-1,1.2657275E0,6.588012E-1,-8.265098E-1,-1.4861393E0,5.814995E-1,1.0289928E0,-6.76581E-1,-1.3764318E0,-6.612859E-2,7.775474E-1,-7.34045E-1,9.2957294E-1,-7.682534E-1],"categories":[],"categories_nodes":[],"categories_segments":[],"categories_sizes":[],"default_left":[1,1,1,1,1,1,1,1,1,1,1,1,1,1,1,1,1,1,1,1,1,1,1,1,1,1,0,1,1,1,0,1,1,1,1,1,1,1,0,1,1,1,1,1,1,1,1,1,1,1,1,1,1,1,0,0,0,0,0,0,0,0,0,0,0,0,0,0,0,0,0,0,0,0,0,0,0,0,0,0,0,0,0,0,0,0,0,0,0,0,0,0,0,0,0,0,0,0,0,0,0,0,0],"id":2,"left_children":[1,3,5,7,9,11,13,15,17,19,21,23,25,27,29,31,33,35,37,39,41,43,45,47,49,51,-1,53,55,57,-1,59,61,63,65,67,69,71,-1,73,75,77,79,81,83,85,87,89,91,93,95,97,99,101,-1,-1,-1,-1,-1,-1,-1,-1,-1,-1,-1,-1,-1,-1,-1,-1,-1,-1,-1,-1,-1,-1,-1,-1,-1,-1,-1,-1,-1,-1,-1,-1,-1,-1,-1,-1,-1,-1,-1,-1,-1,-1,-1,-1,-1,-1,-1,-1,-1],"loss_changes":[1.0565902E2,6.901811E1,1.8907112E1,6.952283E1,3.464808E1,1.4636566E1,8.174158E0,3.618939E1,1.6355206E1,2.0219109E1,2.0476124E1,1.9144466E1,5.9740524E0,6.042677E0,5.2134714E0,2.1403011E1,2.13525E1,1.3933403E1,6.397623E0,1.7535995E1,9.440542E0,1.3162163E1,1.3604618E1,1.5551842E1,1.05756855E1,3.943924E0,0E0,6.3503766E0,3.9185524E0,1.9742155E0,0E0,2.6683989E1,1.883506E1,1.2007599E1,1.605033E1,1.3765602E1,7.297391E0,4.4514275E0,0E0,7.6655426E0,8.813072E0,7.9797573E0,3.6068707E0,1.19034815E1,7.0301642E0,1.0837559E1,4.4402E0,1.0316345E1,6.772338E0,6.863638E0,5.1300125E0,2.924347E0,2.3687265E0,4.814026E0,0E0,0E0,0E0,0E0,0E0,0E0,0E0,0E0,0E0,0E0,0E0,0E0,0E0,0E0,0E0,0E0,0E0,0E0,0E0,0E0,0E0,0E0,0E0,0E0,0E0,0E0,0E0,0E0,0E0,0E0,0E0,0E0,0E0,0E0,0E0,0E0,0E0,0E0,0E0,0E0,0E0,0E0,0E0,0E0,0E0,0E0,0E0,0E0,0E0],"parents":[2147483647,0,0,1,1,2,2,3,3,4,4,5,5,6,6,7,7,8,8,9,9,10,10,11,11,12,12,13,13,14,14,15,15,16,16,17,17,18,18,19,19,20,20,21,21,22,22,23,23,24,24,25,25,27,27,28,28,29,29,31,31,32,32,33,33,34,34,35,35,36,36,37,37,39,39,40,40,41,41,42,42,43,43,44,44,45,45,46,46,47,47,48,48,49,49,50,50,51,51,52,52,53,53],"right_children":[2,4,6,8,10,12,14,16,18,20,22,24,26,28,30,32,34,36,38,40,42,44,46,48,50,52,-1,54,56,58,-1,60,62,64,66,68,70,72,-1,74,76,78,80,82,84,86,88,90,92,94,96,98,100,102,-1,-1,-1,-1,-1,-1,-1,-1,-1,-1,-1,-1,-1,-1,-1,-1,-1,-1,-1,-1,-1,-1,-1,-1,-1,-1,-1,-1,-1,-1,-1,-1,-1,-1,-1,-1,-1,-1,-1,-1,-1,-1,-1,-1,-1,-1,-1,-1,-1],"split_conditions":[3.5E0,5E-1,2.5E0,5E-1,5E-1,2.5E0,5E-1,5E-1,3.5E0,1.5E0,1.5E0,1.5E0,5E-1,1.5E0,9.5E0,1.5E0,5E-1,3.5E0,5E-1,5E-1,5E-1,1.5E0,4.5E0,5E-1,5E-1,5E-1,1.4340132E-1,5E-1,5E-1,5E-1,2.1571726E-1,5E-1,5E-1,5E-1,3.5E0,5E-1,2.5E0,5E-1,-2.4594072E-1,5E-1,4.5E0,5E-1,5E-1,4.5E0,5E-1,5E-1,5E-1,1.5E0,5E-1,5E-1,5E-1,4.5E0,5E-1,5E-1,-3.1701806E-1,-3.899151E-1,1.1696446E-1,-4.714926E-1,-3.287195E-2,-2.9778644E-3,2.1454684E-1,-1.9604968E-1,3.892831E-1,1.8063761E-1,4.6041813E-1,-1.1426154E-1,3.883332E-1,-2.3143256E-1,1.8892501E-1,2.649005E-1,-1.6180035E-1,4.2111287E-1,-1.03877015E-1,2.2983326E-1,3.7633115E-1,-2.1891908E-1,1.7918997E-1,-2.3782618E-1,2.670199E-1,3.8381737E-1,-1.16354614E-1,-1.5137726E-1,3.2753426E-1,3.648597E-1,-2.2184232E-1,2.6847267E-1,-3.0805635E-1,-2.565875E-1,1.9264159E-1,-2.6260749E-1,3.7971827E-1,1.9764037E-1,-2.4795294E-1,-4.4584182E-1,1.7444986E-1,3.0869785E-1,-2.0297432E-1,-4.1292956E-1,-1.9838577E-2,2.3326424E-1,-2.2021352E-1,2.788719E-1,-2.3047602E-1],"split_indices":[1306,2135,2135,2063,2053,2063,2341,2919,1130,1103,2128,1130,91,2375,3145,2527,2053,2128,1922,2069,4426,2139,2063,705,194,1200,0,4523,579,1130,0,2128,262,2184,2128,4745,2527,445,0,1357,4341,681,911,1130,1686,1878,562,2182,1463,86,4854,2128,1516,2433,0,0,0,0,0,0,0,0,0,0,0,0,0,0,0,0,0,0,0,0,0,0,0,0,0,0,0,0,0,0,0,0,0,0,0,0,0,0,0,0,0,0,0,0,0,0,0,0,0],"split_type":[0,0,0,0,0,0,0,0,0,0,0,0,0,0,0,0,0,0,0,0,0,0,0,0,0,0,0,0,0,0,0,0,0,0,0,0,0,0,0,0,0,0,0,0,0,0,0,0,0,0,0,0,0,0,0,0,0,0,0,0,0,0,0,0,0,0,0,0,0,0,0,0,0,0,0,0,0,0,0,0,0,0,0,0,0,0,0,0,0,0,0,0,0,0,0,0,0,0,0,0,0,0,0],"sum_hessian":[1.5005602E3,1.276991E3,2.2356915E2,9.622582E2,3.1473285E2,1.9477708E2,2.879207E1,7.74385E2,1.8787318E2,1.8467195E2,1.3006088E2,1.4396954E2,5.0807537E1,2.2925007E1,5.8670635E0,6.1198E2,1.6240501E2,1.7900636E2,8.866829E0,1.627541E2,2.1917852E1,7.38767E1,5.6184185E1,1.2559011E2,1.8379438E1,4.925503E1,1.5525024E0,1.8949669E1,3.9753387E0,4.832142E0,1.0349219E0,5.41208E2,7.077198E1,1.22729935E2,3.967507E1,1.6578302E2,1.322334E1,7.380182E0,1.4866471E0,1.4459889E2,1.8155209E1,1.6320164E1,5.597689E0,6.466344E1,9.21326E0,4.7237137E1,8.94705E0,1.11878716E2,1.3711391E1,5.1498647E0,1.3229574E1,4.7105694E1,2.14934E0,1.7744722E1,1.2049457E0,2.2106364E0,1.7647023E0,3.468202E0,1.3639398E0,4.855317E2,5.5676308E1,6.635178E1,4.4201956E0,1.0709327E2,1.5636665E1,3.3827168E1,5.8479056E0,1.5916948E2,6.613545E0,8.1090355E0,5.114304E0,5.9774776E0,1.4027041E0,6.865915E1,7.593974E1,8.247798E0,9.90741E0,1.3712341E1,2.6078217E0,4.4020658E0,1.1956236E0,6.0540718E1,4.12272E0,7.6002097E0,1.6130497E0,4.4916874E1,2.3202627E0,7.1364274E0,1.8106232E0,1.104241E2,1.454615E0,1.0458535E1,3.252856E0,3.264398E0,1.8854663E0,1.18903E1,1.3392748E0,4.5229656E1,1.8760378E0,1.0977635E0,1.0515764E0,1.6646679E1,1.0980437E0],"tree_param":{"num_deleted":"0","num_feature":"5000","num_nodes":"103","size_leaf_vector":"0"}},{"base_weights":[4.7511334E-4,8.1842124E-2,-6.3162744E-1,2.3045352E-2,7.9349804E-1,-7.318444E-1,5.612964E-1,8.625876E-2,-6.503792E-1,9.049807E-1,-9.074996E-1,-8.020746E-1,1.0347989E0,1.0407004E0,-5.7028085E-1,-8.1894395E-4,5.7537293E-1,-8.743713E-1,2.7461361E-2,9.5794535E-1,-6.839955E-1,-1.2428352E0,4.166765E-1,-9.239051E-1,1.9136539E-1,1.18099E0,1.4240429E-1,1.2855552E0,-1.3392182E-1,-1.0991958E0,5.876355E-1,1.4851698E-1,-2.484885E-1,7.817469E-1,-6.103419E-2,-9.48105E-1,7.2481775E-1,3.7556455E-1,-9.576936E-1,1.0209807E0,-3.028503E-1,-1.3309925E0,4.273892E-1,-1.5566012E0,4.7536165E-2,-9.5660704E-1,1.3634374E0,7.928177E-1,-9.0464085E-1,1.3743168E0,3.4848452E-1,6.0245845E-2,7.474916E-1,-3.782119E-1,4.3973804E-1,8.3579266E-1,-6.6286486E-1,-6.8046147E-1,3.5366458E-1,-1.0064477E0,4.8687398E-1,-3.51581E-1,1.2647281E0,1.0340472E0,-2.4745181E-1,-1.4145346E0,5.703665E-1,1.0599301E0,-5.6615216E-1,-8.732645E-1,5.976859E-1,-9.884524E-1,1.1229299E0,1.2045641E0,-5.820255E-1,-1.2631855E0,4.2051032E-1],"categories":[],"categories_nodes":[],"categories_segments":[],"categories_sizes":[],"default_left":[1,1,1,1,1,1,1,1,1,1,1,1,1,1,1,1,1,1,1,1,1,1,0,1,1,0,0,1,0,0,0,1,1,1,1,1,1,1,1,1,1,0,0,0,0,1,0,1,1,0,0,0,0,0,0,0,0,0,0,0,0,0,0,0,0,0,0,0,0,0,0,0,0,0,0,0,0],"id":3,"left_children":[1,3,5,7,9,11,13,15,17,19,21,23,25,27,29,31,33,35,37,39,41,43,-1,45,47,-1,-1,49,-1,-1,-1,51,53,55,57,59,61,63,65,67,69,-1,-1,-1,-1,71,-1,73,75,-1,-1,-1,-1,-1,-1,-1,-1,-1,-1,-1,-1,-1,-1,-1,-1,-1,-1,-1,-1,-1,-1,-1,-1,-1,-1,-1,-1],"loss_changes":[7.435458E1,5.3574425E1,2.0121338E1,5.0462105E1,1.9350956E1,1.975441E1,7.831991E0,4.6141823E1,1.5469437E1,8.415115E0,3.4083743E0,1.7999817E1,6.495905E-1,2.9696255E0,3.473415E0,3.4087482E1,2.155109E1,9.706646E0,9.356976E0,7.4338455E0,3.1270547E0,2.278637E0,0E0,1.1128929E1,1.1867398E1,0E0,0E0,1.9837856E-1,0E0,0E0,0E0,3.0354286E1,3.1117254E1,1.0212387E1,1.077757E1,6.6479645E0,2.7333086E0,8.503612E0,5.7853274E0,5.892128E0,3.1107955E0,0E0,0E0,0E0,0E0,9.724411E0,0E0,7.1852837E0,3.6006918E0,0E0,0E0,0E0,0E0,0E0,0E0,0E0,0E0,0E0,0E0,0E0,0E0,0E0,0E0,0E0,0E0,0E0,0E0,0E0,0E0,0E0,0E0,0E0,0E0,0E0,0E0,0E0,0E0],"parents":[2147483647,0,0,1,1,2,2,3,3,4,4,5,5,6,6,7,7,8,8,9,9,10,10,11,11,12,12,13,13,14,14,15,15,16,16,17,17,18,18,19,19,20,20,21,21,23,23,24,24,27,27,31,31,32,32,33,33,34,34,35,35,36,36,37,37,38,38,39,39,40,40,45,45,47,47,48,48],"right_children":[2,4,6,8,10,12,14,16,18,20,22,24,26,28,30,32,34,36,38,40,42,44,-1,46,48,-1,-1,50,-1,-1,-1,52,54,56,58,60,62,64,66,68,70,-1,-1,-1,-1,72,-1,74,76,-1,-1,-1,-1,-1,-1,-1,-1,-1,-1,-1,-1,-1,-1,-1,-1,-1,-1,-1,-1,-1,-1,-1,-1,-1,-1,-1,-1],"split_conditions":[5E-1,5E-1,3.5E0,2.5E0,2.5E0,5.5E0,3.5E0,5E-1,2.5E0,5E-1,1.5E0,1.5E0,2.5E0,5E-1,2.5E0,5E-1,1.5E0,5E-1,5E-1,4.5E0,1.5E0,5E-1,1.2500295E-1,5E-1,1.5E0,3.54297E-1,4.2721286E-2,2.5E0,-4.0176548E-2,-3.2975876E-1,1.7629066E-1,5E-1,1.5E0,3.5E0,1.5E0,1.05E1,5E-1,4.5E0,5E-1,2.5E0,5E-1,-3.9929774E-1,1.2821677E-1,-4.6698037E-1,1.426085E-2,1.5E0,4.0903124E-1,2.5E0,5E-1,4.1229507E-1,1.0454536E-1,1.8073754E-2,2.2424749E-1,-1.1346357E-1,1.3192141E-1,2.5073782E-1,-1.9885947E-1,-2.0413844E-1,1.06099375E-1,-3.019343E-1,1.460622E-1,-1.0547431E-1,3.7941843E-1,3.102142E-1,-7.423554E-2,-4.243604E-1,1.7110996E-1,3.1797904E-1,-1.6984566E-1,-2.6197937E-1,1.7930576E-1,-2.9653573E-1,3.36879E-1,3.6136925E-1,-1.7460766E-1,-3.7895566E-1,1.261531E-1],"split_indices":[2069,2139,1130,2053,4256,2135,2053,1130,2128,1738,4387,2133,139,3451,4719,2527,1103,609,4414,2063,4762,3871,0,706,2053,0,0,1100,0,0,0,2128,2128,2063,1130,4896,4317,2053,4604,762,4800,0,0,0,0,159,0,3194,3928,0,0,0,0,0,0,0,0,0,0,0,0,0,0,0,0,0,0,0,0,0,0,0,0,0,0,0,0],"split_type":[0,0,0,0,0,0,0,0,0,0,0,0,0,0,0,0,0,0,0,0,0,0,0,0,0,0,0,0,0,0,0,0,0,0,0,0,0,0,0,0,0,0,0,0,0,0,0,0,0,0,0,0,0,0,0,0,0,0,0,0,0,0,0,0,0,0,0,0,0,0,0,0,0,0,0,0,0],"sum_hessian":[1.4436738E3,1.2798025E3,1.6387126E2,1.1830885E3,9.6714E1,1.5152798E2,1.2343281E1,1.0823607E3,1.0072777E2,9.120447E1,5.5095344E0,1.4625964E2,5.268342E0,8.726516E0,3.6167657E0,9.1963513E2,1.6272563E2,7.5491646E1,2.523612E1,8.8646774E1,2.5576913E0,4.4452443E0,1.0642898E0,1.3034482E2,1.5914835E1,4.248898E0,1.0194438E0,7.1430717E0,1.5834436E0,2.5175207E0,1.0992451E0,5.7395874E2,3.4567636E2,1.2270614E2,4.0019497E1,7.255356E1,2.9380877E0,1.9104387E1,6.1317334E0,8.460693E1,4.0398397E0,1.4916962E0,1.0659951E0,3.409799E0,1.0354453E0,1.2908113E2,1.2636787E0,1.0454421E1,5.4604135E0,6.098772E0,1.0442997E0,5.0119763E2,7.276112E1,2.9123257E2,5.4443783E1,1.18687256E2,4.018879E0,1.5791377E1,2.4228123E1,7.000592E1,2.5476363E0,1.097954E0,1.8401337E0,8.967088E0,1.01373E1,4.77766E0,1.3540735E0,8.2904564E1,1.7023665E0,2.491786E0,1.5480537E0,1.27651E2,1.4301288E0,8.140352E0,2.3140688E0,4.3344164E0,1.1259971E0],"tree_param":{"num_deleted":"0","num_feature":"5000","num_nodes":"77","size_leaf_vector":"0"}},{"base_weights":[7.9484744E-4,1.3334474E-1,-2.67907E-1,8.7299004E-2,8.765622E-1,-3.5197252E-1,4.9510634E-1,7.007955E-3,4.3905753E-1,9.370689E-1,-9.918105E-1,-4.4205466E-1,3.8048875E-1,5.843913E-1,-1.1272031E0,8.881755E-2,-4.7083426E-1,1.874251E-1,8.572652E-1,1.1288958E0,2.6932415E-1,-5.598959E-1,3.4602523E-2,6.1289257E-1,-4.032326E-1,7.802888E-1,-2.526508E-1,4.5765594E-2,8.16199E-1,-6.035356E-1,3.2234037E-1,3.23204E-1,-6.863705E-1,9.98608E-1,-2.2785708E-2,1.255377E0,-4.5440522E-1,-1.1788388E-1,9.171914E-1,-6.599747E-1,-3.230948E-2,-1.0462746E-1,9.6934736E-1,-1.648202E-1,8.444382E-1,-7.040725E-1,1.0322851E0,8.746619E-1,-7.82404E-1,-6.157543E-1,1.0179294E0,8.305048E-2,-7.3161775E-1,9.371213E-1,-7.2039914E-1,-6.836268E-1,1.2527053E0,5.7829225E-1,-1.1190698E0,1.7784078E-1,1.0647534E0,-1.0637587E0,1.7630498E-1,1.1425222E0,-7.807742E-2,-4.0891284E-1,1.1314877E0,1.3206148E0,-4.4261074E-1,-1.1211199E0,6.642081E-1,2.4156296E-1,-1.0624646E0,1.1338335E0,9.05398E-2,-7.1968496E-1,2.6058835E-1,1.05106615E-1,-1.2681789E0,-2.4670745E-1,9.487834E-1,1.1672055E0,-1.5533961E-1,-4.4379216E-1,8.771931E-1,1.0904616E0,2.0538747E-2,-9.065017E-1,4.225249E-1,9.8256695E-1,-2.8411365E-1,-9.524524E-1,4.5025644E-1],"categories":[],"categories_nodes":[],"categories_segments":[],"categories_sizes":[],"default_left":[1,1,1,1,1,1,1,1,1,1,0,1,1,1,0,1,1,1,1,1,1,1,1,1,1,1,1,1,1,1,1,1,1,1,1,1,1,1,1,1,1,1,1,1,1,1,0,1,0,1,0,0,0,0,0,0,0,0,0,0,0,0,0,0,0,0,0,0,0,0,0,0,0,0,0,0,0,0,0,0,0,0,0,0,0,0,0,0,0,0,0,0,0],"id":4,"left_children":[1,3,5,7,9,11,13,15,17,19,-1,21,23,25,-1,27,29,31,33,35,37,39,41,43,45,47,49,51,53,55,57,59,61,63,65,67,69,71,73,75,77,79,81,83,85,87,-1,89,-1,91,-1,-1,-1,-1,-1,-1,-1,-1,-1,-1,-1,-1,-1,-1,-1,-1,-1,-1,-1,-1,-1,-1,-1,-1,-1,-1,-1,-1,-1,-1,-1,-1,-1,-1,-1,-1,-1,-1,-1,-1,-1,-1,-1],"loss_changes":[4.976686E1,3.1945396E1,2.9781895E1,2.491388E1,7.088192E0,2.7640514E1,7.3541985E0,2.8160635E1,1.7091043E1,6.5212097E0,0E0,2.087114E1,8.650354E0,7.4893274E0,0E0,1.9221237E1,1.1278473E1,1.2516979E1,7.648342E0,8.796982E0,3.4206018E0,1.5697327E1,9.8006E0,6.6184673E0,5.5443034E0,6.035076E0,4.866365E0,1.692071E1,7.049549E0,1.431987E1,6.455879E0,9.552393E0,4.829319E0,8.277279E0,4.679474E0,4.827854E0,3.5586224E0,3.3636591E0,8.023672E-1,1.3939308E1,8.373141E0,1.0077362E1,2.3529673E0,3.0321143E0,5.630739E0,2.6218429E0,0E0,4.616453E0,0E0,3.2177155E0,0E0,0E0,0E0,0E0,0E0,0E0,0E0,0E0,0E0,0E0,0E0,0E0,0E0,0E0,0E0,0E0,0E0,0E0,0E0,0E0,0E0,0E0,0E0,0E0,0E0,0E0,0E0,0E0,0E0,0E0,0E0,0E0,0E0,0E0,0E0,0E0,0E0,0E0,0E0,0E0,0E0,0E0,0E0],"parents":[2147483647,0,0,1,1,2,2,3,3,4,4,5,5,6,6,7,7,8,8,9,9,11,11,12,12,13,13,15,15,16,16,17,17,18,18,19,19,20,20,21,21,22,22,23,23,24,24,25,25,26,26,27,27,28,28,29,29,30,30,31,31,32,32,33,33,34,34,35,35,36,36,37,37,38,38,39,39,40,40,41,41,42,42,43,43,44,44,45,45,47,47,49,49],"right_children":[2,4,6,8,10,12,14,16,18,20,-1,22,24,26,-1,28,30,32,34,36,38,40,42,44,46,48,50,52,54,56,58,60,62,64,66,68,70,72,74,76,78,80,82,84,86,88,-1,90,-1,92,-1,-1,-1,-1,-1,-1,-1,-1,-1,-1,-1,-1,-1,-1,-1,-1,-1,-1,-1,-1,-1,-1,-1,-1,-1,-1,-1,-1,-1,-1,-1,-1,-1,-1,-1,-1,-1,-1,-1,-1,-1,-1,-1],"split_conditions":[1.5E0,5E-1,5E-1,5E-1,5E-1,5E-1,5E-1,5E-1,5E-1,5E-1,-2.9754317E-1,1.5E0,1.5E0,5E-1,-3.3816093E-1,5E-1,2.5E0,5E-1,5E-1,5E-1,1.5E0,5E-1,5E-1,2.5E0,5E-1,5E-1,1.5E0,5E-1,5E-1,5E-1,6E0,2.5E0,5E-1,3.5E0,5E-1,5E-1,5E-1,3.5E0,5E-1,5E-1,2.5E0,5.5E0,3.5E0,5E-1,1.5E0,5E-1,3.0968553E-1,5E-1,-2.3472121E-1,5E-1,3.0537885E-1,2.4915146E-2,-2.1948533E-1,2.811364E-1,-2.1611975E-1,-2.0508803E-1,3.758116E-1,1.7348768E-1,-3.3572096E-1,5.3352237E-2,3.1942603E-1,-3.1912762E-1,5.2891497E-2,3.427567E-1,-2.3423227E-2,-1.22673854E-1,3.3944634E-1,3.9618447E-1,-1.3278323E-1,-3.3633596E-1,1.9926244E-1,7.246889E-2,-3.1873938E-1,3.4015006E-1,2.7161941E-2,-2.159055E-1,7.8176506E-2,3.1531986E-2,-3.804537E-1,-7.401224E-2,2.8463504E-1,3.5016164E-1,-4.6601884E-2,-1.3313766E-1,2.6315793E-1,3.2713848E-1,6.1616246E-3,-2.719505E-1,1.2675747E-1,2.947701E-1,-8.52341E-2,-2.8573573E-1,1.3507694E-1],"split_indices":[1306,1133,1460,3269,1865,2311,3959,2053,4223,1100,0,2135,2053,4868,0,1331,2128,2170,2069,479,1133,2184,1882,2188,2956,4755,3767,2069,4061,487,1103,3735,3254,2527,209,932,4477,127,3965,2096,4512,2128,4450,3852,2763,4537,0,472,0,371,0,0,0,0,0,0,0,0,0,0,0,0,0,0,0,0,0,0,0,0,0,0,0,0,0,0,0,0,0,0,0,0,0,0,0,0,0,0,0,0,0,0,0],"split_type":[0,0,0,0,0,0,0,0,0,0,0,0,0,0,0,0,0,0,0,0,0,0,0,0,0,0,0,0,0,0,0,0,0,0,0,0,0,0,0,0,0,0,0,0,0,0,0,0,0,0,0,0,0,0,0,0,0,0,0,0,0,0,0,0,0,0,0,0,0,0,0,0,0,0,0,0,0,0,0,0,0,0,0,0,0,0,0,0,0,0,0,0,0],"sum_hessian":[1.3952988E3,9.347118E2,4.6058704E2,8.8123285E2,5.347896E1,4.1536285E2,4.5224186E1,7.1829706E2,1.6293579E2,5.2284206E1,1.1947526E0,3.702268E2,4.5136063E1,4.347148E1,1.7527053E0,6.139919E2,1.0430516E2,1.026314E2,6.0304394E1,4.0079678E1,1.2204528E1,2.967006E2,7.352623E1,3.498085E1,1.01552105E1,3.5282036E1,8.189445E0,5.806854E2,3.3306458E1,8.9560425E1,1.4744733E1,8.937375E1,1.3257653E1,5.1843258E1,8.461136E0,3.7306576E1,2.7731042E0,8.150999E0,4.0535293E0,2.491819E2,4.7518677E1,6.4767235E1,8.758993E0,8.091473E0,2.6889378E1,8.81698E0,1.3382307E0,3.3687866E1,1.5941706E0,6.7700815E0,1.4193628E0,5.5496155E2,2.5723917E1,3.12383E1,2.0681593E0,8.6461586E1,3.0988417E0,1.3029822E1,1.7149104E0,7.576219E1,1.3611562E1,9.0608E0,4.196854E0,4.5676765E1,6.16649E0,6.8240857E0,1.6370506E0,3.6140285E1,1.1662872E0,1.7361095E0,1.0369947E0,6.443341E0,1.707658E0,2.9173706E0,1.1361587E0,2.3420868E2,1.4973216E1,4.358718E1,3.931497E0,5.774466E1,7.0225754E0,7.416463E0,1.3425299E0,6.835537E0,1.255936E0,2.0457159E1,6.432219E0,7.6396384E0,1.1773419E0,3.09572E1,2.730666E0,5.225987E0,1.5440947E0],"tree_param":{"num_deleted":"0","num_feature":"5000","num_nodes":"93","size_leaf_vector":"0"}},{"base_weights":[1.7459869E-3,7.7596754E-2,-4.0146706E-1,2.0332871E-2,5.851571E-1,-5.335949E-1,3.0392572E-1,6.1190482E-2,-7.445842E-1,6.742086E-1,-3.2294333E-1,-6.7777115E-1,7.362339E-2,4.8629916E-1,-7.066442E-1,1.761803E-3,6.524E-1,-9.5029825E-1,-8.181638E-2,7.2638655E-1,-6.2949485E-1,-7.0953935E-1,6.999073E-1,-7.224658E-1,5.4803026E-1,5.171067E-1,-2.8443265E-1,7.447399E-1,-1.9885528E-1,-1.0530074E0,1.8090501E-1,-3.86214E-2,9.441632E-1,7.315446E-1,-7.784845E-1,-1.0954325E0,1.01082966E-1,-5.1012594E-1,1.2814815E0,7.797815E-1,-6.194736E-1,-1.1789482E0,6.688831E-1,6.1893815E-1,-1.0959673E0,1.0197889E0,-2.6315363E-2,-7.600954E-1,9.028581E-1,1.1333387E0,-7.920505E-1,7.486899E-1,-8.0239016E-1,1.3197936E-1,-7.723388E-1,8.867015E-1,-7.680088E-1,3.8157168E-1,-8.85631E-1,1.1346098E-2,-7.404304E-1,1.0971048E0,-8.2619417E-1,8.362875E-1,-1.788886E-1,1.9870946E-1,-1.2307853E0,-1.2073886E0,4.2335692E-1,7.222262E-1,-9.6641487E-1,-8.001372E-1,8.1815165E-1,8.162778E-1,-7.96156E-1,-1.0768238E0,2.3494983E-1,-1.5544264E0,8.533882E-3,-7.989504E-1,7.979244E-1,1.7620159E0,2.177509E-1,-2.6330906E-1,1.0820819E0,-2.9490605E-1,9.5669496E-1,-1.0304505E0,3.878205E-1,1.1302273E0,-5.1769537E-1,8.6612576E-1,-4.9822065E-1,-4.375354E-3,-1.2150278E0],"categories":[],"categories_nodes":[],"categories_segments":[],"categories_sizes":[],"default_left":[1,1,1,1,1,1,1,1,1,1,1,1,1,1,1,1,1,1,1,1,1,1,1,1,1,1,1,1,1,0,0,1,1,1,1,1,1,1,0,1,1,0,0,0,1,0,0,1,0,1,0,1,0,1,1,1,0,1,1,0,0,0,0,0,0,0,0,0,0,0,0,0,0,0,0,0,0,0,0,0,0,0,0,0,0,0,0,0,0,0,0,0,0,0,0],"id":5,"left_children":[1,3,5,7,9,11,13,15,17,19,21,23,25,27,29,31,33,35,37,39,41,43,45,47,49,51,53,55,57,-1,-1,59,61,63,65,67,69,71,-1,73,75,-1,-1,-1,77,-1,-1,79,-1,81,-1,83,-1,85,87,89,-1,91,93,-1,-1,-1,-1,-1,-1,-1,-1,-1,-1,-1,-1,-1,-1,-1,-1,-1,-1,-1,-1,-1,-1,-1,-1,-1,-1,-1,-1,-1,-1,-1,-1,-1,-1,-1,-1],"loss_changes":[4.1662056E1,3.3311443E1,2.0264187E1,3.2276894E1,9.614704E0,1.5985001E1,6.732119E0,3.4428997E1,7.062374E0,7.677952E0,4.867551E0,8.460083E0,5.836194E0,5.4525323E0,1.9448645E0,3.396216E1,1.0705589E1,6.194687E0,8.535869E0,7.85091E0,4.0849066E0,5.0513115E0,8.481072E-1,9.398224E0,5.4051323E0,5.5997267E0,4.260438E0,5.3974724E0,3.923149E0,0E0,0E0,3.0018263E1,1.0834991E1,8.286678E0,2.532119E0,6.4827423E0,4.5117826E0,4.887E0,0E0,6.347286E0,1.9996257E0,0E0,0E0,0E0,3.5374727E0,0E0,0E0,9.098381E0,0E0,2.155385E0,0E0,5.154896E0,0E0,4.470652E0,3.2656446E0,7.610735E0,0E0,2.807456E0,1.2779396E0,0E0,0E0,0E0,0E0,0E0,0E0,0E0,0E0,0E0,0E0,0E0,0E0,0E0,0E0,0E0,0E0,0E0,0E0,0E0,0E0,0E0,0E0,0E0,0E0,0E0,0E0,0E0,0E0,0E0,0E0,0E0,0E0,0E0,0E0,0E0,0E0],"parents":[2147483647,0,0,1,1,2,2,3,3,4,4,5,5,6,6,7,7,8,8,9,9,10,10,11,11,12,12,13,13,14,14,15,15,16,16,17,17,18,18,19,19,20,20,21,21,22,22,23,23,24,24,25,25,26,26,27,27,28,28,31,31,32,32,33,33,34,34,35,35,36,36,37,37,39,39,40,40,44,44,47,47,49,49,51,51,53,53,54,54,55,55,57,57,58,58],"right_children":[2,4,6,8,10,12,14,16,18,20,22,24,26,28,30,32,34,36,38,40,42,44,46,48,50,52,54,56,58,-1,-1,60,62,64,66,68,70,72,-1,74,76,-1,-1,-1,78,-1,-1,80,-1,82,-1,84,-1,86,88,90,-1,92,94,-1,-1,-1,-1,-1,-1,-1,-1,-1,-1,-1,-1,-1,-1,-1,-1,-1,-1,-1,-1,-1,-1,-1,-1,-1,-1,-1,-1,-1,-1,-1,-1,-1,-1,-1,-1],"split_conditions":[1.5E0,5E-1,3.5E0,2.5E0,5E-1,1.5E0,4.5E0,1.5E0,5E-1,5E-1,5E-1,5E-1,1.5E0,5E-1,5E-1,1.5E0,4.5E0,5E-1,5E-1,6.5E0,2.5E0,1.5E0,5E-1,5E-1,4.5E0,5E-1,4.5E0,5E-1,5E-1,-3.1590223E-1,5.4271508E-2,5E-1,1.5E0,2.5E0,2.5E0,5E-1,1.5E0,2.5E0,3.8444448E-1,5E-1,5E-1,-3.5368446E-1,2.0066494E-1,1.8568145E-1,5E-1,3.0593666E-1,-7.894609E-3,5E-1,2.7085742E-1,5E-1,-2.3761515E-1,5E-1,-2.4071705E-1,5E-1,5E-1,5E-1,-2.3040266E-1,3.5E0,5E-1,3.4038296E-3,-2.2212914E-1,3.2913145E-1,-2.4785826E-1,2.5088626E-1,-5.3666584E-2,5.961284E-2,-3.6923558E-1,-3.622166E-1,1.2700708E-1,2.1666788E-1,-2.8992447E-1,-2.4004118E-1,2.454455E-1,2.4488334E-1,-2.3884681E-1,-3.2304716E-1,7.048495E-2,-4.6632794E-1,2.5601648E-3,-2.3968512E-1,2.3937733E-1,5.286048E-1,6.5325275E-2,-7.8992724E-2,3.246246E-1,-8.8471815E-2,2.870085E-1,-3.0913514E-1,1.1634616E-1,3.390682E-1,-1.5530862E-1,2.5983775E-1,-1.494662E-1,-1.3126063E-3,-3.6450836E-1],"split_indices":[2063,3816,2128,1103,1024,1130,1103,2135,3400,1106,1007,1425,2053,4927,3246,2180,2053,1522,1481,1306,4450,3145,1278,1882,4787,3168,3145,4940,3210,0,0,2058,454,384,4970,3025,4415,3754,0,429,4800,0,0,0,2808,0,0,4510,0,4607,0,3338,0,2249,752,4977,0,2063,1710,0,0,0,0,0,0,0,0,0,0,0,0,0,0,0,0,0,0,0,0,0,0,0,0,0,0,0,0,0,0,0,0,0,0,0,0],"split_type":[0,0,0,0,0,0,0,0,0,0,0,0,0,0,0,0,0,0,0,0,0,0,0,0,0,0,0,0,0,0,0,0,0,0,0,0,0,0,0,0,0,0,0,0,0,0,0,0,0,0,0,0,0,0,0,0,0,0,0,0,0,0,0,0,0,0,0,0,0,0,0,0,0,0,0,0,0,0,0,0,0,0,0,0,0,0,0,0,0,0,0,0,0,0,0],"sum_hessian":[1.360198E3,1.1455159E3,2.1468214E2,1.0303141E3,1.1520184E2,1.8101886E2,3.3663273E1,9.789443E2,5.136975E1,1.0514821E2,1.0053636E1,1.4619139E2,3.4827477E1,2.8956415E1,4.7068586E0,8.904398E2,8.850448E1,3.887092E1,1.2498834E1,1.0152761E2,3.6206007E0,7.518326E0,2.53531E0,1.414447E2,4.7466826E0,1.5359367E1,1.946811E1,2.0962412E1,7.994003E0,3.251536E0,1.4553227E0,8.547707E2,3.566909E1,8.432885E1,4.175622E0,3.411916E1,4.7517576E0,9.987012E0,2.5118215E0,9.8057915E1,3.4696946E0,2.6086462E0,1.0119547E0,1.558559E0,5.959767E0,1.4794257E0,1.0558845E0,1.3876436E2,2.6803398E0,3.4110923E0,1.3355904E0,1.3434152E1,1.9252158E0,1.0897201E1,8.570908E0,1.954234E1,1.4200743E0,4.5732946E0,3.4207084E0,7.9887604E2,5.589466E1,3.318272E1,2.486371E0,7.570109E1,8.627764E0,1.4985912E0,2.677031E0,3.196772E1,2.151439E0,3.2083566E0,1.543401E0,8.523611E0,1.4634011E0,9.630957E1,1.7483433E0,2.0904427E0,1.379252E0,3.9237366E0,2.0360305E0,1.3586331E2,2.9010468E0,1.4743104E0,1.936782E0,3.3811157E0,1.0053036E1,7.6037817E0,3.293419E0,7.102541E0,1.4683672E0,1.6820795E1,2.7215438E0,2.9590843E0,1.6142102E0,1.2064093E0,2.214299E0],"tree_param":{"num_deleted":"0","num_feature":"5000","num_nodes":"95","size_leaf_vector":"0"}},{"base_weights":[4.8854103E-4,5.8397334E-2,-3.7408942E-1,1.4867647E-2,6.122317E-1,-4.8305705E-1,2.2052215E-1,-2.0971784E-2,5.747632E-1,6.9705594E-1,-2.533408E-1,-5.512656E-1,3.4981772E-1,-3.4039998E-1,7.430176E-1,-6.2252548E-2,5.2146816E-1,6.8167E-1,-8.94274E-1,7.60705E-1,-7.602868E-1,-6.525947E-1,6.1861426E-1,-6.058623E-1,3.6032847E-1,6.6755193E-1,-8.176174E-1,-5.782515E-1,9.787698E-1,9.751658E-1,-7.258606E-1,-2.250672E-2,-6.5279144E-1,5.864054E-1,-8.865902E-1,8.2768667E-1,-5.062919E-1,-1.2044045E0,1.829084E-2,8.011993E-1,-6.107903E-1,-3.8687684E-2,-1.1664371E0,-1.0356096E0,2.5274524E-1,8.475904E-1,7.6290086E-2,-6.4723694E-1,5.519158E-1,9.139981E-1,-7.5595176E-1,1.0771124E0,-4.613525E-1,-8.0233556E-1,4.6197513E-1,1.1795235E0,-5.406793E-1,8.225322E-3,-8.2891035E-1,-7.394016E-1,8.0133086E-1,6.985906E-1,-2.7122054E-1,-1.268923E0,2.5076212E-2,9.284107E-1,-6.951535E-1,-8.856011E-1,6.2070185E-1,8.4430945E-1,-3.963037E-1,-7.4850416E-1,-9.358428E-2,-3.5418314E-1,1.2212113E0,1.2587194E0,-3.9212015E-1,1.4457911E0,2.525723E-2,-7.950081E-1,1.381293E-1,-1.0081058E0,3.3957914E-1,1.4077765E0,-9.403553E-2],"categories":[],"categories_nodes":[],"categories_segments":[],"categories_sizes":[],"default_left":[1,1,1,1,1,1,1,1,1,1,1,1,1,1,1,1,1,1,1,1,1,1,1,1,1,1,0,1,0,1,0,1,1,1,1,1,1,0,0,1,0,0,0,0,0,0,0,1,1,1,0,1,1,1,0,1,0,0,0,0,0,0,0,0,0,0,0,0,0,0,0,0,0,0,0,0,0,0,0,0,0,0,0,0,0],"id":6,"left_children":[1,3,5,7,9,11,13,15,17,19,21,23,25,27,29,31,33,35,37,39,41,43,45,47,49,51,-1,53,-1,55,-1,57,59,61,63,65,67,-1,-1,69,-1,-1,-1,-1,-1,-1,-1,71,73,75,-1,77,79,81,-1,83,-1,-1,-1,-1,-1,-1,-1,-1,-1,-1,-1,-1,-1,-1,-1,-1,-1,-1,-1,-1,-1,-1,-1,-1,-1,-1,-1,-1,-1],"loss_changes":[2.8680647E1,2.7598856E1,1.1577629E1,2.1337433E1,6.3016376E0,8.710537E0,8.490219E0,2.241974E1,1.0656086E1,7.6506233E0,3.2510908E0,7.135048E0,4.9826536E0,5.0341334E0,5.7769785E0,2.1812904E1,6.994505E0,1.0861103E1,1.3725891E0,4.5743446E0,1.0365419E0,2.3758848E0,3.180821E-1,6.656109E0,5.9320602E0,5.0986714E0,0E0,3.3295236E0,0E0,4.746462E0,0E0,2.1625908E1,7.9736824E0,6.759945E0,1.258683E0,8.926453E0,3.6316872E0,0E0,0E0,4.045189E0,0E0,0E0,0E0,0E0,0E0,0E0,0E0,7.0738297E0,3.5112858E0,3.2496219E0,0E0,2.911954E0,7.7982354E-1,2.8822002E0,0E0,3.6213398E0,0E0,0E0,0E0,0E0,0E0,0E0,0E0,0E0,0E0,0E0,0E0,0E0,0E0,0E0,0E0,0E0,0E0,0E0,0E0,0E0,0E0,0E0,0E0,0E0,0E0,0E0,0E0,0E0,0E0],"parents":[2147483647,0,0,1,1,2,2,3,3,4,4,5,5,6,6,7,7,8,8,9,9,10,10,11,11,12,12,13,13,14,14,15,15,16,16,17,17,18,18,19,19,20,20,21,21,22,22,23,23,24,24,25,25,27,27,29,29,31,31,32,32,33,33,34,34,35,35,36,36,39,39,47,47,48,48,49,49,51,51,52,52,53,53,55,55],"right_children":[2,4,6,8,10,12,14,16,18,20,22,24,26,28,30,32,34,36,38,40,42,44,46,48,50,52,-1,54,-1,56,-1,58,60,62,64,66,68,-1,-1,70,-1,-1,-1,-1,-1,-1,-1,72,74,76,-1,78,80,82,-1,84,-1,-1,-1,-1,-1,-1,-1,-1,-1,-1,-1,-1,-1,-1,-1,-1,-1,-1,-1,-1,-1,-1,-1,-1,-1,-1,-1,-1,-1],"split_conditions":[3.5E0,5E-1,1.5E0,1.5E0,4.5E0,5E-1,5E-1,2.5E0,5E-1,5E-1,5E-1,5E-1,5E-1,1.5E0,5E-1,5E-1,5E-1,3.5E0,5E-1,1.5E0,5E-1,5E-1,5E-1,1.5E0,5E-1,5E-1,-2.4528523E-1,1.5E0,2.9363096E-1,5E-1,-2.177582E-1,2.5E0,1.5E0,4.5E0,5E-1,1.5E0,1.5E0,-3.6132136E-1,5.487252E-3,5E-1,-1.832371E-1,-1.1606306E-2,-3.4993115E-1,-3.106829E-1,7.5823575E-2,2.5427714E-1,2.2887027E-2,2.5E0,4.5E0,7.5E0,-2.2678554E-1,5E-1,5E-1,2.5E0,1.3859254E-1,5E-1,-1.6220379E-1,2.4675967E-3,-2.4867311E-1,-2.2182049E-1,2.4039927E-1,2.0957719E-1,-8.136617E-2,-3.8067693E-1,7.522864E-3,2.7852324E-1,-2.0854606E-1,-2.6568034E-1,1.8621056E-1,2.5329286E-1,-1.1889112E-1,-2.2455126E-1,-2.8075283E-2,-1.0625494E-1,3.663634E-1,3.7761584E-1,-1.1763605E-1,4.3373737E-1,7.577169E-3,-2.3850244E-1,4.143879E-2,-3.0243173E-1,1.0187375E-1,4.2233297E-1,-2.821066E-2],"split_indices":[1306,2139,4609,2184,2063,1736,4192,2128,3760,4940,4819,3367,3838,2483,2280,2069,480,2170,1173,4249,1730,1089,1630,4230,4456,1026,0,1130,0,1023,0,1103,4682,2053,4234,1481,2687,0,0,3855,0,0,0,0,0,0,0,2128,4970,2188,0,3093,2120,2135,0,2497,0,0,0,0,0,0,0,0,0,0,0,0,0,0,0,0,0,0,0,0,0,0,0,0,0,0,0,0,0],"split_type":[0,0,0,0,0,0,0,0,0,0,0,0,0,0,0,0,0,0,0,0,0,0,0,0,0,0,0,0,0,0,0,0,0,0,0,0,0,0,0,0,0,0,0,0,0,0,0,0,0,0,0,0,0,0,0,0,0,0,0,0,0,0,0,0,0,0,0,0,0,0,0,0,0,0,0,0,0,0,0,0,0,0,0,0,0],"sum_hessian":[1.3202083E3,1.144167E3,1.760412E2,1.061744E3,8.242299E1,1.4893517E2,2.7106031E1,9.987741E2,6.2969917E1,7.5243935E1,7.179055E0,1.3797386E2,1.0961295E1,1.3240392E1,1.386564E1,9.289634E2,6.981073E1,5.919786E1,3.7720566E0,7.2553215E1,2.6907232E0,5.09686E0,2.0821953E0,1.3049379E2,7.480087E0,8.952841E0,2.0084546E0,1.1693638E1,1.5467539E0,1.2263565E1,1.6020743E0,8.713555E2,5.760789E1,6.7290924E1,2.5198035E0,5.2988167E1,6.209692E0,2.576608E0,1.1954488E0,7.087636E1,1.6768506E0,1.3634909E0,1.3272322E0,3.4805017E0,1.6163583E0,1.0682722E0,1.013923E0,1.2641708E2,4.076699E0,5.121205E0,2.358882E0,6.603136E0,2.3497047E0,9.809238E0,1.8844001E0,1.1002183E1,1.2613821E0,8.403207E2,3.1034819E1,5.4833427E1,2.7744632E0,5.967087E1,7.6200533E0,1.4991999E0,1.0206038E0,5.0066967E1,2.9211988E0,4.8062553E0,1.4034367E0,6.8698166E1,2.1781962E0,1.0657228E2,1.9844807E1,1.9319787E0,2.1447198E0,4.0805283E0,1.0406764E0,4.612074E0,1.9910622E0,1.3000002E0,1.0497044E0,8.41081E0,1.3984274E0,9.240645E0,1.7615378E0],"tree_param":{"num_deleted":"0","num_feature":"5000","num_nodes":"85","size_leaf_vector":"0"}},{"base_weights":[-6.041823E-4,8.2264304E-2,-2.4755305E-1,3.3207033E-2,6.289975E-1,-3.3390445E-1,4.9148127E-1,-1.1546752E-2,5.7217497E-1,7.0300984E-1,-4.1658804E-1,-4.0268546E-1,3.8159233E-1,6.028999E-1,-6.99459E-1,2.5725266E-2,-5.8218473E-1,6.9605255E-1,-6.011503E-1,7.760803E-1,-3.5340172E-1,-8.1827337E-1,5.40222E-1,-5.037656E-1,-2.9692758E-2,6.771973E-1,-2.8647515E-1,7.325335E-1,-5.6002706E-1,-8.854874E-1,-1.302035E-1,-1.7571023E-2,6.571848E-1,-6.774385E-1,8.094581E-1,7.687024E-1,-9.524822E-1,-1.0116084E0,6.002183E-1,8.2682896E-1,-5.5483997E-1,-1.1395491E0,7.275952E-1,-1.1363922E0,4.388925E-2,-5.506306E-1,5.4595315E-1,1.7492011E-1,-8.320773E-1,8.4068066E-1,-5.9336436E-1,-6.3885117E-1,9.254957E-1,8.5627687E-1,-1.5567978E-1,3.4211382E-1,-1.0226835E0,8.010731E-2,-2.3901533E-1,7.724911E-1,-7.015009E-1,-7.6172465E-1,9.662137E-1,1.2220547E0,3.9050747E-3,8.7904954E-1,-2.1432774E-1,3.4630877E-1,-1.4681739E0,8.705238E-1,-4.8503152E-1,4.9866095E-1,-1.2992243E0,-3.7783286E-1,-1.4507239E0,-5.9294856E-1,3.0653185E-1,-4.4306874E-1,1.0417888E0,4.4040215E-1,-5.5631346E-1,-1.2333777E0,6.7447597E-1,1.087741E0,-2.3251647E-2,-1.058541E0,3.2896906E-1,4.18944E-1,1.2461951E0,-6.1301714E-1,5.3992486E-1],"categories":[],"categories_nodes":[],"categories_segments":[],"categories_sizes":[],"default_left":[1,1,1,1,1,1,1,1,1,1,1,1,1,1,1,1,1,1,1,1,1,1,0,1,1,1,1,1,1,0,0,1,1,1,1,1,0,1,0,1,1,1,0,0,0,1,1,1,1,1,0,1,0,1,1,0,0,0,0,0,0,0,0,0,0,0,0,0,0,0,0,0,0,0,0,0,0,0,0,0,0,0,0,0,0,0,0,0,0,0,0],"id":7,"left_children":[1,3,5,7,9,11,13,15,17,19,21,23,25,27,29,31,33,35,37,39,41,43,-1,45,47,49,51,53,55,-1,-1,57,59,61,63,65,-1,67,-1,69,71,73,-1,-1,-1,75,77,79,81,83,-1,85,-1,87,89,-1,-1,-1,-1,-1,-1,-1,-1,-1,-1,-1,-1,-1,-1,-1,-1,-1,-1,-1,-1,-1,-1,-1,-1,-1,-1,-1,-1,-1,-1,-1,-1,-1,-1,-1,-1],"loss_changes":[2.6397238E1,2.5883713E1,2.0846996E1,2.1410347E1,6.442751E0,1.4464043E1,4.9746056E0,1.746182E1,1.0309845E1,6.031952E0,2.7024755E0,1.0005203E1,5.331629E0,5.221299E0,2.4458182E-1,2.1089611E1,7.220909E0,8.159763E0,4.0764027E0,5.191868E0,5.5138083E0,1.2950637E0,0E0,1.0584469E1,9.623475E0,4.306778E0,4.2994595E0,3.3367414E0,1.9223057E0,0E0,0E0,1.5646376E1,8.296139E0,7.3381367E0,1.2184305E0,6.6918106E0,0E0,3.9903398E0,0E0,4.3145866E0,3.1356373E0,3.0071115E-1,0E0,0E0,0E0,7.4584084E0,5.0889416E0,9.335242E0,8.028703E0,3.5804768E0,0E0,3.3209538E0,0E0,3.8664684E0,1.7339672E0,0E0,0E0,0E0,0E0,0E0,0E0,0E0,0E0,0E0,0E0,0E0,0E0,0E0,0E0,0E0,0E0,0E0,0E0,0E0,0E0,0E0,0E0,0E0,0E0,0E0,0E0,0E0,0E0,0E0,0E0,0E0,0E0,0E0,0E0,0E0,0E0],"parents":[2147483647,0,0,1,1,2,2,3,3,4,4,5,5,6,6,7,7,8,8,9,9,10,10,11,11,12,12,13,13,14,14,15,15,16,16,17,17,18,18,19,19,20,20,21,21,23,23,24,24,25,25,26,26,27,27,28,28,31,31,32,32,33,33,34,34,35,35,37,37,39,39,40,40,41,41,45,45,46,46,47,47,48,48,49,49,51,51,53,53,54,54],"right_children":[2,4,6,8,10,12,14,16,18,20,22,24,26,28,30,32,34,36,38,40,42,44,-1,46,48,50,52,54,56,-1,-1,58,60,62,64,66,-1,68,-1,70,72,74,-1,-1,-1,76,78,80,82,84,-1,86,-1,88,90,-1,-1,-1,-1,-1,-1,-1,-1,-1,-1,-1,-1,-1,-1,-1,-1,-1,-1,-1,-1,-1,-1,-1,-1,-1,-1,-1,-1,-1,-1,-1,-1,-1,-1,-1,-1],"split_conditions":[5E-1,1.5E0,3.5E0,1.5E0,5.5E0,4.5E0,1.95E1,3.5E0,5E-1,5E-1,5E-1,5E-1,4.5E0,5E-1,3.5E0,5.5E0,5E-1,5E-1,1.5E0,5E-1,7.5E0,1.5E0,1.6206661E-1,5E-1,5E-1,5E-1,5E-1,6.5E0,5E-1,-2.6564622E-1,-3.906105E-2,5E-1,5E-1,5E-1,5E-1,5E-1,-2.8574467E-1,2.5E0,1.800655E-1,1.5E0,5E-1,1.5E0,2.1827857E-1,-3.4091768E-1,1.3166776E-2,5E-1,1.5E0,2.5E0,5E-1,5E-1,-1.7800932E-1,1.5E0,2.7764872E-1,5E-1,1.5E0,1.02634154E-1,-3.0680507E-1,2.4032194E-2,-7.1704604E-2,2.3174734E-1,-2.1045028E-1,-2.285174E-1,2.8986412E-1,3.6661643E-1,1.1715224E-3,2.6371488E-1,-6.4298324E-2,1.0389263E-1,-4.404522E-1,2.6115716E-1,-1.4550947E-1,1.4959829E-1,-3.897673E-1,-1.1334986E-1,-4.3521717E-1,-1.7788458E-1,9.195956E-2,-1.3292062E-1,3.1253666E-1,1.3212065E-1,-1.6689405E-1,-3.7001333E-1,2.023428E-1,3.2632232E-1,-6.9754943E-3,-3.1756234E-1,9.8690726E-2,1.256832E-1,3.7385854E-1,-1.8390515E-1,1.6197747E-1],"split_indices":[2053,2135,1130,3269,2527,2128,3616,2527,454,703,3065,1126,2053,1890,4896,2188,2187,1879,1665,1923,2397,390,0,4630,1524,3972,2369,2053,2470,0,0,1306,4870,2745,4317,289,0,2698,0,832,4354,1935,0,0,0,4705,4431,2063,4482,4924,0,2711,0,1520,1619,0,0,0,0,0,0,0,0,0,0,0,0,0,0,0,0,0,0,0,0,0,0,0,0,0,0,0,0,0,0,0,0,0,0,0,0],"split_type":[0,0,0,0,0,0,0,0,0,0,0,0,0,0,0,0,0,0,0,0,0,0,0,0,0,0,0,0,0,0,0,0,0,0,0,0,0,0,0,0,0,0,0,0,0,0,0,0,0,0,0,0,0,0,0,0,0,0,0,0,0,0,0,0,0,0,0,0,0,0,0,0,0,0,0,0,0,0,0,0,0,0,0,0,0,0,0,0,0,0,0],"sum_hessian":[1.2879227E3,9.6482416E2,3.2309857E2,8.863541E2,7.847003E1,2.8978702E2,3.331156E1,8.1930115E2,6.705298E1,7.358866E1,4.881372E0,2.647716E2,2.501541E1,3.0913229E1,2.3983314E0,7.699647E2,4.9336403E1,6.1017616E1,6.0353622E0,6.9076126E1,4.5125337E0,3.5400064E0,1.3413656E0,2.080421E2,5.672951E1,1.7332499E1,7.68291E0,2.8145855E1,2.7673752E0,1.3889235E0,1.0094079E0,7.2146906E2,4.8495655E1,4.6656143E1,2.6802614E0,5.895329E1,2.0643275E0,4.6161633E0,1.419199E0,6.69038E1,2.172322E0,2.5812054E0,1.9313284E0,2.3535333E0,1.1864731E0,1.9960606E2,8.436032E0,4.5825684E1,1.0903825E1,1.5656335E1,1.6761639E0,6.318664E0,1.3642458E0,2.4735703E1,3.4101522E0,1.0264428E0,1.7409323E0,5.0108185E2,2.2038725E2,4.509967E1,3.395988E0,4.489072E1,1.7654219E0,1.4305229E0,1.2497385E0,5.3098637E1,5.854655E0,1.2222977E0,3.3938656E0,6.507281E1,1.830995E0,1.036087E0,1.1362349E0,1.3908341E0,1.1903712E0,1.9050893E2,9.09714E0,2.8525646E0,5.583468E0,3.3911488E1,1.1914196E1,8.753485E0,2.1503398E0,1.1973262E1,3.6830735E0,4.3420296E0,1.9766345E0,1.2636746E1,1.2098955E1,2.1290796E0,1.2810727E0],"tree_param":{"num_deleted":"0","num_feature":"5000","num_nodes":"91","size_leaf_vector":"0"}},{"base_weights":[-3.413971E-4,-5.955176E-2,2.700623E-1,2.205306E-2,-3.6511484E-1,3.652142E-1,-3.9358178E-1,-1.4453239E-2,6.354508E-1,-4.553836E-1,1.6249384E-1,4.737312E-1,-1.4774905E-1,-5.221814E-1,7.070938E-1,-3.8561575E-2,8.658855E-1,8.4548974E-1,-5.4587018E-2,-4.9699837E-1,7.441476E-1,4.1100502E-1,-7.115528E-1,5.459808E-1,-2.4809226E-1,1.5185872E-1,-9.920669E-1,-6.2316334E-1,9.9952126E-1,1.1512764E0,-1.0223609E-1,-5.6131384E-3,-6.466977E-1,1.0875695E0,-4.9494028E-2,9.999724E-1,-3.594379E-1,3.2179484E-1,-9.956726E-1,-5.8063096E-1,1.11187756E-1,1.086992E0,-4.996646E-1,8.633822E-1,-2.1923704E-1,-9.510796E-1,2.986565E-1,6.321755E-1,-6.5792814E-2,-5.232503E-1,7.2955614E-1,4.6322653E-1,-4.7283098E-1,-1.1908313E0,-1.3580202E-1,-7.5402033E-1,5.272368E-1,-3.3108436E-2,8.505466E-1,-8.098158E-1,8.583749E-1,1.2425466E0,-2.0356837E-1,-6.4899576E-1,9.5923954E-1,1.099405E0,-3.1928343E-1,-1.0907134E0,6.0738724E-1,7.188452E-1,-6.739679E-1,-1.1452224E0,-3.1127554E-1,-6.1200947E-1,7.243103E-1,-5.0135292E-2,1.4379784E0,1.203049E0,2.9345617E-1,1.1072934E0,-5.728128E-1,-6.3845694E-1,7.318786E-1,1.9024932E-1,7.512151E-1,7.555084E-1,-6.0101444E-1,-7.267895E-1,9.2630166E-1,1.1244935E0,-1.3386548E-1,6.852433E-1,-3.9106482E-1,-7.530334E-1,7.926291E-1,-8.643932E-1,4.3535432E-1,-2.2644242E-2,7.9616296E-1],"categories":[],"categories_nodes":[],"categories_segments":[],"categories_sizes":[],"default_left":[1,1,1,1,1,1,1,1,1,1,1,1,1,1,1,1,1,1,1,1,1,1,1,1,1,1,1,1,0,0,0,1,1,1,1,1,1,1,1,1,1,1,0,1,1,0,0,1,1,1,1,1,1,0,0,1,1,0,0,0,0,0,0,0,0,0,0,0,0,0,0,0,0,0,0,0,0,0,0,0,0,0,0,0,0,0,0,0,0,0,0,0,0,0,0,0,0,0,0],"id":8,"left_children":[1,3,5,7,9,11,13,15,17,19,21,23,25,27,29,31,33,35,37,39,41,43,45,47,49,51,53,55,-1,-1,-1,57,59,61,63,65,67,69,71,73,75,77,-1,79,81,-1,-1,83,85,87,89,91,93,-1,-1,95,97,-1,-1,-1,-1,-1,-1,-1,-1,-1,-1,-1,-1,-1,-1,-1,-1,-1,-1,-1,-1,-1,-1,-1,-1,-1,-1,-1,-1,-1,-1,-1,-1,-1,-1,-1,-1,-1,-1,-1,-1,-1,-1],"loss_changes":[2.012967E1,2.5726685E1,1.4405443E1,1.8258455E1,1.0430447E1,1.1094313E1,4.44612E0,1.6378855E1,6.68416E0,9.651909E0,7.3529835E0,8.672836E0,9.0912485E0,4.674159E0,1.353606E0,1.5035988E1,4.2282925E0,6.9065247E0,4.4388027E0,9.235897E0,3.3725476E0,7.585911E0,2.1138837E0,7.904999E0,4.5735054E0,5.461751E0,1.4363432E0,4.2121477E0,0E0,0E0,0E0,1.6812906E1,1.0163637E1,3.5754204E0,3.6263485E0,4.4752617E0,4.008521E0,4.066961E0,8.499861E-3,6.940525E0,4.9172835E0,1.5498114E-1,0E0,5.995776E0,5.1076617E0,0E0,0E0,6.7380333E0,8.947278E0,4.4327106E0,1.4599807E0,3.7754943E0,3.9514947E0,0E0,0E0,3.4170704E0,4.8776084E-1,0E0,0E0,0E0,0E0,0E0,0E0,0E0,0E0,0E0,0E0,0E0,0E0,0E0,0E0,0E0,0E0,0E0,0E0,0E0,0E0,0E0,0E0,0E0,0E0,0E0,0E0,0E0,0E0,0E0,0E0,0E0,0E0,0E0,0E0,0E0,0E0,0E0,0E0,0E0,0E0,0E0,0E0],"parents":[2147483647,0,0,1,1,2,2,3,3,4,4,5,5,6,6,7,7,8,8,9,9,10,10,11,11,12,12,13,13,14,14,15,15,16,16,17,17,18,18,19,19,20,20,21,21,22,22,23,23,24,24,25,25,26,26,27,27,31,31,32,32,33,33,34,34,35,35,36,36,37,37,38,38,39,39,40,40,41,41,43,43,44,44,47,47,48,48,49,49,50,50,51,51,52,52,55,55,56,56],"right_children":[2,4,6,8,10,12,14,16,18,20,22,24,26,28,30,32,34,36,38,40,42,44,46,48,50,52,54,56,-1,-1,-1,58,60,62,64,66,68,70,72,74,76,78,-1,80,82,-1,-1,84,86,88,90,92,94,-1,-1,96,98,-1,-1,-1,-1,-1,-1,-1,-1,-1,-1,-1,-1,-1,-1,-1,-1,-1,-1,-1,-1,-1,-1,-1,-1,-1,-1,-1,-1,-1,-1,-1,-1,-1,-1,-1,-1,-1,-1,-1,-1,-1,-1],"split_conditions":[5E-1,5E-1,1.5E0,5E-1,5E-1,2.5E0,5E-1,5E-1,5E-1,5E-1,3.5E0,1.5E0,1.5E0,5E-1,5E-1,5E-1,5E-1,5E-1,5E-1,1.5E0,5E-1,3.5E0,5E-1,5E-1,5E-1,5E-1,5E-1,5E-1,2.998564E-1,3.4538293E-1,-3.067083E-2,1.5E0,5E-1,1.5E0,1.5E0,2.5E0,4.5E0,5E-1,2.5E0,5E-1,5E-1,5E-1,-1.498994E-1,5E-1,1.5E0,-2.853239E-1,8.959695E-2,5E-1,1.5E0,5E-1,1.5E0,6.5E0,1.5E0,-3.572494E-1,-4.0740605E-2,5E-1,5E-1,-9.932531E-3,2.55164E-1,-2.4294476E-1,2.5751248E-1,3.72764E-1,-6.1070513E-2,-1.9469874E-1,2.8777188E-1,3.2982153E-1,-9.578503E-2,-3.2721403E-1,1.8221618E-1,2.1565357E-1,-2.0219038E-1,-3.4356675E-1,-9.3382664E-2,-1.8360284E-1,2.172931E-1,-1.5040589E-2,4.3139353E-1,3.609147E-1,8.803685E-2,3.32188E-1,-1.7184384E-1,-1.915371E-1,2.1956359E-1,5.70748E-2,2.2536454E-1,2.2665253E-1,-1.8030433E-1,-2.1803685E-1,2.778905E-1,3.3734804E-1,-4.0159643E-2,2.0557301E-1,-1.1731945E-1,-2.2591002E-1,2.3778875E-1,-2.5931796E-1,1.3060631E-1,-6.793273E-3,2.388489E-1],"split_indices":[1130,2063,1100,2311,4426,2053,159,4314,2053,1881,2053,2170,988,1615,2462,2170,2804,3989,3246,2002,4452,3460,1004,2535,1331,4072,1891,1460,0,0,0,2184,2183,4942,4177,1103,4896,2735,4719,1912,3253,4477,0,302,3754,0,0,1491,1306,1936,3443,2053,2647,0,0,1064,3785,0,0,0,0,0,0,0,0,0,0,0,0,0,0,0,0,0,0,0,0,0,0,0,0,0,0,0,0,0,0,0,0,0,0,0,0,0,0,0,0,0,0],"split_type":[0,0,0,0,0,0,0,0,0,0,0,0,0,0,0,0,0,0,0,0,0,0,0,0,0,0,0,0,0,0,0,0,0,0,0,0,0,0,0,0,0,0,0,0,0,0,0,0,0,0,0,0,0,0,0,0,0,0,0,0,0,0,0,0,0,0,0,0,0,0,0,0,0,0,0,0,0,0,0,0,0,0,0,0,0,0,0,0,0,0,0,0,0,0,0,0,0,0,0],"sum_hessian":[1.2552589E3,1.0304097E3,2.2484927E2,8.139587E2,2.16451E2,1.9704681E2,2.7802473E1,7.691587E2,4.479996E1,1.8494551E2,3.15055E1,1.6270349E2,3.434332E1,2.5364538E1,2.4379356E0,7.495872E2,1.9571472E1,3.417288E1,1.0627081E1,1.7931044E2,5.6350613E0,2.494332E1,6.562181E0,1.4812117E2,1.4582318E1,2.595373E1,8.389589E0,2.4339804E1,1.0247345E0,1.3012617E0,1.1366739E0,7.1201965E2,3.756755E1,1.5604348E1,3.9671235E0,3.0440258E1,3.7326205E0,8.061135E0,2.5659459E0,1.576738E2,2.1636642E1,4.516275E0,1.1187861E0,1.4305296E1,1.0638022E1,5.3517747E0,1.2104064E0,1.2979991E2,1.8321264E1,1.1742259E1,2.8400586E0,1.749304E1,8.4606905E0,6.4918995E0,1.8976895E0,2.2163305E1,2.1764982E0,6.9079626E2,2.1223375E1,3.4310913E1,3.2566366E0,1.3965664E1,1.6386843E0,2.711984E0,1.2551395E0,2.8461739E1,1.9785196E0,2.052236E0,1.6803845E0,5.9619603E0,2.0991752E0,1.553217E0,1.0127288E0,1.5448994E2,3.183852E0,2.0148966E1,1.4876779E0,3.489818E0,1.0264568E0,1.2424273E1,1.8810238E0,7.6117477E0,3.026275E0,2.8095505E1,1.0170441E2,7.066339E0,1.1254926E1,1.0733696E1,1.0085636E0,1.7412331E0,1.0988255E0,1.4041704E1,3.4513354E0,7.258436E0,1.202254E0,2.0531261E1,1.6320438E0,1.0156226E0,1.1608756E0],"tree_param":{"num_deleted":"0","num_feature":"5000","num_nodes":"99","size_leaf_vector":"0"}},{"base_weights":[1.7576498E-3,-2.6131095E-2,5.385467E-1,9.403624E-3,-4.4448552E-1,6.5893495E-1,-5.6479573E-1,-8.524246E-3,8.24957E-1,-5.696357E-1,3.08549E-1,8.953463E-1,1.6528077E-1,5.42735E-1,-9.7534966E-1,-3.0345479E-2,5.8620304E-1,1.3919017E0,1.5393282E-1,-6.2595767E-1,8.184527E-1,4.8946393E-1,-8.133263E-1,9.98441E-1,-1.601757E-1,4.7415102E-1,-5.150787E-1,-1.1749434E0,-2.441137E-1,2.7910724E-2,-2.7730772E-1,6.9797736E-1,-5.6803584E-1,1.5522885E0,2.5241056E-1,-1.0168266E0,3.814308E-1,-6.89272E-1,7.1273935E-1,1.0600426E0,1.3418382E-1,8.7739146E-1,-2.7644908E-1,1.226029E0,3.4290168E-1,-9.003886E-1,5.650114E-1,6.794957E-1,-6.7968625E-1,-9.713036E-1,8.684657E-1,1.9474435E-3,7.135994E-1,-3.5582545E-1,3.6361203E-1,9.007013E-1,5.037107E-2,6.1371397E-2,-8.153896E-1,1.6215588E0,4.5717978E-1,6.781131E-1,-7.980319E-1,-7.742125E-1,3.311728E-1,1.2331364E0,-1.5467705E-1,-3.1467944E-1,1.1358118E0,-8.454767E-1,5.787766E-1,1.3385924E0,-1.4133765E-1,-5.1358753E-1,8.4483093E-1,8.515275E-1,-5.1981705E-1,-1.4365231E0,3.4655195E-1],"categories":[],"categories_nodes":[],"categories_segments":[],"categories_sizes":[],"default_left":[1,1,1,1,1,1,1,1,1,1,1,1,1,0,1,1,1,1,1,1,1,1,0,1,1,1,1,0,0,1,1,1,1,1,0,0,1,1,1,0,0,1,1,1,1,0,0,1,0,1,0,0,0,0,0,0,0,0,0,0,0,0,0,0,0,0,0,0,0,0,0,0,0,0,0,0,0,0,0],"id":9,"left_children":[1,3,5,7,9,11,13,15,17,19,21,23,25,-1,27,29,31,33,35,37,39,41,-1,43,45,47,49,-1,-1,51,53,55,57,59,-1,-1,61,63,65,-1,-1,67,69,71,73,-1,-1,75,-1,77,-1,-1,-1,-1,-1,-1,-1,-1,-1,-1,-1,-1,-1,-1,-1,-1,-1,-1,-1,-1,-1,-1,-1,-1,-1,-1,-1,-1,-1],"loss_changes":[1.8375729E1,1.7351583E1,8.424715E0,1.5747155E1,8.78739E0,6.284912E0,3.4860325E0,1.3701019E1,8.598879E0,6.6655865E0,3.1727858E0,4.191124E0,4.2528505E0,0E0,4.5773554E-1,1.4653793E1,5.2172155E0,1.8803387E0,3.5130243E0,6.9502335E0,4.367454E-1,3.9258516E0,0E0,4.635296E0,2.740743E0,3.6937077E0,4.9056063E0,0E0,0E0,1.4678845E1,9.9120035E0,4.486027E0,6.494802E-1,7.067108E-2,0E0,0E0,4.2334647E0,6.607338E0,1.9660901E0,0E0,0E0,2.9661727E0,2.8876624E0,4.001034E0,4.7849674E0,0E0,0E0,2.9349065E0,0E0,3.754325E0,0E0,0E0,0E0,0E0,0E0,0E0,0E0,0E0,0E0,0E0,0E0,0E0,0E0,0E0,0E0,0E0,0E0,0E0,0E0,0E0,0E0,0E0,0E0,0E0,0E0,0E0,0E0,0E0,0E0],"parents":[2147483647,0,0,1,1,2,2,3,3,4,4,5,5,6,6,7,7,8,8,9,9,10,10,11,11,12,12,14,14,15,15,16,16,17,17,18,18,19,19,20,20,21,21,23,23,24,24,25,25,26,26,29,29,30,30,31,31,32,32,33,33,36,36,37,37,38,38,41,41,42,42,43,43,44,44,47,47,49,49],"right_children":[2,4,6,8,10,12,14,16,18,20,22,24,26,-1,28,30,32,34,36,38,40,42,-1,44,46,48,50,-1,-1,52,54,56,58,60,-1,-1,62,64,66,-1,-1,68,70,72,74,-1,-1,76,-1,78,-1,-1,-1,-1,-1,-1,-1,-1,-1,-1,-1,-1,-1,-1,-1,-1,-1,-1,-1,-1,-1,-1,-1,-1,-1,-1,-1,-1,-1],"split_conditions":[5E-1,5E-1,4.5E0,5E-1,5E-1,5.5E0,1.5E0,5E-1,5E-1,5E-1,7.5E0,5E-1,2.5E0,1.628205E-1,3.5E0,5E-1,5.5E0,1.5E0,9.5E0,5E-1,5E-1,5E-1,-2.439979E-1,5E-1,5.5E0,5E-1,5E-1,-3.5248303E-1,-7.323411E-2,1.5E0,1.5E0,5E-1,1.5E0,5E-1,7.572317E-2,-3.05048E-1,1.5E0,1.5E0,1.5E0,3.180128E-1,4.0255148E-2,1.5E0,5E-1,5E-1,1.5E0,-2.701166E-1,1.6950342E-1,5E-1,-2.0390588E-1,1.5E0,2.6053974E-1,5.842331E-4,2.1407983E-1,-1.0674764E-1,1.09083615E-1,2.702104E-1,1.5111322E-2,1.841142E-2,-2.4461688E-1,4.8646766E-1,1.3715394E-1,2.0343395E-1,-2.3940958E-1,-2.3226376E-1,9.9351846E-2,3.6994094E-1,-4.6403117E-2,-9.440384E-2,3.4074354E-1,-2.53643E-1,1.7363298E-1,4.0157774E-1,-4.2401295E-2,-1.5407626E-1,2.534493E-1,2.5545827E-1,-1.5594512E-1,-4.3095693E-1,1.0396559E-1],"split_indices":[262,351,2527,1110,533,4341,1947,1129,839,631,3460,4420,139,0,1491,1103,2063,4942,1796,4676,1604,308,0,1836,2397,289,2378,0,0,2180,4426,1710,4403,898,0,0,1194,2372,3673,0,0,2188,1688,2069,4155,0,0,1448,0,4804,0,0,0,0,0,0,0,0,0,0,0,0,0,0,0,0,0,0,0,0,0,0,0,0,0,0,0,0,0],"split_type":[0,0,0,0,0,0,0,0,0,0,0,0,0,0,0,0,0,0,0,0,0,0,0,0,0,0,0,0,0,0,0,0,0,0,0,0,0,0,0,0,0,0,0,0,0,0,0,0,0,0,0,0,0,0,0,0,0,0,0,0,0,0,0,0,0,0,0,0,0,0,0,0,0,0,0,0,0,0,0],"sum_hessian":[1.225533E3,1.1659097E3,5.962324E1,1.0755323E3,9.037741E1,5.4120777E1,5.502461E0,1.0533662E3,2.2166033E1,7.770655E1,1.2670857E1,3.604506E1,1.807572E1,1.4010259E0,4.101435E0,1.0170003E3,3.6365944E1,1.1432489E1,1.0733543E1,7.520418E1,2.5023744E0,1.1396718E1,1.2741392E0,3.2887005E1,3.158053E0,1.2640336E1,5.435384E0,2.7453024E0,1.3561326E0,8.2360596E2,1.9339436E2,3.3515644E1,2.8503003E0,9.704313E0,1.7281761E0,1.1818501E0,9.551693E0,7.2271194E1,2.9329827E0,1.44355E0,1.0588244E0,7.4684634E0,3.9282546E0,2.376581E1,9.121198E0,1.4432768E0,1.7147763E0,1.1079629E1,1.5607066E0,4.3115926E0,1.123791E0,7.945245E2,2.9081457E1,1.7268402E2,2.0710344E1,2.5227667E1,8.287976E0,1.0162573E0,1.834043E0,8.674864E0,1.0294503E0,7.9715853E0,1.5801082E0,6.694046E1,5.330739E0,1.5696613E0,1.3633213E0,1.2917997E0,6.176664E0,2.365656E0,1.5625986E0,2.1977627E1,1.7881831E0,3.3616576E0,5.7595396E0,9.943326E0,1.1363031E0,3.1201093E0,1.1914835E0],"tree_param":{"num_deleted":"0","num_feature":"5000","num_nodes":"79","size_leaf_vector":"0"}},{"base_weights":[2.5428238E-3,3.1693816E-2,-4.5943937E-1,-1.5843628E-2,3.5327306E-1,-6.049105E-1,3.2346043E-1,-4.67119E-2,5.946534E-1,4.0520403E-1,-9.988894E-1,-6.8795997E-1,3.0587846E-1,9.173606E-1,-4.8658034E-1,-1.7168067E-2,-6.313271E-1,7.9511034E-1,-4.5730534E-1,4.8783782E-1,-3.6704707E-1,-1.1383638E0,-1.8466026E-1,-7.78639E-1,3.3324212E-1,7.1094483E-1,-7.788849E-1,1.2061404E0,-3.767421E-1,-7.688511E-1,3.4463868E-1,-4.0934157E-2,7.204525E-1,-7.090007E-1,1.0151542E0,9.157959E-1,-1.2569214E-1,-7.103088E-1,5.564976E-1,5.686324E-1,-2.3087686E-1,-9.0614396E-1,3.7695473E-1,-9.088716E-1,1.4887817E-1,9.5712453E-1,-4.1310933E-1,1.0750526E0,-2.7319318E-1,1.4826151E0,1.4044657E-1,-9.512347E-2,-9.803786E-1,1.9785011E-2,-3.1925476E-1,9.369601E-1,-9.636633E-1,-7.843771E-1,8.579041E-1,9.963739E-1,-1.0362041E-1,-9.089241E-1,7.1758664E-1,-9.3773013E-1,2.6078346E-1,6.6073936E-1,-1.7093726E-1,-9.7738165E-1,2.3689711E-1,1.88448E-1,-1.2542175E0,6.9525737E-1,-7.212647E-1,-9.628638E-1,5.7484406E-1,-5.0217277E-1,1.0167601E0,1.9400525E-1,-7.971181E-1],"categories":[],"categories_nodes":[],"categories_segments":[],"categories_sizes":[],"default_left":[1,1,1,1,1,1,1,1,1,1,1,1,1,1,1,1,1,1,1,1,1,0,0,1,1,1,0,1,0,1,0,1,1,1,0,1,1,1,0,1,1,1,1,1,1,0,1,0,0,0,0,0,0,0,0,0,0,0,0,0,0,0,0,0,0,0,0,0,0,0,0,0,0,0,0,0,0,0,0],"id":10,"left_children":[1,3,5,7,9,11,13,15,17,19,21,23,25,27,29,31,33,35,37,39,41,-1,-1,43,45,47,-1,49,-1,51,-1,53,55,57,-1,59,61,63,-1,65,67,69,71,73,75,-1,77,-1,-1,-1,-1,-1,-1,-1,-1,-1,-1,-1,-1,-1,-1,-1,-1,-1,-1,-1,-1,-1,-1,-1,-1,-1,-1,-1,-1,-1,-1,-1,-1],"loss_changes":[1.6318398E1,1.7428383E1,8.386685E0,1.8757545E1,1.0714504E1,4.82448E0,6.1814747E0,1.6345154E1,1.0465988E1,9.247271E0,4.3924904E-1,5.464617E0,3.0977116E0,3.154408E0,1.6015106E0,1.5849802E1,6.5419827E0,4.6274223E0,2.524908E0,7.610317E0,6.0797544E0,0E0,0E0,6.407551E0,2.856039E0,1.9915824E0,0E0,1.6022491E0,0E0,5.5686164E-1,0E0,1.4797162E1,1.1193732E1,5.8771935E0,0E0,3.0620365E0,4.3407106E0,1.8089914E0,0E0,8.019596E0,5.024898E0,3.508893E0,2.849543E0,4.21233E0,4.608476E0,0E0,8.7844163E-1,0E0,0E0,0E0,0E0,0E0,0E0,0E0,0E0,0E0,0E0,0E0,0E0,0E0,0E0,0E0,0E0,0E0,0E0,0E0,0E0,0E0,0E0,0E0,0E0,0E0,0E0,0E0,0E0,0E0,0E0,0E0,0E0],"parents":[2147483647,0,0,1,1,2,2,3,3,4,4,5,5,6,6,7,7,8,8,9,9,10,10,11,11,12,12,13,13,14,14,15,15,16,16,17,17,18,18,19,19,20,20,23,23,24,24,25,25,27,27,29,29,31,31,32,32,33,33,35,35,36,36,37,37,39,39,40,40,41,41,42,42,43,43,44,44,46,46],"right_children":[2,4,6,8,10,12,14,16,18,20,22,24,26,28,30,32,34,36,38,40,42,-1,-1,44,46,48,-1,50,-1,52,-1,54,56,58,-1,60,62,64,-1,66,68,70,72,74,76,-1,78,-1,-1,-1,-1,-1,-1,-1,-1,-1,-1,-1,-1,-1,-1,-1,-1,-1,-1,-1,-1,-1,-1,-1,-1,-1,-1,-1,-1,-1,-1,-1,-1],"split_conditions":[5E-1,1.5E0,5E-1,5E-1,5E-1,5E-1,5E-1,5E-1,3.5E0,5E-1,1.5E0,1.5E0,5E-1,2.5E0,3.5E0,5E-1,5E-1,5E-1,5E-1,5E-1,3.5E0,-3.4150916E-1,-5.539808E-2,5E-1,5E-1,1.5E0,-2.3366548E-1,2.5E0,-1.1302263E-1,5E-1,1.0339161E-1,5E-1,5E-1,5E-1,3.045463E-1,5E-1,5E-1,5E-1,1.6694927E-1,4.5E0,2.5E0,5E-1,5E-1,1.5E0,5E-1,2.8713736E-1,1.5E0,3.225158E-1,-8.195796E-2,4.4478455E-1,4.2133972E-2,-2.8537042E-2,-2.941136E-1,5.9355036E-3,-9.577643E-2,2.8108805E-1,-2.89099E-1,-2.3531313E-1,2.5737125E-1,2.9891217E-1,-3.1086124E-2,-2.7267724E-1,2.15276E-1,-2.8131905E-1,7.8235045E-2,1.9822182E-1,-5.128118E-2,-2.932145E-1,7.1069136E-2,5.6534402E-2,-3.7626526E-1,2.0857722E-1,-2.1637942E-1,-2.8885916E-1,1.7245322E-1,-1.5065184E-1,3.0502805E-1,5.8201578E-2,-2.3913544E-1],"split_indices":[4633,2128,2047,1133,1865,1129,3758,3834,2527,4934,2462,2113,3403,2892,3323,4745,3272,2535,1070,3807,2188,0,0,2625,4469,2063,0,2822,0,1807,0,2063,1664,3133,0,1192,1935,4929,0,2053,2128,2822,3247,2483,3008,0,384,0,0,0,0,0,0,0,0,0,0,0,0,0,0,0,0,0,0,0,0,0,0,0,0,0,0,0,0,0,0,0,0],"split_type":[0,0,0,0,0,0,0,0,0,0,0,0,0,0,0,0,0,0,0,0,0,0,0,0,0,0,0,0,0,0,0,0,0,0,0,0,0,0,0,0,0,0,0,0,0,0,0,0,0,0,0,0,0,0,0,0,0,0,0,0,0,0,0,0,0,0,0,0,0,0,0,0,0,0,0,0,0,0,0],"sum_hessian":[1.2096294E3,1.1387085E3,7.09209E1,9.9288586E2,1.458226E2,5.999967E1,1.0921229E1,9.459783E2,4.690756E1,1.4110371E2,4.7188807E0,5.5210045E1,4.7896233E0,6.2248497E0,4.6963797E0,9.014523E2,4.4525993E1,3.9604794E1,7.302763E0,1.2779722E2,1.3306496E1,3.6888978E0,1.0299826E0,5.0925568E1,4.2844806E0,3.738297E0,1.051326E0,5.144764E0,1.0800858E0,3.561854E0,1.1345258E0,8.742292E2,2.7223108E1,4.306382E1,1.4621739E0,3.5020275E1,4.584519E0,6.083847E0,1.2189157E0,1.1507036E2,1.2726864E1,7.589373E0,5.7171226E0,4.4673122E1,6.252444E0,2.179887E0,2.1045933E0,2.6612995E0,1.0769978E0,3.7743564E0,1.3704078E0,1.1974865E0,2.3643675E0,7.184247E2,1.5580453E2,2.4515125E1,2.707982E0,4.156379E1,1.5000285E0,3.2475883E1,2.544394E0,2.3365245E0,2.2479944E0,4.9572563E0,1.1265908E0,1.0242128E2,1.264908E1,4.4830627E0,8.243801E0,1.9417428E0,5.64763E0,4.7169175E0,1.0002054E0,4.344327E1,1.2298504E0,3.813264E0,2.4391797E0,1.0071257E0,1.0974677E0],"tree_param":{"num_deleted":"0","num_feature":"5000","num_nodes":"79","size_leaf_vector":"0"}},{"base_weights":[1.7401528E-3,-2.7587596E-2,4.4162935E-1,3.5425805E-2,-2.277439E-1,5.460221E-1,-6.340021E-1,-1.393086E-2,3.9003655E-1,-3.1205168E-1,2.9355994E-1,6.034615E-1,-6.6496843E-1,-8.7337977E-1,3.66753E-1,2.9336095E-2,-4.910813E-1,4.567701E-1,-9.549099E-1,-3.9483348E-1,4.003661E-1,3.9863762E-1,-8.499303E-1,6.570932E-1,-6.8173534E-1,-8.9498836E-1,-6.5736204E-2,-9.650858E-1,-2.4747956E-1,-1.5147337E-2,4.239738E-1,-1.2246217E0,-3.5137853E-1,5.17201E-1,-5.657213E-1,-1.1070284E0,-1.8165351E-1,-4.3521893E-1,6.46732E-1,8.102028E-1,-1.8221453E-1,5.2360076E-1,-5.138147E-1,7.4805003E-1,-2.3278268E-1,-1.0612853E0,2.9325099E-3,8.0026835E-2,-3.093695E-1,5.150602E-1,-6.38556E-1,-1.4244611E0,1.930547E-1,-4.1737834E-1,8.4439766E-1,6.1930317E-1,-1.7955424E-1,-1.0514256E0,5.084721E-1,-5.019035E-1,2.1782102E-1,9.2728746E-1,-6.627963E-1,1.016898E0,-3.0461475E-1,-6.58728E-1,6.5407676E-1,6.412535E-1,-5.9938663E-1,3.3235902E-1,-8.741557E-1,8.283109E-1,-3.245034E-1,-6.7577904E-1,7.3442E-1],"categories":[],"categories_nodes":[],"categories_segments":[],"categories_sizes":[],"default_left":[1,1,1,1,1,1,1,1,1,1,1,1,1,1,0,1,1,1,1,1,1,1,0,1,1,0,0,0,0,1,1,1,1,1,1,0,0,1,1,1,1,1,1,1,1,0,0,0,0,0,0,0,0,0,0,0,0,0,0,0,0,0,0,0,0,0,0,0,0,0,0,0,0,0,0],"id":11,"left_children":[1,3,5,7,9,11,13,15,17,19,21,23,25,27,-1,29,31,33,35,37,39,41,-1,43,45,-1,-1,-1,-1,47,49,51,53,55,57,-1,-1,59,61,63,65,67,69,71,73,-1,-1,-1,-1,-1,-1,-1,-1,-1,-1,-1,-1,-1,-1,-1,-1,-1,-1,-1,-1,-1,-1,-1,-1,-1,-1,-1,-1,-1,-1],"loss_changes":[1.531107E1,1.4041926E1,8.675719E0,1.4832316E1,1.1806812E1,5.1420364E0,2.0032556E0,1.5386497E1,9.728951E0,1.3718529E1,4.8594203E0,4.969103E0,4.3214595E-1,1.0353804E-1,0E0,1.2007535E1,5.9193487E0,6.429531E0,4.1268158E-1,8.96777E0,5.9813643E0,4.2755084E0,0E0,5.3117714E0,8.134668E-1,0E0,0E0,0E0,0E0,1.725595E1,7.0346775E0,2.9693375E0,4.570847E0,6.819666E0,3.6754763E0,0E0,0E0,8.792351E0,3.5942652E0,3.6571016E0,4.7771473E0,4.5330343E0,1.7349707E0,5.246647E0,3.3451529E0,0E0,0E0,0E0,0E0,0E0,0E0,0E0,0E0,0E0,0E0,0E0,0E0,0E0,0E0,0E0,0E0,0E0,0E0,0E0,0E0,0E0,0E0,0E0,0E0,0E0,0E0,0E0,0E0,0E0,0E0],"parents":[2147483647,0,0,1,1,2,2,3,3,4,4,5,5,6,6,7,7,8,8,9,9,10,10,11,11,12,12,13,13,15,15,16,16,17,17,18,18,19,19,20,20,21,21,23,23,24,24,29,29,30,30,31,31,32,32,33,33,34,34,37,37,38,38,39,39,40,40,41,41,42,42,43,43,44,44],"right_children":[2,4,6,8,10,12,14,16,18,20,22,24,26,28,-1,30,32,34,36,38,40,42,-1,44,46,-1,-1,-1,-1,48,50,52,54,56,58,-1,-1,60,62,64,66,68,70,72,74,-1,-1,-1,-1,-1,-1,-1,-1,-1,-1,-1,-1,-1,-1,-1,-1,-1,-1,-1,-1,-1,-1,-1,-1,-1,-1,-1,-1,-1,-1],"split_conditions":[5E-1,5E-1,3.5E0,5E-1,5E-1,5E-1,1.5E0,5E-1,5.5E0,5E-1,4.45E1,2.5E0,5E-1,5E-1,1.10025905E-1,5E-1,5E-1,5E-1,5E-1,5E-1,5E-1,2.5E0,-2.549791E-1,5E-1,1.5E0,-2.684965E-1,-1.9720862E-2,-2.8952575E-1,-7.424387E-2,5E-1,5E-1,5E-1,5E-1,5E-1,5E-1,-3.3210853E-1,-5.4496057E-2,1.5E0,5E-1,2.5E0,1.5E0,5E-1,1.5E0,5E-1,5E-1,-3.183856E-1,8.79753E-4,2.4008052E-2,-9.2810854E-2,1.5451807E-1,-1.9156681E-1,-4.2733836E-1,5.7916414E-2,-1.252135E-1,2.5331932E-1,1.8579096E-1,-5.3866275E-2,-3.154277E-1,1.5254164E-1,-1.5057105E-1,6.534631E-2,2.7818626E-1,-1.988389E-1,3.0506942E-1,-9.1384426E-2,-1.9761841E-1,1.9622304E-1,1.9237605E-1,-1.79816E-1,9.970771E-2,-2.6224673E-1,2.4849328E-1,-9.735102E-2,-2.0273373E-1,2.20326E-1],"split_indices":[4097,1321,2063,1428,1474,352,1730,1765,2527,3302,1796,1737,670,1224,0,1194,3616,1419,3746,242,2063,3075,0,1026,3735,0,0,0,0,2527,4054,2115,2262,4249,3008,0,0,2180,65,4539,4623,3287,127,2075,1994,0,0,0,0,0,0,0,0,0,0,0,0,0,0,0,0,0,0,0,0,0,0,0,0,0,0,0,0,0,0],"split_type":[0,0,0,0,0,0,0,0,0,0,0,0,0,0,0,0,0,0,0,0,0,0,0,0,0,0,0,0,0,0,0,0,0,0,0,0,0,0,0,0,0,0,0,0,0,0,0,0,0,0,0,0,0,0,0,0,0,0,0,0,0,0,0,0,0,0,0,0,0,0,0,0,0,0,0],"sum_hessian":[1.184872E3,1.1116919E3,7.318006E1,8.4613416E2,2.6555777E2,6.7154884E1,6.0251813E0,7.43597E2,1.0253718E2,2.2893472E2,3.662303E1,6.459281E1,2.562069E0,4.9648767E0,1.0603046E0,6.8263556E2,6.0961376E1,9.831916E1,4.218019E0,2.0550156E2,2.3433165E1,3.4137455E1,2.4855762E0,6.2474453E1,2.1183603E0,1.4947423E0,1.0673267E0,3.8577306E0,1.1071461E0,6.143481E2,6.82875E1,8.510292E0,5.2451084E1,9.32992E1,5.0199594E0,3.163948E0,1.0540707E0,1.9839133E2,7.110235E0,1.3526654E1,9.906511E0,3.0400215E1,3.737241E0,5.6825527E1,5.6489267E0,1.0089625E0,1.1093978E0,4.6474246E2,1.496056E2,6.337027E1,4.9172273E0,7.4546757E0,1.0556169E0,5.032443E1,2.1266565E0,8.147156E1,1.1827642E1,3.4714937E0,1.5484656E0,1.8021979E2,1.8171534E1,6.096091E0,1.0141447E0,1.1485073E1,2.0415807E0,6.445964E0,3.4605472E0,2.7905588E1,2.4946265E0,1.1393671E0,2.597874E0,5.3081104E1,3.7444208E0,4.0810413E0,1.5678852E0],"tree_param":{"num_deleted":"0","num_feature":"5000","num_nodes":"75","size_leaf_vector":"0"}},{"base_weights":[-1.9670876E-4,-2.748888E-2,4.346679E-1,3.4289649E-3,-4.1384813E-1,4.8403907E-1,-1.0164047E0,-2.1712212E-2,5.370618E-1,-1.7500898E-1,-7.889203E-1,5.482612E-1,-6.615347E-1,-4.594538E-2,4.8027205E-1,6.1607194E-1,-7.1826357E-1,-4.7988236E-1,3.781899E-1,-8.7219507E-1,7.3961496E-1,6.3590246E-1,-3.359729E-1,-9.463587E-1,-3.5232376E-2,-2.3094878E-2,-6.0724837E-1,6.7356557E-1,-2.835633E-2,6.942542E-1,-5.059511E-1,-1.1170218E-1,-1.0045131E0,-6.5390617E-1,7.763153E-1,-1.0605925E0,5.940137E-1,-9.4984484E-1,3.0582303E-1,6.9964874E-1,-7.193778E-1,5.637813E-1,-7.256012E-1,-8.1471294E-2,1.9217673E-1,-8.720916E-1,-1.19409986E-1,7.6222783E-1,-4.5739338E-1,-4.695985E-1,6.035558E-1,7.5620836E-1,-5.6204236E-1,-1.0081673E0,3.3244368E-1,-7.7799743E-1,4.4001243E-1,-2.533311E-2,1.0511976E0,8.4626603E-1,-4.5354623E-1,-1.0405924E0,4.8828803E-2,2.0456684E-1,8.92707E-1,-1.1972356E0,9.250287E-2,-1.012535E0,3.8821552E-2],"categories":[],"categories_nodes":[],"categories_segments":[],"categories_sizes":[],"default_left":[1,1,1,1,1,1,0,1,1,1,1,1,1,1,1,1,1,1,1,1,0,1,1,0,0,1,1,1,1,1,1,0,0,1,1,0,1,1,0,1,1,0,1,0,0,0,0,0,0,0,0,0,0,0,0,0,0,0,0,0,0,0,0,0,0,0,0,0,0],"id":12,"left_children":[1,3,5,7,9,11,-1,13,15,17,19,21,23,25,27,29,31,33,35,37,-1,39,41,-1,-1,43,45,47,49,51,53,-1,-1,55,57,-1,59,61,-1,63,65,-1,67,-1,-1,-1,-1,-1,-1,-1,-1,-1,-1,-1,-1,-1,-1,-1,-1,-1,-1,-1,-1,-1,-1,-1,-1,-1,-1],"loss_changes":[1.3871755E1,1.313859E1,5.436803E0,1.36863985E1,7.1623898E0,5.3234806E0,0E0,1.1875008E1,4.994973E0,8.795523E0,4.6445007E0,5.2040195E0,6.8602145E-1,1.1919537E1,4.439209E0,4.1864758E0,4.3985403E-1,7.8022885E0,6.438696E0,3.058052E0,0E0,5.5948963E0,2.6742334E0,0E0,0E0,1.1263679E1,4.5930567E0,3.6194124E0,4.0030427E0,3.6390114E0,1.7778621E0,0E0,0E0,4.3945045E0,1.0220728E0,0E0,4.8515167E0,2.6453056E0,0E0,5.245718E0,1.3291599E0,0E0,1.1241779E0,0E0,0E0,0E0,0E0,0E0,0E0,0E0,0E0,0E0,0E0,0E0,0E0,0E0,0E0,0E0,0E0,0E0,0E0,0E0,0E0,0E0,0E0,0E0,0E0,0E0,0E0],"parents":[2147483647,0,0,1,1,2,2,3,3,4,4,5,5,7,7,8,8,9,9,10,10,11,11,12,12,13,13,14,14,15,15,16,16,17,17,18,18,19,19,21,21,22,22,25,25,26,26,27,27,28,28,29,29,30,30,33,33,34,34,36,36,37,37,39,39,40,40,42,42],"right_children":[2,4,6,8,10,12,-1,14,16,18,20,22,24,26,28,30,32,34,36,38,-1,40,42,-1,-1,44,46,48,50,52,54,-1,-1,56,58,-1,60,62,-1,64,66,-1,68,-1,-1,-1,-1,-1,-1,-1,-1,-1,-1,-1,-1,-1,-1,-1,-1,-1,-1,-1,-1,-1,-1,-1,-1,-1,-1],"split_conditions":[5E-1,1.5E0,1.5E0,5E-1,2.5E0,5E-1,-3.0492145E-1,5E-1,5E-1,5E-1,5E-1,2.5E0,5E-1,1.5E0,5E-1,5E-1,5E-1,5E-1,1.5E0,5E-1,2.218845E-1,1.5E0,5E-1,-2.8390762E-1,-1.0569713E-2,5E-1,1.5E0,5E-1,5E-1,5E-1,5E-1,-3.3510655E-2,-3.0135396E-1,5E-1,1.5E0,-3.1817776E-1,1.5E0,5E-1,9.174691E-2,9.5E0,1.8E1,1.6913441E-1,5E-1,-2.444139E-2,5.765302E-2,-2.616275E-1,-3.5823E-2,2.2866836E-1,-1.3721801E-1,-1.4087956E-1,1.8106675E-1,2.2686252E-1,-1.6861272E-1,-3.0245018E-1,9.973311E-2,-2.3339924E-1,1.3200374E-1,-7.5999335E-3,3.153593E-1,2.5387982E-1,-1.3606387E-1,-3.1217775E-1,1.4648641E-2,6.1370052E-2,2.678121E-1,-3.5917068E-1,2.7750863E-2,-3.037605E-1,1.1646466E-2],"split_indices":[1460,1650,3956,879,2527,2538,0,233,1116,2940,2893,4954,308,1100,1103,128,3052,851,2397,882,0,4883,1444,0,0,2919,2128,4485,2372,4282,1074,0,0,2955,3688,0,1180,1052,0,1796,1796,0,2360,0,0,0,0,0,0,0,0,0,0,0,0,0,0,0,0,0,0,0,0,0,0,0,0,0,0],"split_type":[0,0,0,0,0,0,0,0,0,0,0,0,0,0,0,0,0,0,0,0,0,0,0,0,0,0,0,0,0,0,0,0,0,0,0,0,0,0,0,0,0,0,0,0,0,0,0,0,0,0,0,0,0,0,0,0,0,0,0,0,0,0,0,0,0,0,0,0,0],"sum_hessian":[1.1667906E3,1.0987686E3,6.80221E1,1.0182738E3,8.0494774E1,6.6428375E1,1.5937269E0,9.733743E2,4.4899513E1,5.007471E1,3.0420067E1,6.339575E1,3.0326276E0,9.2941547E2,4.3958836E1,4.2719955E1,2.1795602E0,3.236859E1,1.770612E1,2.925561E1,1.1644577E0,5.79344E1,5.461348E0,1.733333E0,1.2992945E0,8.940597E2,3.5355797E1,3.161858E1,1.2340255E1,4.0293556E1,2.4263976E0,1.1445309E0,1.0350292E0,2.8851223E1,3.5173678E0,1.7989982E0,1.5907121E1,2.7628174E1,1.6274357E0,5.579387E1,2.1405327E0,1.5152545E0,3.9460936E0,7.0382184E2,1.9023781E2,2.2404776E1,1.2951023E1,2.962235E1,1.9962292E0,7.4176383E0,4.9226165E0,3.877923E1,1.5143279E0,1.3907887E0,1.0356088E0,2.6171227E1,2.679998E0,1.1299369E0,2.387431E0,1.2974917E1,2.9322035E0,2.5288298E1,2.3398755E0,1.6230837E1,3.956303E1,1.0486639E0,1.0918688E0,2.6331422E0,1.3129512E0],"tree_param":{"num_deleted":"0","num_feature":"5000","num_nodes":"69","size_leaf_vector":"0"}},{"base_weights":[-1.4334096E-3,2.84676E-2,-3.6233297E-1,-7.302531E-3,4.1270882E-1,-4.628104E-1,3.5286918E-1,1.3819854E-2,-7.4667805E-1,5.1382506E-1,-5.076626E-1,-5.205921E-1,8.1404346E-1,5.5499053E-1,-6.8965745E-1,-2.3943057E-2,4.0455127E-1,-1.042565E0,2.7632345E-3,5.5260974E-1,-1.0862433E0,4.7214305E-1,-1.0496192E0,-5.850759E-1,3.9826486E-1,1.0280756E-1,1.0359142E0,7.313035E-1,-4.656378E-1,-4.164767E-2,7.894693E-1,4.7313923E-1,-1.0098393E0,-1.1592089E0,3.7855965E-1,5.086184E-1,-9.902054E-1,6.327332E-1,-3.4836617E-1,1.0574095E0,-3.5837656E-1,-1.259862E0,-2.0860171E-1,-6.3538575E-1,8.3851695E-1,-3.3907524E-1,1.1114718E0,8.950222E-1,8.935532E-3,-2.4201578E-2,-8.5433286E-1,9.3570936E-1,-2.7987948E-1,5.363153E-1,-8.402076E-1,-1.3181653E0,-3.3157426E-1,1.1548448E0,-5.3108644E-1,-1.1629246E0,-3.0520105E-1,6.983927E-1,-2.2429453E-1,3.2585555E-1,-8.548003E-1,-6.82307E-1,4.397972E-1,2.0467773E-1,-6.851925E-1,2.2461951E-1,1.4463665E0,1.0269345E0,5.4468576E-2],"categories":[],"categories_nodes":[],"categories_segments":[],"categories_sizes":[],"default_left":[1,1,1,1,1,1,1,1,1,1,1,1,1,1,0,1,1,1,1,1,0,1,1,1,1,0,0,1,0,1,1,1,0,1,0,1,1,1,1,0,0,0,0,1,0,1,1,1,0,0,0,0,0,0,0,0,0,0,0,0,0,0,0,0,0,0,0,0,0,0,0,0,0],"id":13,"left_children":[1,3,5,7,9,11,13,15,17,19,21,23,25,27,-1,29,31,33,35,37,-1,39,41,43,45,-1,-1,47,-1,49,51,53,-1,55,-1,57,59,61,63,-1,-1,-1,-1,65,-1,67,69,71,-1,-1,-1,-1,-1,-1,-1,-1,-1,-1,-1,-1,-1,-1,-1,-1,-1,-1,-1,-1,-1,-1,-1,-1,-1],"loss_changes":[1.2448144E1,1.4645206E1,6.505788E0,1.5246293E1,8.706023E0,6.1652584E0,2.7932315E0,1.4019178E1,6.0154743E0,5.705141E0,5.5326605E0,4.680475E0,4.8671198E-1,2.164468E0,0E0,1.2514827E1,8.600602E0,3.6616535E0,4.8596854E0,6.0659943E0,0E0,2.3563042E0,8.719773E-1,5.5851784E0,3.2782352E0,0E0,0E0,1.060153E0,0E0,1.2019707E1,3.1570435E0,7.1331844E0,0E0,1.9590588E0,0E0,4.9174137E0,3.151393E-2,4.3611546E0,2.756763E0,0E0,0E0,0E0,0E0,3.7661533E0,0E0,7.9498947E-1,5.774853E-1,7.593565E-1,0E0,0E0,0E0,0E0,0E0,0E0,0E0,0E0,0E0,0E0,0E0,0E0,0E0,0E0,0E0,0E0,0E0,0E0,0E0,0E0,0E0,0E0,0E0,0E0,0E0],"parents":[2147483647,0,0,1,1,2,2,3,3,4,4,5,5,6,6,7,7,8,8,9,9,10,10,11,11,12,12,13,13,15,15,16,16,17,17,18,18,19,19,21,21,22,22,23,23,24,24,27,27,29,29,30,30,31,31,33,33,35,35,36,36,37,37,38,38,43,43,45,45,46,46,47,47],"right_children":[2,4,6,8,10,12,14,16,18,20,22,24,26,28,-1,30,32,34,36,38,-1,40,42,44,46,-1,-1,48,-1,50,52,54,-1,56,-1,58,60,62,64,-1,-1,-1,-1,66,-1,68,70,72,-1,-1,-1,-1,-1,-1,-1,-1,-1,-1,-1,-1,-1,-1,-1,-1,-1,-1,-1,-1,-1,-1,-1,-1,-1],"split_conditions":[2.5E0,5E-1,4.5E0,5E-1,5E-1,1.05E1,5E-1,5E-1,5E-1,5E-1,3.5E0,2.5E0,5E-1,1.95E1,-2.0689724E-1,5E-1,5E-1,5E-1,5E-1,1.5E0,-3.25873E-1,1.5E0,1.5E0,5E-1,2.5E1,3.0842269E-2,3.1077427E-1,5E-1,-1.3969135E-1,5E-1,5E-1,5E-1,-3.029518E-1,1.5E0,1.13567896E-1,5E-1,1.5E0,5E-1,5E-1,3.1722286E-1,-1.0751297E-1,-3.779586E-1,-6.258052E-2,5E-1,2.515551E-1,5E-1,5E-1,1.5E0,2.6806595E-3,-7.2604734E-3,-2.5629988E-1,2.807128E-1,-8.396385E-2,1.608946E-1,-2.520623E-1,-3.954496E-1,-9.9472284E-2,3.4645343E-1,-1.5932594E-1,-3.488774E-1,-9.156032E-2,2.0951782E-1,-6.728836E-2,9.775667E-2,-2.564401E-1,-2.0469211E-1,1.3193916E-1,6.1403323E-2,-2.0555776E-1,6.738585E-2,4.3390998E-1,3.0808038E-1,1.6340574E-2],"split_indices":[2053,4426,1130,2271,3655,4896,1012,1331,3489,4304,3460,4192,8,3616,0,3228,1879,741,4321,1650,0,1103,1357,1361,1796,0,0,200,0,1814,3746,1767,0,1650,0,4256,4130,1898,2164,0,0,0,0,3598,0,3014,4591,4950,0,0,0,0,0,0,0,0,0,0,0,0,0,0,0,0,0,0,0,0,0,0,0,0,0],"split_type":[0,0,0,0,0,0,0,0,0,0,0,0,0,0,0,0,0,0,0,0,0,0,0,0,0,0,0,0,0,0,0,0,0,0,0,0,0,0,0,0,0,0,0,0,0,0,0,0,0,0,0,0,0,0,0,0,0,0,0,0,0,0,0,0,0,0,0,0,0,0,0,0,0],"sum_hessian":[1.1515834E3,1.0643239E3,8.725952E1,9.745785E2,8.9745346E1,7.682011E1,1.0439418E1,9.4846423E2,2.6114296E1,8.125952E1,8.485828E0,7.40609E1,2.759206E0,9.135842E0,1.3035756E0,8.6573267E2,8.273151E1,1.8442062E1,7.6722345E0,7.997559E1,1.2839261E0,3.0679984E0,5.4178305E0,6.95437E1,4.5171986E0,1.0040282E0,1.7551779E0,8.031826E0,1.1040168E0,8.482193E2,1.7513414E1,7.953986E1,3.19164E0,1.7213503E1,1.2285589E0,5.4059978E0,2.2662365E0,7.3717636E1,6.2579565E0,1.639473E0,1.4285254E0,3.9358907E0,1.4819396E0,6.770469E1,1.8390142E0,2.4789467E0,2.0382516E0,6.3529673E0,1.6788584E0,8.314012E2,1.681809E1,1.5516421E1,1.9969934E0,7.6453835E1,3.0860286E0,1.3942922E1,3.2705805E0,3.2655559E0,2.1404421E0,1.2526897E0,1.0135467E0,6.864373E1,5.0739045E0,2.8372548E0,3.4207017E0,6.522371E1,2.4809752E0,1.1231366E0,1.3558102E0,1.0166705E0,1.021581E0,5.2995467E0,1.0534204E0],"tree_param":{"num_deleted":"0","num_feature":"5000","num_nodes":"73","size_leaf_vector":"0"}},{"base_weights":[-1.9283645E-3,-1.3069526E-2,8.963196E-1,-3.268464E-3,-9.898116E-1,1.0431468E0,-2.9996285E-1,7.202934E-3,-8.971638E-1,-1.1496545E0,7.614713E-2,1.1534971E0,2.9723544E-2,-4.71664E-3,7.891388E-1,-1.177158E0,-4.458684E-2,-1.251137E0,-1.7365581E-1,1.2383375E0,1.9992074E-1,1.4203856E-2,-5.0159913E-1,9.4571596E-1,-3.060877E-1,-1.3109876E0,-2.5662038E-1,5.858739E-1,-7.109026E-1,-2.593086E-3,5.7073474E-1,-6.210729E-1,5.700504E-1,1.0583299E0,-1.6865352E-1],"categories":[],"categories_nodes":[],"categories_segments":[],"categories_sizes":[],"default_left":[1,1,1,1,1,1,0,1,1,1,0,1,0,1,1,1,1,0,0,0,0,1,1,1,0,0,0,0,0,0,0,0,0,0,0],"id":14,"left_children":[1,3,5,7,9,11,-1,13,15,17,-1,19,-1,21,23,25,27,-1,-1,-1,-1,29,31,33,-1,-1,-1,-1,-1,-1,-1,-1,-1,-1,-1],"loss_changes":[1.1373449E1,1.0741581E1,2.7585173E0,1.0417476E1,1.9869051E0,1.377552E0,0E0,1.0259472E1,3.0237036E0,7.4902534E-1,0E0,6.7135906E-1,0E0,1.02059355E1,3.1237555E0,8.537893E-1,2.1914186E0,0E0,0E0,0E0,0E0,9.779628E0,5.45249E0,2.023857E0,0E0,0E0,0E0,0E0,0E0,0E0,0E0,0E0,0E0,0E0,0E0],"parents":[2147483647,0,0,1,1,2,2,3,3,4,4,5,5,7,7,8,8,9,9,11,11,13,13,14,14,15,15,16,16,21,21,22,22,23,23],"right_children":[2,4,6,8,10,12,-1,14,16,18,-1,20,-1,22,24,26,28,-1,-1,-1,-1,30,32,34,-1,-1,-1,-1,-1,-1,-1,-1,-1,-1,-1],"split_conditions":[5E-1,5E-1,1.5E0,5E-1,1.5E0,5E-1,-8.998886E-2,5E-1,5E-1,5E-1,2.284414E-2,5E-1,8.9170635E-3,5E-1,5E-1,5E-1,1.5E0,-3.7534112E-1,-5.2096743E-2,3.7150127E-1,5.9976224E-2,5E-1,5E-1,5E-1,-9.182631E-2,-3.932963E-1,-7.698612E-2,1.7576218E-1,-2.1327078E-1,-7.779259E-4,1.7122042E-1,-1.8632187E-1,1.7101513E-1,3.1749898E-1,-5.059606E-2],"split_indices":[1866,4264,1721,315,2033,923,0,1069,2372,1983,0,3297,0,1707,3275,3723,127,0,0,0,0,2132,3563,747,0,0,0,0,0,0,0,0,0,0,0],"split_type":[0,0,0,0,0,0,0,0,0,0,0,0,0,0,0,0,0,0,0,0,0,0,0,0,0,0,0,0,0,0,0,0,0,0,0],"sum_hessian":[1.1343191E3,1.1213956E3,1.292346E1,1.1112482E3,1.014741E1,1.1624698E1,1.2987623E0,1.0993618E3,1.1886361E1,8.755922E0,1.3914875E0,1.0358551E1,1.2661465E0,1.0838341E3,1.5527644E1,8.661227E0,3.2251337E0,7.6758933E0,1.0800291E0,9.238012E0,1.1205382E0,1.0450132E3,3.8821026E1,1.3704864E1,1.8227808E0,7.1915517E0,1.4696759E0,1.7191855E0,1.5059483E0,1.0153633E3,2.9649857E1,3.5305424E1,3.515605E0,1.2492688E1,1.2121757E0],"tree_param":{"num_deleted":"0","num_feature":"5000","num_nodes":"35","size_leaf_vector":"0"}},{"base_weights":[-1.4839617E-3,-3.6172003E-2,2.52628E-1,2.0301491E-2,-2.703916E-1,3.421063E-1,-5.6122756E-1,-3.0429773E-2,3.3902675E-1,-3.025158E-1,6.3959026E-1,3.94559E-1,-8.0282694E-1,-7.464854E-1,1.1244795E-1,1.2848325E-2,-4.489205E-1,1.7052715E-1,7.075204E-1,-3.6602843E-1,1.91756E-1,8.701273E-1,-2.2463982E-1,6.042566E-1,1.13941684E-1,-9.8881006E-1,1.01388395E-2,-8.794763E-1,2.6486784E-1,-2.983863E-1,5.8320713E-1,-1.7468065E-2,6.736068E-1,-5.709363E-1,2.6475555E-1,2.6613888E-1,-4.5911413E-1,8.535007E-1,-3.2206622E-1,-4.2489773E-1,3.2615125E-1,4.3619853E-1,-7.2667885E-1,6.861428E-1,-3.2912987E-1,2.6476663E-1,-5.052749E-1,-9.85657E-1,-3.3569247E-2,-4.38826E-2,6.9981027E-1,7.763553E-1,-6.846833E-1,-6.6067743E-1,7.0212215E-1,1.0180142E0,-2.9222894E-1,3.1990388E-1,-9.909825E-1,-7.067009E-1,5.767843E-1,9.666843E-1,-2.9240617E-1,-1.0325592E0,2.847404E-1,-4.6891186E-1,5.943184E-1,6.716035E-1,-4.6011937E-1,7.0250726E-1,-3.24738E-1,-8.6246186E-1,-1.1139494E-1,8.8758904E-1,2.2414546E-1,-1.1802503E0,5.9477127E-1,-6.680281E-1,3.6050978E-1,-9.232382E-2,-1.1341362E0],"categories":[],"categories_nodes":[],"categories_segments":[],"categories_sizes":[],"default_left":[1,1,1,1,1,1,1,1,1,1,1,1,1,1,1,1,1,1,1,1,1,0,0,1,1,0,0,1,0,0,0,1,1,1,1,1,1,1,1,1,1,1,1,1,1,1,1,0,0,0,0,0,0,0,0,0,0,0,0,0,0,0,0,0,0,0,0,0,0,0,0,0,0,0,0,0,0,0,0,0,0],"id":15,"left_children":[1,3,5,7,9,11,13,15,17,19,21,23,25,27,29,31,33,35,37,39,41,-1,-1,43,45,-1,-1,47,-1,-1,-1,49,51,53,55,57,59,61,63,65,67,69,71,73,75,77,79,-1,-1,-1,-1,-1,-1,-1,-1,-1,-1,-1,-1,-1,-1,-1,-1,-1,-1,-1,-1,-1,-1,-1,-1,-1,-1,-1,-1,-1,-1,-1,-1,-1,-1],"loss_changes":[9.946441E0,1.3137833E1,1.0061902E1,1.2960018E1,5.833847E0,7.687293E0,1.8067069E0,1.253577E1,6.7127047E0,5.9420986E0,1.5702648E0,6.876259E0,8.7273455E-1,1.7067332E0,9.179185E-1,1.2590923E1,5.7998056E0,4.747939E0,5.417454E0,6.9065857E0,5.2458906E0,0E0,0E0,5.37084E0,4.963046E0,0E0,0E0,8.575115E-1,0E0,0E0,0E0,1.1424917E1,4.37969E0,6.8288765E0,4.55773E0,4.8685784E0,3.0997598E0,4.204809E0,2.4388354E0,7.165081E0,3.9988565E0,3.8685405E0,3.2082248E-1,5.590809E0,5.502731E0,4.012968E0,2.614716E0,0E0,0E0,0E0,0E0,0E0,0E0,0E0,0E0,0E0,0E0,0E0,0E0,0E0,0E0,0E0,0E0,0E0,0E0,0E0,0E0,0E0,0E0,0E0,0E0,0E0,0E0,0E0,0E0,0E0,0E0,0E0,0E0,0E0,0E0],"parents":[2147483647,0,0,1,1,2,2,3,3,4,4,5,5,6,6,7,7,8,8,9,9,10,10,11,11,12,12,13,13,14,14,15,15,16,16,17,17,18,18,19,19,20,20,23,23,24,24,27,27,31,31,32,32,33,33,34,34,35,35,36,36,37,37,38,38,39,39,40,40,41,41,42,42,43,43,44,44,45,45,46,46],"right_children":[2,4,6,8,10,12,14,16,18,20,22,24,26,28,30,32,34,36,38,40,42,-1,-1,44,46,-1,-1,48,-1,-1,-1,50,52,54,56,58,60,62,64,66,68,70,72,74,76,78,80,-1,-1,-1,-1,-1,-1,-1,-1,-1,-1,-1,-1,-1,-1,-1,-1,-1,-1,-1,-1,-1,-1,-1,-1,-1,-1,-1,-1,-1,-1,-1,-1,-1,-1],"split_conditions":[5E-1,5E-1,4.5E0,5E-1,6.5E0,5E-1,1.5E0,5E-1,5E-1,5E-1,5E-1,1.5E0,5E-1,1.5E0,5E-1,5E-1,5E-1,1.5E0,5E-1,5E-1,5E-1,2.610382E-1,-6.739195E-2,5E-1,1.5E0,-2.9664302E-1,3.041652E-3,1.5E0,7.946035E-2,-8.9515895E-2,1.7496215E-1,5E-1,1.5E0,5E-1,5E-1,5E-1,1.5E0,5E-1,1.5E0,5E-1,5E-1,5E-1,5E-1,5E-1,2.5E0,5E-1,5E-1,-2.956971E-1,-1.0070775E-2,-1.3164781E-2,2.0994309E-1,2.3290661E-1,-2.0540501E-1,-1.9820324E-1,2.1063666E-1,3.0540428E-1,-8.766869E-2,9.597117E-2,-2.9729477E-1,-2.1201028E-1,1.730353E-1,2.900053E-1,-8.7721854E-2,-3.0976775E-1,8.542212E-2,-1.4067356E-1,1.7829552E-1,2.0148106E-1,-1.3803582E-1,2.1075219E-1,-9.74214E-2,-2.5873858E-1,-3.3418484E-2,2.6627672E-1,6.724364E-2,-3.540751E-1,1.7843139E-1,-2.0040844E-1,1.0815294E-1,-2.7697146E-2,-3.4024087E-1],"split_indices":[1126,2053,2063,3906,2128,1865,4426,1630,4929,1715,1758,1306,2431,356,4915,1595,3785,323,2841,705,1765,0,0,487,1583,0,0,71,0,0,0,1014,2768,500,4522,1513,988,3834,3735,3535,1677,1467,3823,4512,2188,4266,4868,0,0,0,0,0,0,0,0,0,0,0,0,0,0,0,0,0,0,0,0,0,0,0,0,0,0,0,0,0,0,0,0,0,0],"split_type":[0,0,0,0,0,0,0,0,0,0,0,0,0,0,0,0,0,0,0,0,0,0,0,0,0,0,0,0,0,0,0,0,0,0,0,0,0,0,0,0,0,0,0,0,0,0,0,0,0,0,0,0,0,0,0,0,0,0,0,0,0,0,0,0,0,0,0,0,0,0,0,0,0,0,0,0,0,0,0,0,0],"sum_hessian":[1.1263627E3,9.9182886E2,1.3453384E2,7.9988025E2,1.9194856E2,1.2173004E2,1.2803807E1,6.908265E2,1.0905381E2,1.8604823E2,5.9003234E0,1.1702421E2,4.705829E0,9.957468E0,2.8463397E0,6.26959E2,6.3867485E1,7.58383E1,3.3215508E1,1.650936E2,2.095463E1,4.6524415E0,1.2478819E0,6.63153E1,5.0708908E1,3.6536741E0,1.0521549E0,8.915495E0,1.041973E0,1.7154318E0,1.1309079E0,6.003861E2,2.6572868E1,5.471327E1,9.15422E0,6.6341576E1,9.496727E0,2.9240637E1,3.9748688E0,1.5250899E2,1.2584614E1,1.6964556E1,3.9900737E0,6.1210205E1,5.1050987E0,4.1237057E1,9.47185E0,7.7744203E0,1.1410744E0,5.7996704E2,2.0419083E1,2.5102415E1,1.4704522E0,5.1559723E1,3.153543E0,3.5395937E0,5.6146255E0,6.433558E1,2.0059998E0,7.921277E0,1.57545E0,2.6754448E1,2.4861884E0,1.5078E0,2.467069E0,1.4671321E2,5.7957773E0,8.844549E0,3.7400644E0,1.262345E1,4.3411055E0,2.9396186E0,1.0504552E0,4.198301E1,1.9227192E1,2.5127907E0,2.592308E0,3.282214E0,3.7954845E1,6.4096622E0,3.0621886E0],"tree_param":{"num_deleted":"0","num_feature":"5000","num_nodes":"81","size_leaf_vector":"0"}},{"base_weights":[-1.3809804E-3,2.7170824E-2,-3.0910853E-1,-8.606317E-3,3.303486E-1,-4.246645E-1,3.4070712E-1,-2.9369114E-2,6.57681E-1,5.3869367E-1,-4.9663346E-2,-5.1363796E-1,3.2103178E-1,7.1763945E-1,-7.39875E-1,1.9136922E-2,-2.8166568E-1,8.070719E-1,-4.758571E-1,6.6946644E-1,-3.5393554E-1,3.551851E-1,-3.9458779E-1,-5.770062E-1,4.7811505E-1,8.2044965E-1,-3.4586155E-1,9.9036086E-1,-3.317737E-1,-9.724555E-1,1.2525749E-2,2.7339958E-4,7.603922E-1,-5.094476E-1,2.1785019E-2,9.1912746E-1,-7.112548E-1,1.2693189E-1,-7.432139E-1,7.280025E-1,-6.4508396E-1,5.966154E-1,-7.112272E-1,6.590455E-1,-9.1997075E-1,-6.5631247E-1,1.443067E-1,-6.326481E-1,6.4129335E-1,7.867982E-1,-2.136065E-1,1.1599125E0,-2.5996628E-1,1.5113984E-1,-6.257482E-1,1.2110772E0,-4.049939E-1,-5.2911204E-1,2.6905166E-2,-2.6492896E-2,5.049457E-1,9.8124266E-1,-7.8205514E-1,-5.7747346E-1,4.3698895E-1,1.6934986E-1,-6.3048285E-1,1.0155118E0,-3.7712783E-1,7.8952175E-1,-4.7421E-1,-1.1319978E0,1.5857609E-1,7.487844E-1,1.4767618E-1,4.6731925E-1,-1.0019661E0,9.674444E-1,-2.3004572E-1,-7.8268075E-1,5.130767E-1,5.814569E-1,-8.526013E-1,-6.9629645E-1,2.144817E-1,-3.1063824E-3,9.286419E-1,1.4040811E0,9.601433E-2],"categories":[],"categories_nodes":[],"categories_segments":[],"categories_sizes":[],"default_left":[1,1,1,1,1,1,1,1,1,1,1,1,1,1,1,1,1,1,1,1,1,1,1,1,1,1,1,1,1,0,0,1,1,1,1,1,0,0,0,1,1,1,1,1,0,1,1,1,1,0,0,0,0,0,0,1,0,0,0,0,0,0,0,0,0,0,0,0,0,0,0,0,0,0,0,0,0,0,0,0,0,0,0,0,0,0,0,0,0],"id":16,"left_children":[1,3,5,7,9,11,13,15,17,19,21,23,25,27,29,31,33,35,37,39,41,43,45,47,49,51,53,55,57,-1,-1,59,61,63,65,67,-1,-1,-1,69,71,73,75,77,-1,79,81,83,85,-1,-1,-1,-1,-1,-1,87,-1,-1,-1,-1,-1,-1,-1,-1,-1,-1,-1,-1,-1,-1,-1,-1,-1,-1,-1,-1,-1,-1,-1,-1,-1,-1,-1,-1,-1,-1,-1,-1,-1],"loss_changes":[9.744655E0,1.1012016E1,7.215685E0,1.2591783E1,8.510715E0,5.4988537E0,6.5477676E0,1.0802931E1,5.0421276E0,8.325903E0,5.5668E0,4.8139286E0,3.34298E0,3.6082644E0,7.668681E-1,1.0360448E1,9.849702E0,4.851864E0,7.119283E-1,5.1470547E0,3.6537724E0,7.737246E0,3.1210804E0,5.0374203E0,1.210826E0,2.336559E0,7.395451E-1,3.3690434E0,2.3456755E-1,0E0,0E0,9.787583E0,7.031189E0,5.489731E0,6.0735574E0,3.3084602E0,0E0,0E0,0E0,4.7132053E0,1.4010241E0,1.04037166E-1,2.9926443E0,4.4574747E0,0E0,2.5624757E0,3.909877E0,3.6995983E0,6.4742875E-1,0E0,0E0,0E0,0E0,0E0,0E0,1.6559086E0,0E0,0E0,0E0,0E0,0E0,0E0,0E0,0E0,0E0,0E0,0E0,0E0,0E0,0E0,0E0,0E0,0E0,0E0,0E0,0E0,0E0,0E0,0E0,0E0,0E0,0E0,0E0,0E0,0E0,0E0,0E0,0E0,0E0],"parents":[2147483647,0,0,1,1,2,2,3,3,4,4,5,5,6,6,7,7,8,8,9,9,10,10,11,11,12,12,13,13,14,14,15,15,16,16,17,17,18,18,19,19,20,20,21,21,22,22,23,23,24,24,25,25,26,26,27,27,28,28,31,31,32,32,33,33,34,34,35,35,39,39,40,40,41,41,42,42,43,43,45,45,46,46,47,47,48,48,55,55],"right_children":[2,4,6,8,10,12,14,16,18,20,22,24,26,28,30,32,34,36,38,40,42,44,46,48,50,52,54,56,58,-1,-1,60,62,64,66,68,-1,-1,-1,70,72,74,76,78,-1,80,82,84,86,-1,-1,-1,-1,-1,-1,88,-1,-1,-1,-1,-1,-1,-1,-1,-1,-1,-1,-1,-1,-1,-1,-1,-1,-1,-1,-1,-1,-1,-1,-1,-1,-1,-1,-1,-1,-1,-1,-1,-1],"split_conditions":[5E-1,5E-1,5E-1,5E-1,1.5E0,1.5E0,1.5E0,5E-1,3.5E0,5E-1,5E-1,3.5E0,5E-1,2.5E0,5E-1,5E-1,5E-1,5E-1,1.5E0,2.5E0,5E-1,1.5E0,5E-1,3.5E0,1.5E0,5E-1,5E-1,5E-1,5E-1,-2.9173666E-1,3.757725E-3,1.5E0,5E-1,5E-1,5.5E0,1.5E0,-2.1337645E-1,3.8079567E-2,-2.2296418E-1,5E-1,1.5E0,5E-1,5E-1,5E-1,-2.7599123E-1,5E-1,5E-1,5E-1,5E-1,2.3603946E-1,-6.408195E-2,3.4797376E-1,-7.798989E-2,4.5341954E-2,-1.8772447E-1,1.5E0,-1.21498175E-1,-1.5873362E-1,8.07155E-3,-7.947869E-3,1.5148371E-1,2.943728E-1,-2.3461655E-1,-1.7324205E-1,1.3109669E-1,5.080496E-2,-1.8914486E-1,3.0465353E-1,-1.13138355E-1,2.3685654E-1,-1.4226301E-1,-3.3959937E-1,4.757283E-2,2.2463533E-1,4.430286E-2,1.4019579E-1,-3.0058986E-1,2.9023334E-1,-6.901372E-2,-2.3480423E-1,1.5392302E-1,1.7443708E-1,-2.557804E-1,-2.0888895E-1,6.434451E-2,-9.319148E-4,2.785926E-1,4.2122436E-1,2.88043E-2],"split_indices":[2069,2184,3795,2096,2527,2133,1619,1314,2053,4286,4539,2135,4256,2069,1776,4559,3269,2077,3927,4321,2391,2170,4833,2180,2486,570,3338,1524,3749,0,0,2135,3832,2139,4970,2058,0,0,0,2330,4130,2983,4331,4924,0,478,1220,2227,912,0,0,0,0,0,0,956,0,0,0,0,0,0,0,0,0,0,0,0,0,0,0,0,0,0,0,0,0,0,0,0,0,0,0,0,0,0,0,0,0],"split_type":[0,0,0,0,0,0,0,0,0,0,0,0,0,0,0,0,0,0,0,0,0,0,0,0,0,0,0,0,0,0,0,0,0,0,0,0,0,0,0,0,0,0,0,0,0,0,0,0,0,0,0,0,0,0,0,0,0,0,0,0,0,0,0,0,0,0,0,0,0,0,0,0,0,0,0,0,0,0,0,0,0,0,0,0,0,0,0,0,0],"sum_hessian":[1.1071334E3,1.01396655E3,9.316688E1,9.0781006E2,1.0615645E2,7.93947E1,1.3772183E1,8.813029E2,2.6507177E1,6.8295334E1,3.7861115E1,7.120947E1,8.185227E0,1.0459531E1,3.3126523E0,7.399632E2,1.413397E2,2.3675013E1,2.8321652E0,5.9786453E1,8.508882E0,1.7403889E1,2.0457228E1,6.732587E1,3.8836045E0,4.5486293E0,3.6365986E0,8.346671E0,2.1128604E0,2.307036E0,1.0056163E0,7.225754E2,1.7387787E1,8.03483E1,6.099141E1,2.241536E1,1.2596532E0,1.0315783E0,1.8005869E0,5.766487E1,2.1215823E0,2.141564E0,6.3673177E0,1.4444931E1,2.9589577E0,1.3623042E1,6.834185E0,6.484499E1,2.4808724E0,2.5902479E0,1.2933564E0,3.4051604E0,1.1434689E0,1.4758655E0,2.160733E0,7.320745E0,1.0259256E0,1.0564513E0,1.056409E0,6.8708215E2,3.549326E1,1.5528262E1,1.8595251E0,7.532416E1,5.024141E0,5.0342594E1,1.0648814E1,2.1065588E1,1.3497709E0,5.5184273E1,2.4805973E0,1.0667293E0,1.0548528E0,1.1006117E0,1.0409522E0,1.1397697E0,5.227548E0,1.0659385E1,3.7855458E0,1.2592902E1,1.0301397E0,5.0405936E0,1.7935911E0,6.0479008E1,4.3659835E0,1.0701574E0,1.410715E0,6.0196257E0,1.3011194E0],"tree_param":{"num_deleted":"0","num_feature":"5000","num_nodes":"89","size_leaf_vector":"0"}},{"base_weights":[-9.7296457E-4,2.1351205E-2,-3.956038E-1,-1.6937805E-2,2.4322957E-1,-5.000187E-1,2.2692676E-1,2.4224538E-2,-2.80315E-1,3.1066376E-1,-2.509591E-1,-5.874842E-1,3.735449E-1,7.251631E-1,-2.1792185E-1,-2.1611502E-2,3.0854028E-1,-3.522738E-1,6.206307E-1,3.832461E-1,-1.637207E-1,4.643038E-1,-5.045789E-1,-6.401624E-1,7.7667314E-1,8.416943E-1,-6.8735355E-1,1.0135776E0,-3.1891607E-2,4.8551458E-1,-5.921943E-1,-5.0620887E-2,5.81974E-1,3.759473E-1,-8.914124E-1,-4.2457232E-1,4.8796877E-1,9.360772E-1,-6.383042E-1,2.2056033E-1,7.118216E-1,1.21998355E-1,-9.092912E-1,8.859448E-1,-3.8739985E-1,-8.8320845E-1,-3.8359117E-2,-7.188679E-1,3.3047184E-1,1.0498106E0,1.7618938E-1,-7.8126216E-1,-3.765246E-2,-2.0059805E-2,-5.87819E-1,7.5363916E-1,-6.190355E-1,4.8983088E-1,-2.0630065E-1,-1.2568814E0,2.0655932E-1,-5.359181E-1,2.0153382E-1,1.0323449E0,-4.653458E-1,1.1939471E0,-5.1491607E-2,3.2511345E-1,-4.4378966E-1,7.8192127E-1,-7.1595865E-1,3.4224394E-1,-6.438031E-1,-1.1059569E0,-1.0286317E-1,-1.1862543E0,1.9804348E-1,-4.8447683E-1,7.0954394E-1,-8.2936865E-1,7.230087E-2,7.4640304E-1,-3.7043133E-1],"categories":[],"categories_nodes":[],"categories_segments":[],"categories_sizes":[],"default_left":[1,1,1,1,1,1,1,1,1,1,1,1,1,1,1,1,1,1,1,1,1,1,1,1,0,1,0,0,0,0,1,1,1,1,1,1,1,1,0,1,1,1,1,0,0,1,1,1,1,0,0,0,0,0,0,0,0,0,0,0,0,0,0,0,0,0,0,0,0,0,0,0,0,0,0,0,0,0,0,0,0,0,0],"id":17,"left_children":[1,3,5,7,9,11,13,15,17,19,21,23,25,27,29,31,33,35,37,39,41,43,45,47,-1,49,-1,-1,-1,-1,51,53,55,57,59,61,63,65,-1,67,69,71,73,-1,-1,75,77,79,81,-1,-1,-1,-1,-1,-1,-1,-1,-1,-1,-1,-1,-1,-1,-1,-1,-1,-1,-1,-1,-1,-1,-1,-1,-1,-1,-1,-1,-1,-1,-1,-1,-1,-1],"loss_changes":[9.58888E0,8.756171E0,3.9014654E0,9.5418415E0,5.1327324E0,4.0563917E0,2.1656983E0,9.931256E0,7.9307585E0,4.673687E0,3.6384137E0,3.8053799E0,3.152081E0,1.0157111E0,1.7498763E0,1.1529187E1,8.892406E0,6.9379034E0,4.2353873E0,6.067438E0,4.0457177E0,2.2942464E0,2.4961588E0,3.6655445E0,0E0,3.7524223E-1,0E0,0E0,0E0,0E0,3.9793348E-1,1.0291206E1,6.6924553E0,6.789709E0,2.6365995E0,7.257448E0,5.2773943E0,2.030168E0,0E0,5.6546116E0,4.3743763E0,2.6213415E0,7.166066E-1,0E0,0E0,2.811656E0,2.835706E0,3.716198E0,1.4573805E0,0E0,0E0,0E0,0E0,0E0,0E0,0E0,0E0,0E0,0E0,0E0,0E0,0E0,0E0,0E0,0E0,0E0,0E0,0E0,0E0,0E0,0E0,0E0,0E0,0E0,0E0,0E0,0E0,0E0,0E0,0E0,0E0,0E0,0E0],"parents":[2147483647,0,0,1,1,2,2,3,3,4,4,5,5,6,6,7,7,8,8,9,9,10,10,11,11,12,12,13,13,14,14,15,15,16,16,17,17,18,18,19,19,20,20,21,21,22,22,23,23,25,25,30,30,31,31,32,32,33,33,34,34,35,35,36,36,37,37,39,39,40,40,41,41,42,42,45,45,46,46,47,47,48,48],"right_children":[2,4,6,8,10,12,14,16,18,20,22,24,26,28,30,32,34,36,38,40,42,44,46,48,-1,50,-1,-1,-1,-1,52,54,56,58,60,62,64,66,-1,68,70,72,74,-1,-1,76,78,80,82,-1,-1,-1,-1,-1,-1,-1,-1,-1,-1,-1,-1,-1,-1,-1,-1,-1,-1,-1,-1,-1,-1,-1,-1,-1,-1,-1,-1,-1,-1,-1,-1,-1,-1],"split_conditions":[5E-1,5E-1,5E-1,5E-1,5E-1,5E-1,5E-1,5E-1,3.5E0,5E-1,5E-1,5E-1,5E-1,5E-1,1.5E0,5E-1,1.5E0,5E-1,5E-1,5E-1,5E-1,8.5E0,1.5E0,5E-1,2.3300195E-1,5.5E0,-2.0620607E-1,3.0407327E-1,-9.567482E-3,1.4565438E-1,5.5E0,5E-1,5E-1,1.5E0,5E-1,5E-1,5E-1,2.5E0,-1.9149126E-1,5E-1,5E-1,1.5E0,4.5E0,2.6578346E-1,-1.1621996E-1,5E-1,1.5E0,5E-1,5E-1,3.149432E-1,5.2856814E-2,-2.3437865E-1,-1.1295738E-2,-6.017942E-3,-1.763457E-1,2.2609176E-1,-1.8571065E-1,1.4694928E-1,-6.1890196E-2,-3.7706444E-1,6.1967798E-2,-1.6077544E-1,6.046015E-2,3.097035E-1,-1.3960375E-1,3.5818413E-1,-1.54474825E-2,9.753404E-2,-1.331369E-1,2.3457639E-1,-2.147876E-1,1.0267319E-1,-1.9314094E-1,-3.3178708E-1,-3.0858953E-2,-3.558763E-1,5.9413046E-2,-1.4534305E-1,2.1286319E-1,-2.488106E-1,2.1690262E-2,2.2392093E-1,-1.111294E-1],"split_indices":[4633,1130,2455,1103,4514,1827,3434,2135,2875,385,1159,2370,4443,570,1306,2184,2167,2098,1994,3081,4853,2552,1130,535,0,3145,0,0,0,0,4896,1690,2170,1444,2804,674,2913,773,0,4761,781,3081,4896,0,0,654,1449,2139,3062,0,0,0,0,0,0,0,0,0,0,0,0,0,0,0,0,0,0,0,0,0,0,0,0,0,0,0,0,0,0,0,0,0,0],"split_type":[0,0,0,0,0,0,0,0,0,0,0,0,0,0,0,0,0,0,0,0,0,0,0,0,0,0,0,0,0,0,0,0,0,0,0,0,0,0,0,0,0,0,0,0,0,0,0,0,0,0,0,0,0,0,0,0,0,0,0,0,0,0,0,0,0,0,0,0,0,0,0,0,0,0,0,0,0,0,0,0,0,0,0],"sum_hessian":[1.0864738E3,1.0291981E3,5.727559E1,8.7851807E2,1.5068007E2,4.9217335E1,8.058255E0,7.605606E2,1.1795746E2,1.3291466E2,1.7765411E1,4.503563E1,4.1817036E0,3.5038083E0,4.5544467E0,6.557652E2,1.0479538E2,1.09796936E2,8.160519E0,1.15443535E2,1.7471117E1,4.4329157E0,1.3332495E1,4.3872192E1,1.1634386E0,3.0447493E0,1.1369545E0,2.2918434E0,1.2119647E0,1.4784713E0,3.0759752E0,6.2656744E2,2.9197805E1,9.98718E1,4.923573E0,1.0155349E2,8.243448E0,6.730529E0,1.4299897E0,7.833114E1,3.71124E1,1.3235392E1,4.2357244E0,2.9381595E0,1.4947565E0,6.863808E0,6.468687E0,4.0821495E1,3.0506966E0,1.8795214E0,1.1652278E0,1.9889959E0,1.0869794E0,5.938223E2,3.2745083E1,2.5872272E1,3.325533E0,8.3666046E1,1.6205761E1,3.5854096E0,1.3381634E0,8.6342514E1,1.52109785E1,5.194376E0,3.0490725E0,5.1712556E0,1.5592734E0,6.81211E1,1.0210035E1,3.580675E1,1.305651E0,1.0708657E1,2.5267344E0,3.106667E0,1.1290576E0,5.2853537E0,1.5784541E0,4.2724357E0,2.1962512E0,3.57764E1,5.0450926E0,1.8738168E0,1.1768798E0],"tree_param":{"num_deleted":"0","num_feature":"5000","num_nodes":"83","size_leaf_vector":"0"}},{"base_weights":[-8.32931E-4,-1.1994785E-2,6.9516695E-1,1.6361741E-2,-2.9499394E-1,8.0815566E-1,-4.4161323E-1,-4.858025E-3,4.934171E-1,-3.605244E-1,6.7777365E-1,9.479863E-1,-2.7982201E-2,3.0546563E-2,-2.774607E-1,6.086449E-1,-2.5031427E-1,-4.163763E-1,7.332151E-1,1.0151619E0,-1.8220764E-1,1.0593504E0,1.3368706E-1,-7.186412E-1,6.405641E-1,-1.3222879E-2,3.122968E-1,-3.6423036E-1,4.5604357E-1,7.174815E-1,-2.4775822E-1,-6.358933E-1,6.287658E-1,-5.7488483E-1,-6.993436E-2,1.0503614E0,-1.6412032E-1,1.1359236E0,2.3349115E-1,-2.8101623E-2,7.47882E-1,4.649111E-1,-8.658976E-2,-4.502137E-1,2.679453E-1,1.0213562E0,-1.6036046E-1,7.8880405E-1,-6.620356E-1,-9.326533E-1,6.3962007E-1,-9.8937017E-1,3.2487437E-2,-6.3489264E-1,7.1360785E-1,4.8411041E-1,-4.4734797E-1,2.8478768E-1,1.3140119E0],"categories":[],"categories_nodes":[],"categories_segments":[],"categories_sizes":[],"default_left":[1,1,1,1,1,1,0,1,1,1,1,1,1,1,1,1,1,1,1,0,0,1,0,0,0,1,1,1,1,1,1,1,0,1,1,1,0,0,0,0,0,0,0,0,0,0,0,0,0,0,0,0,0,0,0,0,0,0,0],"id":18,"left_children":[1,3,5,7,9,11,-1,13,15,17,19,21,23,25,27,29,31,33,35,-1,-1,37,-1,-1,-1,39,41,43,45,47,49,51,-1,53,55,57,-1,-1,-1,-1,-1,-1,-1,-1,-1,-1,-1,-1,-1,-1,-1,-1,-1,-1,-1,-1,-1,-1,-1],"loss_changes":[8.314073E0,8.456967E0,2.5265846E0,9.702936E0,6.3624268E0,1.8642826E0,0E0,8.872769E0,3.6504736E0,5.838067E0,2.0432458E0,1.0821571E0,1.9486814E0,1.0039653E1,6.891713E0,3.4991894E0,2.4960494E0,4.726819E0,1.5277379E0,0E0,0E0,4.7637558E-1,0E0,0E0,0E0,8.008201E0,6.703784E0,5.2872295E0,4.2136645E0,3.658245E0,3.4902954E0,1.1652342E0,0E0,5.0474167E0,6.1527357E0,3.6332178E-1,0E0,0E0,0E0,0E0,0E0,0E0,0E0,0E0,0E0,0E0,0E0,0E0,0E0,0E0,0E0,0E0,0E0,0E0,0E0,0E0,0E0,0E0,0E0],"parents":[2147483647,0,0,1,1,2,2,3,3,4,4,5,5,7,7,8,8,9,9,10,10,11,11,12,12,13,13,14,14,15,15,16,16,17,17,18,18,21,21,25,25,26,26,27,27,28,28,29,29,30,30,31,31,33,33,34,34,35,35],"right_children":[2,4,6,8,10,12,-1,14,16,18,20,22,24,26,28,30,32,34,36,-1,-1,38,-1,-1,-1,40,42,44,46,48,50,52,-1,54,56,58,-1,-1,-1,-1,-1,-1,-1,-1,-1,-1,-1,-1,-1,-1,-1,-1,-1,-1,-1,-1,-1,-1,-1],"split_conditions":[5E-1,5E-1,5E-1,5E-1,5E-1,5E-1,-1.3248397E-1,2.5E0,5E-1,1.5E0,1.5E0,5E-1,5E-1,5E-1,5E-1,5E-1,5E-1,5E-1,5E-1,3.0454856E-1,-5.4662295E-2,5E-1,4.010612E-2,-2.1559237E-1,1.9216923E-1,1.5E0,3.5E0,5E-1,1.5E0,5E-1,5E-1,5E-1,1.8862976E-1,5E-1,5E-1,2.5E0,-4.9236096E-2,3.407771E-1,7.004735E-2,-8.4304875E-3,2.2436461E-1,1.3947333E-1,-2.597693E-2,-1.3506411E-1,8.038359E-2,3.064069E-1,-4.810814E-2,2.3664123E-1,-1.9861068E-1,-2.79796E-1,1.9188602E-1,-2.9681107E-1,9.746231E-3,-1.904678E-1,2.1408236E-1,1.4523312E-1,-1.342044E-1,8.543631E-2,3.942036E-1],"split_indices":[2583,1721,1440,2259,2096,3863,0,2527,2313,1475,2053,3034,4306,1007,443,96,4780,4088,4455,0,0,3057,0,0,0,339,1947,2973,139,2104,2933,1604,0,162,2164,4719,0,0,0,0,0,0,0,0,0,0,0,0,0,0,0,0,0,0,0,0,0,0,0],"split_type":[0,0,0,0,0,0,0,0,0,0,0,0,0,0,0,0,0,0,0,0,0,0,0,0,0,0,0,0,0,0,0,0,0,0,0,0,0,0,0,0,0,0,0,0,0,0,0,0,0,0,0,0,0,0,0,0,0,0,0],"sum_hessian":[1.068135E3,1.0522428E3,1.5892209E1,9.5726685E2,9.497598E1,1.4718379E1,1.1738302E0,9.1744794E2,3.9818928E1,8.9571396E1,5.404588E0,1.249502E1,2.2233586E0,8.127757E2,1.0467224E2,3.463456E1,5.184368E0,8.580887E1,3.7625282E0,3.752112E0,1.6524764E0,1.0727047E1,1.7679731E0,1.0567375E0,1.1666211E0,7.0431464E2,1.0846106E2,9.405006E1,1.0622188E1,3.087323E1,3.7613313E0,3.7960122E0,1.3883557E0,5.8420277E1,2.7388596E1,2.653991E0,1.1085372E0,9.473248E0,1.2537994E0,6.9175464E2,1.2559946E1,7.8327415E1,3.0133648E1,8.304305E1,1.1007001E1,5.198036E0,5.424151E0,2.9762669E1,1.1105608E0,2.094069E0,1.6672624E0,2.1687875E0,1.6272247E0,5.630528E1,2.114995E0,1.0982919E1,1.6405676E1,1.2127233E0,1.4412677E0],"tree_param":{"num_deleted":"0","num_feature":"5000","num_nodes":"59","size_leaf_vector":"0"}},{"base_weights":[1.0228762E-3,-1.8462203E-2,3.732989E-1,3.3803213E-2,-1.6779397E-1,6.2848365E-1,-4.379866E-2,-7.048467E-3,3.8702825E-1,-4.377338E-1,-3.4848243E-2,7.326086E-1,-5.8573616E-1,2.2178511E-1,-5.6839097E-1,-1.8199261E-2,9.756964E-1,4.3899977E-1,-7.9547757E-1,-5.1487464E-1,3.9915863E-1,-7.514723E-2,7.755544E-1,8.226495E-1,-5.8958805E-1,-7.21226E-2,-7.980523E-1,-4.3777654E-1,5.7398176E-1,-9.6047485E-1,1.5155326E-1,-3.7749846E-2,5.262443E-1,1.1829729E0,6.832316E-2,5.5121946E-1,-1.5818937E-1,-9.751388E-1,-1.6739744E-1,-6.1077124E-1,1.8580619E-1,1.1418432E0,-2.894564E-1,1.3798374E-1,-2.5743675E-1,-2.8758702E-1,1.0193624E0,8.9132375E-1,-2.6798737E-1,3.6207032E-1,-7.0098454E-1,7.842512E-1,-5.68935E-1,-1.1710186E0,-1.1710242E-1,5.208002E-1,-3.3353376E-1,-1.0274947E-2,-4.787128E-1,6.5064394E-1,-6.578556E-1,6.1018896E-1,-6.195798E-1,2.4880667E-1,-6.711883E-1,-6.617208E-1,6.3401335E-1,7.270046E-1,-5.400747E-1,3.3485532E-1,-8.35129E-1,-6.71375E-2,5.8809745E-1,-3.4649622E-1,3.4661216E-1,1.9622423E-1,1.2006444E0,9.640236E-1,-2.7141753E-1,-1.0215724E0,1.5256323E-1,9.818853E-1,-1.09272756E-1],"categories":[],"categories_nodes":[],"categories_segments":[],"categories_sizes":[],"default_left":[1,1,1,1,1,1,1,1,1,1,1,1,1,1,1,1,1,1,1,1,1,1,1,1,0,0,0,1,1,1,1,1,1,0,0,1,1,0,0,1,1,0,1,1,1,0,1,1,0,0,1,1,0,0,0,0,0,0,0,0,0,0,0,0,0,0,0,0,0,0,0,0,0,0,0,0,0,0,0,0,0,0,0],"id":19,"left_children":[1,3,5,7,9,11,13,15,17,19,21,23,25,27,29,31,33,35,37,39,41,43,45,47,-1,-1,-1,49,51,53,55,57,59,-1,-1,61,63,-1,-1,65,67,-1,69,71,73,-1,75,77,-1,-1,79,81,-1,-1,-1,-1,-1,-1,-1,-1,-1,-1,-1,-1,-1,-1,-1,-1,-1,-1,-1,-1,-1,-1,-1,-1,-1,-1,-1,-1,-1,-1,-1],"loss_changes":[7.6787148E0,7.857183E0,5.631465E0,1.0767395E1,9.350377E0,4.5672493E0,3.0406806E0,7.35603E0,5.102977E0,5.7595196E0,